    0.767207468720884300E+00   -0.130025117838201481E+03
    0.767207468720884300E+00   -0.130025117838201481E+03
    0.766983186966105457E+00   -0.130025110105689066E+03
    0.766983186966105457E+00   -0.130025110105689066E+03
    0.767310542646104099E+00   -0.130025086468981698E+03
    0.767310542646104099E+00   -0.130025086468981698E+03
    0.767274890262084508E+00   -0.130025085212273950E+03
    0.767274890262084508E+00   -0.130025085212273950E+03
    0.766992708350583863E+00   -0.130025045334456962E+03
    0.766992708350583863E+00   -0.130025045334456962E+03
    0.766999097805859287E+00   -0.130025042383132615E+03
    0.766999097805859287E+00   -0.130025042383132615E+03
    0.767018279873162068E+00   -0.130025028398610942E+03
    0.767018279873162068E+00   -0.130025028398610942E+03
    0.767020466400476608E+00   -0.130025028008976278E+03
    0.767020466400476608E+00   -0.130025028008976278E+03
    0.767059963190484861E+00   -0.130025004242840964E+03
    0.767059963190484861E+00   -0.130025004242840964E+03
    0.767135330446349295E+00   -0.130024991371818601E+03
    0.767135330446349295E+00   -0.130024991371818601E+03
    0.766756043886287264E+00   -0.130024924037036527E+03
    0.766756043886287264E+00   -0.130024924037036527E+03
    0.766763136684030400E+00   -0.130024898710892614E+03
    0.766763136684030400E+00   -0.130024898710892614E+03
    0.767082139030434540E+00   -0.130024898607810911E+03
    0.767082139030434540E+00   -0.130024898607810911E+03
    0.766870760641285898E+00   -0.130024897939426410E+03
    0.766870760641285898E+00   -0.130024897939426410E+03
    0.766871542767244341E+00   -0.130024897926963092E+03
    0.766871542767244341E+00   -0.130024897926963092E+03
    0.766321651128949455E+00   -0.130024833603149034E+03
    0.766321651128949455E+00   -0.130024833603149034E+03
    0.766964269794017772E+00   -0.130024807718414849E+03
    0.766964269794017772E+00   -0.130024807718414849E+03
    0.766962476042367114E+00   -0.130024807648567048E+03
    0.766962476042367114E+00   -0.130024807648567048E+03
    0.785070771180178650E+00   -0.130024790301087592E+03
    0.785070771180178650E+00   -0.130024790301087592E+03
    0.785263644583328646E+00   -0.130024778951333502E+03
    0.785263644583328646E+00   -0.130024778951333502E+03
    0.766373496374783802E+00   -0.130024776566310834E+03
    0.766373496374783802E+00   -0.130024776566310834E+03
    0.766372990561937639E+00   -0.130024776534020276E+03
    0.766372990561937639E+00   -0.130024776534020276E+03
    0.785280949548331053E+00   -0.130024775441566931E+03
    0.785280949548331053E+00   -0.130024775441566931E+03
    0.766705440907668678E+00   -0.130024766404730883E+03
    0.766705440907668678E+00   -0.130024766404730883E+03
    0.766674056533623971E+00   -0.130024760996806009E+03
    0.766675918792657951E+00   -0.130024760912245085E+03
    0.766675918792657951E+00   -0.130024760912245085E+03
    0.785122708910980349E+00   -0.130024753524017058E+03
    0.785122708910980349E+00   -0.130024753524017058E+03
    0.785051592538244969E+00   -0.130024752858069121E+03
    0.785348108477895490E+00   -0.130024751824539237E+03
    0.785348108477895490E+00   -0.130024751824539237E+03
    0.785037871651174890E+00   -0.130024751747815742E+03
    0.785037871651174890E+00   -0.130024751747815742E+03
    0.785335860499564720E+00   -0.130024751628903573E+03
    0.785335860499564720E+00   -0.130024751628903573E+03
    0.767372105664248738E+00   -0.130024705843335539E+03
    0.767372105664248738E+00   -0.130024705843335539E+03
    0.766497438790723296E+00   -0.130024704656191034E+03
    0.766560939426023547E+00   -0.130024677464606526E+03
    0.766560939426023547E+00   -0.130024677464606526E+03
    0.766571492988409209E+00   -0.130024675246608609E+03
    0.766571492988409209E+00   -0.130024675246608609E+03
    0.766434496490596362E+00   -0.130024659845100757E+03
    0.766434496490596362E+00   -0.130024659845100757E+03
    0.766444158315210400E+00   -0.130024656695694205E+03
    0.766445785365561960E+00   -0.130024656182853619E+03
    0.766445785365561960E+00   -0.130024656182853619E+03
    0.771005417569339602E+00   -0.130024620378541897E+03
    0.766399730135399748E+00   -0.130024618709962368E+03
    0.767494281731490813E+00   -0.130024576406244108E+03
    0.767494281731490813E+00   -0.130024576406244108E+03
    0.767490453310558318E+00   -0.130024575234723613E+03
    0.767490453310558318E+00   -0.130024575234723613E+03
    0.767485955800849662E+00   -0.130024572538965259E+03
    0.767485955800849662E+00   -0.130024572538965259E+03
    0.770973763732920814E+00   -0.130024538600607571E+03
    0.770964627131578206E+00   -0.130024519498091706E+03
    0.770964627131578206E+00   -0.130024519498091706E+03
    0.770954818016090226E+00   -0.130024516362277609E+03
    0.770954818016090226E+00   -0.130024516362277609E+03
    0.767400568198398969E+00   -0.130024513806559014E+03
    0.767400568198398969E+00   -0.130024513806559014E+03
    0.767426043810640612E+00   -0.130024505861033504E+03
    0.767426043810640612E+00   -0.130024505861033504E+03
    0.767539873395026606E+00   -0.130024496238953503E+03
    0.767539873395026606E+00   -0.130024496238953503E+03
    0.771529177066303751E+00   -0.130024495350442493E+03
    0.770930253552045475E+00   -0.130024491256420845E+03
    0.770930253552045475E+00   -0.130024491256420845E+03
    0.767656726438592174E+00   -0.130024488949678471E+03
    0.767656726438592174E+00   -0.130024488949678471E+03
    0.767656221767535674E+00   -0.130024488890770215E+03
    0.767656221767535674E+00   -0.130024488890770215E+03
    0.771511320616866336E+00   -0.130024483462466804E+03
    0.767562818801247770E+00   -0.130024479868254076E+03
    0.771477225634025321E+00   -0.130024463506308791E+03
    0.767596731097733520E+00   -0.130024455787531053E+03
    0.767596731097733520E+00   -0.130024455787531053E+03
    0.771309030873892132E+00   -0.130024451331094042E+03
    0.767737311673478806E+00   -0.130024447923642128E+03
    0.767737311673478806E+00   -0.130024447923642128E+03
    0.767749464883262789E+00   -0.130024445617079266E+03
    0.767761997167233923E+00   -0.130024443361149395E+03
    0.767761997167233923E+00   -0.130024443361149395E+03
    0.767768147988457716E+00   -0.130024441060684694E+03
    0.767768147988457716E+00   -0.130024441060684694E+03
    0.767840924523446544E+00   -0.130024433130912684E+03
    0.767840924523446544E+00   -0.130024433130912684E+03
    0.771422042936838248E+00   -0.130024432750707717E+03
    0.771422042936838248E+00   -0.130024432750707717E+03
    0.771412567223948575E+00   -0.130024427867197971E+03
    0.771412567223948575E+00   -0.130024427867197971E+03
    0.771383344257844605E+00   -0.130024425780361838E+03
    0.771383344257844605E+00   -0.130024425780361838E+03
    0.771127176883333765E+00   -0.130024419961357722E+03
    0.771127176883333765E+00   -0.130024419961357722E+03
    0.771200283395551689E+00   -0.130024410850065721E+03
    0.771200283395551689E+00   -0.130024410850065721E+03
    0.771100038825259126E+00   -0.130024408486253009E+03
    0.771100038825259126E+00   -0.130024408486253009E+03
    0.767895672198750101E+00   -0.130024401357307539E+03
    0.767895672198750101E+00   -0.130024401357307539E+03
    0.767898132755597596E+00   -0.130024401139038616E+03
    0.767898132755597596E+00   -0.130024401139038616E+03
    0.767908222751356839E+00   -0.130024400394910288E+03
    0.771333997247918512E+00   -0.130024400040430010E+03
    0.771333997247918512E+00   -0.130024400040430010E+03
    0.771325110698524607E+00   -0.130024398358576491E+03
    0.771325110698524607E+00   -0.130024398358576491E+03
    0.771327596374745905E+00   -0.130024397023299514E+03
    0.771327596374745905E+00   -0.130024397023299514E+03
    0.767712128359405499E+00   -0.130024396034852145E+03
    0.767712128359405499E+00   -0.130024396034852145E+03
    0.767713499648859710E+00   -0.130024395314592766E+03
    0.767713499648859710E+00   -0.130024395314592766E+03
    0.767982864970748746E+00   -0.130024381463993308E+03
    0.767982864970748746E+00   -0.130024381463993308E+03
    0.770909219501816123E+00   -0.130024374990098636E+03
    0.770905863781827905E+00   -0.130024368236081500E+03
    0.770905863781827905E+00   -0.130024368236081500E+03
    0.782866977721453750E+00   -0.130024357815478481E+03
    0.782866977721453750E+00   -0.130024357815478481E+03
    0.782651925052984865E+00   -0.130024309780476585E+03
    0.782651925052984865E+00   -0.130024309780476585E+03
    0.782650181540081813E+00   -0.130024309578345935E+03
    0.782650181540081813E+00   -0.130024309578345935E+03
    0.782659241641513237E+00   -0.130024309045335031E+03
    0.782659241641513237E+00   -0.130024309045335031E+03
    0.782661146146766851E+00   -0.130024308871997050E+03
    0.782661146146766851E+00   -0.130024308871997050E+03
    0.782619439993649690E+00   -0.130024305729742480E+03
    0.782644569643606069E+00   -0.130024301747639328E+03
    0.782644569643606069E+00   -0.130024301747639328E+03
    0.769699549240744796E+00   -0.130024300173060311E+03
    0.769699549240744796E+00   -0.130024300173060311E+03
    0.782179751615588614E+00   -0.130024294036226934E+03
    0.782179751615588614E+00   -0.130024294036226934E+03
    0.782696583874318952E+00   -0.130024293928405001E+03
    0.782690710507997212E+00   -0.130024293830510373E+03
    0.782694419041009115E+00   -0.130024293783970279E+03
    0.782700060624017646E+00   -0.130024293681604888E+03
    0.782700060624017646E+00   -0.130024293681604888E+03
    0.782172479556859312E+00   -0.130024293241024509E+03
    0.769691038340168943E+00   -0.130024292259770561E+03
    0.782610299966937872E+00   -0.130024289825957936E+03
    0.782610299966937872E+00   -0.130024289825957936E+03
    0.769913365350946455E+00   -0.130024283279225500E+03
    0.769915404587387053E+00   -0.130024282562779632E+03
    0.769915404587387053E+00   -0.130024282562779632E+03
    0.769865755003185104E+00   -0.130024279892213144E+03
    0.769865755003185104E+00   -0.130024279892213144E+03
    0.782558487833005301E+00   -0.130024279782690940E+03
    0.782558487833005301E+00   -0.130024279782690940E+03
    0.782528769330162688E+00   -0.130024278542575473E+03
    0.782795427468624627E+00   -0.130024277946408716E+03
    0.782795427468624627E+00   -0.130024277946408716E+03
    0.782522004226069323E+00   -0.130024277289141907E+03
    0.782522004226069323E+00   -0.130024277289141907E+03
    0.782470281151735003E+00   -0.130024275447871048E+03
    0.782470281151735003E+00   -0.130024275447871048E+03
    0.770649971578639570E+00   -0.130024272092977242E+03
    0.770649971578639570E+00   -0.130024272092977242E+03
    0.770753600413663476E+00   -0.130024270752292978E+03
    0.770753600413663476E+00   -0.130024270752292978E+03
    0.769720164254146688E+00   -0.130024269253211031E+03
    0.769720164254146688E+00   -0.130024269253211031E+03
    0.769719108098655291E+00   -0.130024269189128802E+03
    0.769719108098655291E+00   -0.130024269189128802E+03
    0.782036324558070373E+00   -0.130024268918694077E+03
    0.782739189757735820E+00   -0.130024268473764351E+03
    0.782739189757735820E+00   -0.130024268473764351E+03
    0.770754918039000758E+00   -0.130024268399606854E+03
    0.782394518836627362E+00   -0.130024265284751039E+03
    0.782394518836627362E+00   -0.130024265284751039E+03
    0.770680787341403550E+00   -0.130024264163129089E+03
    0.769791398231223223E+00   -0.130024263970069796E+03
    0.769791398231223223E+00   -0.130024263970069796E+03
    0.782098988261505590E+00   -0.130024257959980048E+03
    0.782098988261505590E+00   -0.130024257959980048E+03
    0.782743050148780539E+00   -0.130024257905084170E+03
    0.782743050148780539E+00   -0.130024257905084170E+03
    0.782078417777902768E+00   -0.130024256066206476E+03
    0.782078417777902768E+00   -0.130024256066206476E+03
    0.767669947221764626E+00   -0.130024253405397246E+03
    0.767669947221764626E+00   -0.130024253405397246E+03
    0.770112040187665881E+00   -0.130024246630476057E+03
    0.770112040187665881E+00   -0.130024246630476057E+03
    0.769778494865592910E+00   -0.130024244593498850E+03
    0.769778494865592910E+00   -0.130024244593498850E+03
    0.770058863615017519E+00   -0.130024241242108133E+03
    0.770058863615017519E+00   -0.130024241242108133E+03
    0.768640238984373947E+00   -0.130024240758584824E+03
    0.768601917095988019E+00   -0.130024232568464868E+03
    0.769771413485746958E+00   -0.130024230516624414E+03
    0.769771413485746958E+00   -0.130024230516624414E+03
    0.769771436321541436E+00   -0.130024230512229821E+03
    0.768538821796038607E+00   -0.130024223095339266E+03
    0.768538821796038607E+00   -0.130024223095339266E+03
    0.768573360935080774E+00   -0.130024222527533567E+03
    0.768573360935080774E+00   -0.130024222527533567E+03
    0.768546914801576775E+00   -0.130024222171621318E+03
    0.770171504596304457E+00   -0.130024207754083477E+03
    0.770175120644349009E+00   -0.130024204730454585E+03
    0.770175120644349009E+00   -0.130024204730454585E+03
    0.773413381298708180E+00   -0.130024204038005337E+03
    0.773413381298708180E+00   -0.130024204038005337E+03
    0.773414646401718420E+00   -0.130024203357100475E+03
    0.773414646401718420E+00   -0.130024203357100475E+03
    0.782353061593669241E+00   -0.130024202207913106E+03
    0.782347507928469188E+00   -0.130024200429870916E+03
    0.770698004388597591E+00   -0.130024189827766634E+03
    0.770698004388597591E+00   -0.130024189827766634E+03
    0.769594343594117047E+00   -0.130024186669217556E+03
    0.769594343594117047E+00   -0.130024186669217556E+03
    0.768648804690856391E+00   -0.130024183049899989E+03
    0.768676700897305332E+00   -0.130024180596175398E+03
    0.768676700897305332E+00   -0.130024180596175398E+03
    0.769662477612102713E+00   -0.130024179476251163E+03
    0.769662477612102713E+00   -0.130024179476251163E+03
    0.769613966392251991E+00   -0.130024177746886835E+03
    0.768230964459095333E+00   -0.130024175168727680E+03
    0.768230964459095333E+00   -0.130024175168727680E+03
    0.770218015400565115E+00   -0.130024172926292238E+03
    0.768352793422262370E+00   -0.130024161519432823E+03
    0.768243581235505735E+00   -0.130024158226524065E+03
    0.768243581235505735E+00   -0.130024158226524065E+03
    0.782224806637955683E+00   -0.130024156152919943E+03
    0.768165160833928939E+00   -0.130024156028069854E+03
    0.768167673913103588E+00   -0.130024155376554376E+03
    0.768175247404318973E+00   -0.130024153818872492E+03
    0.768175247404318973E+00   -0.130024153818872492E+03
    0.768030019744411763E+00   -0.130024151914669687E+03
    0.768030019744411763E+00   -0.130024151914669687E+03
    0.768037416258220529E+00   -0.130024151735377558E+03
    0.768037416258220529E+00   -0.130024151735377558E+03
    0.768042721013261542E+00   -0.130024151624340391E+03
    0.768042721013261542E+00   -0.130024151624340391E+03
    0.767853642919142043E+00   -0.130024150847916928E+03
    0.767854417052572513E+00   -0.130024150747408441E+03
    0.768096646599966459E+00   -0.130024149811215921E+03
    0.768011682601502099E+00   -0.130024149561993909E+03
    0.768011682601502099E+00   -0.130024149561993909E+03
    0.768020838613269974E+00   -0.130024149226791906E+03
    0.768020838613269974E+00   -0.130024149226791906E+03
    0.768206815606508719E+00   -0.130024146614689414E+03
    0.779625010817662112E+00   -0.130024142981416759E+03
    0.779625010817662112E+00   -0.130024142981416759E+03
    0.782289024317200377E+00   -0.130024141883473533E+03
    0.782289024317200377E+00   -0.130024141883473533E+03
    0.773432124918758346E+00   -0.130024140464127981E+03
    0.773432124918758346E+00   -0.130024140464127981E+03
    0.768226693023751239E+00   -0.130024140255796823E+03
    0.768226693023751239E+00   -0.130024140255796823E+03
    0.784718001544583266E+00   -0.130024134382048572E+03
    0.784704169903910342E+00   -0.130024133781052115E+03
    0.784704169903910342E+00   -0.130024133781052115E+03
    0.784652502777272276E+00   -0.130024130234806449E+03
    0.784643169788097783E+00   -0.130024129840504656E+03
    0.779617167864072647E+00   -0.130024127806634965E+03
    0.779614901411477601E+00   -0.130024127546411535E+03
    0.779633437225798698E+00   -0.130024125979077041E+03
    0.779633437225798698E+00   -0.130024125979077041E+03
    0.769974767376740643E+00   -0.130024125528223692E+03
    0.769974767376740643E+00   -0.130024125528223692E+03
    0.784624363369612943E+00   -0.130024125058456917E+03
    0.773443723218738222E+00   -0.130024117586086646E+03
    0.769990472694344730E+00   -0.130024116938611598E+03
    0.773529942044105301E+00   -0.130024116571584443E+03
    0.773529942044105301E+00   -0.130024116571584443E+03
    0.772844815689536002E+00   -0.130024115405422094E+03
    0.772844815689536002E+00   -0.130024115405422094E+03
    0.770045835794307743E+00   -0.130024115075466455E+03
    0.770045835794307743E+00   -0.130024115075466455E+03
    0.769999221087182550E+00   -0.130024114018530895E+03
    0.769999221087182550E+00   -0.130024114018530895E+03
    0.773532080616251672E+00   -0.130024113333340551E+03
    0.773532080616251672E+00   -0.130024113333340551E+03
    0.784552489990293034E+00   -0.130024112222574502E+03
    0.773590040146038715E+00   -0.130024112219813560E+03
    0.770609613879182254E+00   -0.130024112184566633E+03
    0.768381455769613697E+00   -0.130024112061684036E+03
    0.768381455769613697E+00   -0.130024112061684036E+03
    0.770592909495572687E+00   -0.130024111422699860E+03
    0.773550617572362431E+00   -0.130024111326664240E+03
    0.773306359064635296E+00   -0.130024111164978279E+03
    0.770591181967725802E+00   -0.130024111120397265E+03
    0.784745638564765646E+00   -0.130024110852214051E+03
    0.770055125395472939E+00   -0.130024110768842661E+03
    0.784570209424963916E+00   -0.130024110764402508E+03
    0.784571924393123954E+00   -0.130024110754412106E+03
    0.784571924393123954E+00   -0.130024110754412106E+03
    0.784571956363236178E+00   -0.130024110754226172E+03
    0.773560666463691704E+00   -0.130024110680427214E+03
    0.773553283651359558E+00   -0.130024109885132845E+03
    0.768469636189720418E+00   -0.130024109378350943E+03
    0.768468565190962627E+00   -0.130024109323727743E+03
    0.773571496339189646E+00   -0.130024109075733236E+03
    0.773571496339189646E+00   -0.130024109075733236E+03
    0.768437969793614783E+00   -0.130024102887520144E+03
    0.779586076929986049E+00   -0.130024100149945156E+03
    0.779586076929986049E+00   -0.130024100149945156E+03
    0.768398220668078280E+00   -0.130024099991392063E+03
    0.768398220668078280E+00   -0.130024099991392063E+03
    0.773022900632227339E+00   -0.130024099820546780E+03
    0.781640283375651168E+00   -0.130024098873604714E+03
    0.784514427288173666E+00   -0.130024095769253051E+03
    0.784514427288173666E+00   -0.130024095769253051E+03
    0.773648150392069023E+00   -0.130024095746373462E+03
    0.784521581742561702E+00   -0.130024095699631999E+03
    0.781630884162672790E+00   -0.130024091985349287E+03
    0.784473435895421400E+00   -0.130024089762938672E+03
    0.768285685873235313E+00   -0.130024088673716108E+03
    0.768285685873235313E+00   -0.130024088673716108E+03
    0.784774850112972433E+00   -0.130024085603440966E+03
    0.784774850112972433E+00   -0.130024085603440966E+03
    0.784768184344584729E+00   -0.130024085587830996E+03
    0.784796276938865556E+00   -0.130024085449131945E+03
    0.784802659543402559E+00   -0.130024085143759635E+03
    0.784448615670479299E+00   -0.130024085073422270E+03
    0.784432385129603782E+00   -0.130024083101593703E+03
    0.784856631943486094E+00   -0.130024080085321600E+03
    0.781548619355107443E+00   -0.130024078558738779E+03
    0.784864466904547475E+00   -0.130024077692488532E+03
    0.784864466904547475E+00   -0.130024077692488532E+03
    0.773596472989323547E+00   -0.130024077591663826E+03
    0.770256674116918560E+00   -0.130024076776409743E+03
    0.779702460697976552E+00   -0.130024067644112961E+03
    0.783945136642528961E+00   -0.130024064142345537E+03
    0.783942782272125549E+00   -0.130024063939543623E+03
    0.773266204603748175E+00   -0.130024062281221234E+03
    0.773229050766246262E+00   -0.130024061765405577E+03
    0.773229050766246262E+00   -0.130024061765405577E+03
    0.783925760470973731E+00   -0.130024060505050500E+03
    0.783925760470973731E+00   -0.130024060505050500E+03
    0.771642935859726986E+00   -0.130024060331796022E+03
    0.773221223797712853E+00   -0.130024059767259530E+03
    0.781586516497717376E+00   -0.130024059049413665E+03
    0.781586516497717376E+00   -0.130024059049413665E+03
    0.776338903465069397E+00   -0.130024057572264098E+03
    0.776335414155683856E+00   -0.130024057017530083E+03
    0.771686991816088685E+00   -0.130024056642377616E+03
    0.772713981430844132E+00   -0.130024056442382630E+03
    0.771688871201968496E+00   -0.130024056406314116E+03
    0.772721884899288725E+00   -0.130024056399072037E+03
    0.772719627581011537E+00   -0.130024055964803324E+03
    0.775845105672158364E+00   -0.130024055149281878E+03
    0.775845105672158364E+00   -0.130024055149281878E+03
    0.775844000419709023E+00   -0.130024054969049075E+03
    0.775844000419709023E+00   -0.130024054969049075E+03
    0.771700867986560790E+00   -0.130024054310316785E+03
    0.775837684038975794E+00   -0.130024053932496884E+03
    0.771725741875619820E+00   -0.130024052638391822E+03
    0.770826194262297038E+00   -0.130024051064527214E+03
    0.770826194262297038E+00   -0.130024051064527214E+03
    0.781834539486152558E+00   -0.130024050823654989E+03
    0.784938964116644988E+00   -0.130024050341636325E+03
    0.775818086360214765E+00   -0.130024050048812200E+03
    0.775824837762831510E+00   -0.130024049942435397E+03
    0.779744070940757150E+00   -0.130024049819482855E+03
    0.779744070940757150E+00   -0.130024049819482855E+03
    0.770807946178985515E+00   -0.130024047308552838E+03
    0.779797201841816778E+00   -0.130024045672271484E+03
    0.781929569502792021E+00   -0.130024044900842227E+03
    0.781929569502792021E+00   -0.130024044900842227E+03
    0.779454403455849709E+00   -0.130024044559069978E+03
    0.779803928125059609E+00   -0.130024044470096953E+03
    0.781889518944769435E+00   -0.130024043735237058E+03
    0.781889518944769435E+00   -0.130024043735237058E+03
    0.779786539809407597E+00   -0.130024043569614548E+03
    0.775798049092411346E+00   -0.130024042699842568E+03
    0.771996644046472502E+00   -0.130024042611145120E+03
    0.781922798689750120E+00   -0.130024041934213471E+03
    0.781922678801829418E+00   -0.130024041927997189E+03
    0.775790587496588580E+00   -0.130024041676481829E+03
    0.776544313719349399E+00   -0.130024041661027553E+03
    0.781901720109721698E+00   -0.130024041106180192E+03
    0.781903672570143593E+00   -0.130024040784298251E+03
    0.779766754877132429E+00   -0.130024040255231284E+03
    0.779766754877132429E+00   -0.130024040255231284E+03
    0.781863100214218787E+00   -0.130024039981410738E+03
    0.784894079220946117E+00   -0.130024039227030528E+03
    0.784894079220946117E+00   -0.130024039227030528E+03
    0.779837044594110185E+00   -0.130024038631619504E+03
    0.779689881600626800E+00   -0.130024035981706390E+03
    0.779687390215456855E+00   -0.130024035728881728E+03
    0.779687390215456855E+00   -0.130024035728881728E+03
    0.772047012958198331E+00   -0.130024034922472765E+03
    0.772686717775900256E+00   -0.130024033355000938E+03
    0.772026264355399228E+00   -0.130024033340901667E+03
    0.784381213539704469E+00   -0.130024032004926312E+03
    0.784380860726680784E+00   -0.130024031987506334E+03
    0.784380860726680784E+00   -0.130024031987506334E+03
    0.784368770315331476E+00   -0.130024031241793324E+03
    0.775220241837242252E+00   -0.130024030575170457E+03
    0.772073692016805313E+00   -0.130024029742003279E+03
    0.772077705407672510E+00   -0.130024029544614962E+03
    0.772077705407672510E+00   -0.130024029544614962E+03
    0.772065329548893065E+00   -0.130024029154101157E+03
    0.776266920473936306E+00   -0.130024026216206920E+03
    0.775775263536750970E+00   -0.130024025445600500E+03
    0.783950644636140170E+00   -0.130024024157180321E+03
    0.776330542138946922E+00   -0.130024023371121928E+03
    0.776287594860403662E+00   -0.130024023122607986E+03
    0.776326251293177561E+00   -0.130024022779998575E+03
    0.781766012692503121E+00   -0.130024022157353329E+03
    0.776280222324178926E+00   -0.130024022057993022E+03
    0.775271535598641703E+00   -0.130024020861365386E+03
    0.775266818865306684E+00   -0.130024020599075442E+03
    0.775176700828044352E+00   -0.130024019232078217E+03
    0.779840990619383945E+00   -0.130024019143429427E+03
    0.776205045747197842E+00   -0.130024018539513975E+03
    0.776246540669216833E+00   -0.130024017848884171E+03
    0.776246365975389541E+00   -0.130024017825790111E+03
    0.776397219233249336E+00   -0.130024017094408094E+03
    0.784974134665402556E+00   -0.130024017052781346E+03
    0.776382184146210963E+00   -0.130024016988647759E+03
    0.776382184146210963E+00   -0.130024016988647759E+03
    0.776615958740725310E+00   -0.130024016787234501E+03
    0.776615958740725310E+00   -0.130024016787234501E+03
    0.772676389146089493E+00   -0.130024014104256139E+03
    0.776416126129229500E+00   -0.130024013155532089E+03
    0.772668261886859664E+00   -0.130024013000308400E+03
    0.776469100605097329E+00   -0.130024011970161894E+03
    0.770315468294991312E+00   -0.130024011457927259E+03
    0.770288759549851654E+00   -0.130024010702451335E+03
    0.770329286343057640E+00   -0.130024010460137873E+03
    0.770291579770461032E+00   -0.130024009926434786E+03
    0.768306266632945656E+00   -0.130024007577152474E+03
    0.768315185152451674E+00   -0.130024007455446963E+03
    0.770306291731008397E+00   -0.130024004691850394E+03
    0.770312182224175968E+00   -0.130024004497870067E+03
    0.770039421219658515E+00   -0.130023999786945069E+03
    0.770496954629259712E+00   -0.130023994615010622E+03
    0.770490589151568428E+00   -0.130023989914018330E+03
    0.770531055740259596E+00   -0.130023987622842640E+03
    0.770527634519046933E+00   -0.130023987177333879E+03
    0.770478353732924615E+00   -0.130023983709837864E+03
    0.770475981093885598E+00   -0.130023983443304189E+03
    0.770555632705216098E+00   -0.130023971112763604E+03
    0.772767871622067726E+00   -0.130024011100976878E+03
    0.781742854913393903E+00   -0.130024007446076126E+03
    0.776366718604448169E+00   -0.130024006430951999E+03
    0.776366691201494818E+00   -0.130024006428456119E+03
    0.779660696313583590E+00   -0.130024006230199973E+03
    0.775238810763465125E+00   -0.130024003928342950E+03
    0.776189324444537587E+00   -0.130024002141341015E+03
    0.776189324444537587E+00   -0.130024002141341015E+03
    0.781515266535584674E+00   -0.130024001321970843E+03
    0.781713588559280526E+00   -0.130024001317781199E+03
    0.781514554058799216E+00   -0.130024001269685130E+03
    0.781508636162678294E+00   -0.130024001012099916E+03
    0.781499981396597709E+00   -0.130023999292221134E+03
    0.781499981396597709E+00   -0.130023999292221134E+03
    0.781413138012253539E+00   -0.130023998765005302E+03
    0.772087684649828909E+00   -0.130023997350318098E+03
    0.775727818748499054E+00   -0.130023995962486993E+03
    0.775729611358360160E+00   -0.130023995918175785E+03
    0.775469081205327537E+00   -0.130023995553001782E+03
    0.775469081205327537E+00   -0.130023995553001782E+03
    0.771952220433820724E+00   -0.130023995072771839E+03
    0.781674012985781652E+00   -0.130023994842310515E+03
    0.772927059944886419E+00   -0.130023994381296347E+03
    0.772890822964529933E+00   -0.130023993913875870E+03
    0.781665922263822810E+00   -0.130023993640510639E+03
    0.772900545303999209E+00   -0.130023992989007013E+03
    0.771764197353402959E+00   -0.130023992570082498E+03
    0.781698016831073650E+00   -0.130023991724662665E+03
    0.772921567936331266E+00   -0.130023991556750275E+03
    0.781649321783077888E+00   -0.130023991040881782E+03
    0.775739090498878459E+00   -0.130023990881185739E+03
    0.781432715138799527E+00   -0.130023990753637634E+03
    0.781431943288948494E+00   -0.130023990676990593E+03
    0.771782729742354845E+00   -0.130023990662197093E+03
    0.776632591191582455E+00   -0.130023989386137885E+03
    0.776628385980042246E+00   -0.130023989096958303E+03
    0.772627567359434830E+00   -0.130023988096861842E+03
    0.772627430344668298E+00   -0.130023988074788207E+03
    0.772619692435733141E+00   -0.130023986852100563E+03
    0.775491325552660538E+00   -0.130023985780964210E+03
    0.775455734825285736E+00   -0.130023984912117498E+03
    0.772189044748678222E+00   -0.130023984896709123E+03
    0.772187183631434015E+00   -0.130023983913779631E+03
    0.781496770683903885E+00   -0.130023983692016600E+03
    0.775711949013175195E+00   -0.130023983493146829E+03
    0.775720005481442376E+00   -0.130023983330098844E+03
    0.771918703921338767E+00   -0.130023982984976811E+03
    0.779944771312440555E+00   -0.130023982556464546E+03
    0.784283015056590815E+00   -0.130023996022144559E+03
    0.784281761371477870E+00   -0.130023995962377683E+03
    0.784278334860526893E+00   -0.130023995799304089E+03
    0.784294652177421225E+00   -0.130023991947043100E+03
    0.784294196603322780E+00   -0.130023991925907836E+03
    0.783979180244832485E+00   -0.130023989238206013E+03
    0.783980657720730778E+00   -0.130023989235945407E+03
    0.784272488897158393E+00   -0.130023986695611427E+03
    0.784332797851193142E+00   -0.130023976481002848E+03
    0.782996939652799262E+00   -0.130023975937718120E+03
    0.784306789402149040E+00   -0.130023973716702159E+03
    0.784244606311697012E+00   -0.130023960741388635E+03
    0.784039483868915643E+00   -0.130023958972152741E+03
    0.784021745120737079E+00   -0.130023957155418486E+03
    0.784070047427990247E+00   -0.130023957107500365E+03
    0.784067562761719850E+00   -0.130023952686376560E+03
    0.784063072102749503E+00   -0.130023952603428540E+03
    0.783551959068728543E+00   -0.130023951053740632E+03
    0.783553597536977287E+00   -0.130023950863210217E+03
    0.783555109266567129E+00   -0.130023950677126209E+03
    0.783555352467777633E+00   -0.130023950647274347E+03
    0.783555684652088025E+00   -0.130023950507267244E+03
    0.783586629010797342E+00   -0.130023946066949321E+03
    0.783612823311564344E+00   -0.130023942845912359E+03
    0.784150766839353364E+00   -0.130023935655298146E+03
    0.783377238980343171E+00   -0.130023830802458264E+03
    0.783353471485523256E+00   -0.130023822222549086E+03
    0.783318515593233178E+00   -0.130023829533704372E+03
    0.783080268608383978E+00   -0.130023893984492048E+03
    0.783169303087201674E+00   -0.130023832994551384E+03
    0.783156206759108575E+00   -0.130023836563370139E+03
    0.783360842879958219E+00   -0.130023823225338788E+03
    0.783327404426206519E+00   -0.130023825037721821E+03
    0.783466286018847824E+00   -0.130023857919295352E+03
    0.783379933604083423E+00   -0.130023822578559532E+03
    0.783251829364613017E+00   -0.130023827521121859E+03
    0.783080619137828116E+00   -0.130023893919694331E+03
    0.783439888982301769E+00   -0.130023830464902829E+03
    0.783248398286503167E+00   -0.130023824468179384E+03
    0.783114518874626908E+00   -0.130023884957399588E+03
    0.783098249098887589E+00   -0.130023888183045784E+03
    0.783231878013347815E+00   -0.130023828209235035E+03
    0.783165601642413001E+00   -0.130023833896343490E+03
    0.783102909123518987E+00   -0.130023887474776416E+03
    0.783109798575231997E+00   -0.130023885808796024E+03
    0.783232483720990080E+00   -0.130023828128811118E+03
    0.783689701155228846E+00   -0.130023924872674911E+03
    0.783775294279829171E+00   -0.130023909216692232E+03
    0.783687722433643374E+00   -0.130023925053578409E+03
    0.783669050746345630E+00   -0.130023930840997537E+03
    0.783646704779727643E+00   -0.130023929076141656E+03
    0.783886960172694991E+00   -0.130023928721773956E+03
    0.783849008600385200E+00   -0.130023929058211252E+03
    0.783686421265466948E+00   -0.130023925166304991E+03
    0.783680935113675758E+00   -0.130023925647001249E+03
    0.783812309500590665E+00   -0.130023934412177937E+03
    0.783193223290173268E+00   -0.130023812445581456E+03
    0.783211915098746991E+00   -0.130023823308709552E+03
    0.783081097890986011E+00   -0.130023893831351302E+03
    0.783458690180958039E+00   -0.130023858238473537E+03
    0.783670782756845652E+00   -0.130023927443198801E+03
    0.784207589569450692E+00   -0.130023928779887456E+03
    0.784132867424778279E+00   -0.130023935022090768E+03
    0.784214909583348163E+00   -0.130023929110184440E+03
    0.784203297581891667E+00   -0.130023928584887727E+03
    0.770383021142009294E+00   -0.130023964066312715E+03
    0.770398026542514769E+00   -0.130023966833486327E+03
    0.770555473636009847E+00   -0.130023971090929422E+03
    0.770367500794339799E+00   -0.130023968316898902E+03
    0.770576073806145345E+00   -0.130023962500039772E+03
    0.770423780751448239E+00   -0.130023968067603676E+03
    0.770336973904375055E+00   -0.130023960872023622E+03
    0.770337375814356684E+00   -0.130023962204404654E+03
    0.770576656118902803E+00   -0.130023962571166948E+03
    0.770381936029294834E+00   -0.130023964012728925E+03
    0.770338472671081687E+00   -0.130023965779307048E+03
    0.770380465380924195E+00   -0.130023965156328273E+03
    0.768784239220331789E+00   -0.130023965646847017E+03
    0.768808681512876513E+00   -0.130023965425158337E+03
    0.769540026373538022E+00   -0.130023965060336479E+03
    0.768795783856194848E+00   -0.130023963500731071E+03
    0.768816470802349050E+00   -0.130023963446167329E+03
    0.768780962893665820E+00   -0.130023959164627883E+03
    0.768839150171565455E+00   -0.130023951395293409E+03
    0.769524278809714191E+00   -0.130023949563921974E+03
    0.769521667536623655E+00   -0.130023948827039902E+03
    0.768700283422190545E+00   -0.130023948095543631E+03
    0.769092725683411027E+00   -0.130023712110926027E+03
    0.769095343807239873E+00   -0.130023707366710028E+03
    0.769098943705480265E+00   -0.130023706562713187E+03
    0.769159549532280273E+00   -0.130023724422127202E+03
    0.769039809438818889E+00   -0.130023838816302884E+03
    0.769029679417876921E+00   -0.130023812584058163E+03
    0.769096522159992579E+00   -0.130023706801915978E+03
    0.768909733328501432E+00   -0.130023868590033373E+03
    0.768933584173970952E+00   -0.130023858637801908E+03
    0.769495205418063599E+00   -0.130023794836757389E+03
    0.769381760616813404E+00   -0.130023599919292963E+03
    0.769470307551420429E+00   -0.130023759191195467E+03
    0.769391545754717354E+00   -0.130023686178530113E+03
    0.769359156605718630E+00   -0.130023621570821831E+03
    0.769188245527840597E+00   -0.130023742675935978E+03
    0.769291644863130619E+00   -0.130023673519902360E+03
    0.769365573463947294E+00   -0.130023619986338474E+03
    0.769404538179945807E+00   -0.130023678996529668E+03
    0.769349977807557206E+00   -0.130023627542683869E+03
    0.769231906411420696E+00   -0.130023749719284297E+03
    0.769234169144317415E+00   -0.130023749525602511E+03
    0.769213534625461715E+00   -0.130023750169044774E+03
    0.769394261544431690E+00   -0.130023684856868954E+03
    0.769372243640905062E+00   -0.130023602025738995E+03
    0.769473785369287677E+00   -0.130023739788212112E+03
    0.769182477107311358E+00   -0.130023742943197419E+03
    0.768998803692919397E+00   -0.130023825685420434E+03
    0.769424104743612558E+00   -0.130023749872064769E+03
    0.771933409448177121E+00   -0.130023980642993990E+03
    0.771942526639094462E+00   -0.130023979973274777E+03
    0.772140734483818258E+00   -0.130023967577862265E+03
    0.771812235872309516E+00   -0.130023964662986032E+03
    0.771877047282208850E+00   -0.130023954175568861E+03
    0.772971789557183153E+00   -0.130023953863380569E+03
    0.771866571747309993E+00   -0.130023952538907224E+03
    0.771851132080924818E+00   -0.130023949067402981E+03
    0.773109477979566639E+00   -0.130023948883650206E+03
    0.772117237813693236E+00   -0.130023945016376103E+03
    0.771881515105384719E+00   -0.130023942806557102E+03
    0.772980044696861768E+00   -0.130023938697255716E+03
    0.772973529644717106E+00   -0.130023937006529820E+03
    0.772099719933049600E+00   -0.130023926627938124E+03
    0.772091859033046668E+00   -0.130023925428447740E+03
    0.772305345166019119E+00   -0.130023727541329038E+03
    0.772588874389389724E+00   -0.130023858574607857E+03
    0.772473577605213180E+00   -0.130023833427628063E+03
    0.772477814786865502E+00   -0.130023913765635882E+03
    0.772401897188355946E+00   -0.130023678496707930E+03
    0.772405038251876785E+00   -0.130023680683325978E+03
    0.772330934957232818E+00   -0.130023642180807599E+03
    0.772301927789386000E+00   -0.130023724767228458E+03
    0.772400275846952922E+00   -0.130023677563571198E+03
    0.772333470872201833E+00   -0.130023643853997754E+03
    0.772449034835173021E+00   -0.130023744029234592E+03
    0.772229392172028128E+00   -0.130023862976289905E+03
    0.772532796529061816E+00   -0.130023906325891744E+03
    0.772498840844566770E+00   -0.130023919170294988E+03
    0.772396987492558140E+00   -0.130023675317113373E+03
    0.772503573562957846E+00   -0.130023920108366696E+03
    0.772369460084188941E+00   -0.130023679340958665E+03
    0.772278448025575548E+00   -0.130023910345266984E+03
    0.772376636232581681E+00   -0.130023690215690834E+03
    0.772246831649437859E+00   -0.130023873665769912E+03
    0.772275095237308751E+00   -0.130023898422647960E+03
    0.772386468876120058E+00   -0.130023668455794279E+03
    0.772428593880906234E+00   -0.130023729807320080E+03
    0.772359111207525761E+00   -0.130023661169669197E+03
    0.772492921053515191E+00   -0.130023917394062551E+03
    0.772505484675400922E+00   -0.130023897069480682E+03
    0.772462126984781783E+00   -0.130023755138174863E+03
    0.772338634350721365E+00   -0.130023647627470268E+03
    0.772264323364070360E+00   -0.130023892593607940E+03
    0.772427041386952840E+00   -0.130023737302373320E+03
    0.772402641644053811E+00   -0.130023679009860246E+03
    0.772454506958434095E+00   -0.130023748962368586E+03
    0.772496961981425811E+00   -0.130023918753339217E+03
    0.781442146321890019E+00   -0.130023978092004597E+03
    0.779924717859841743E+00   -0.130023976328549168E+03
    0.775540229767237910E+00   -0.130023973131684073E+03
    0.779915238921322307E+00   -0.130023972968589419E+03
    0.775358018915682456E+00   -0.130023969815431826E+03
    0.775299395267819547E+00   -0.130023969665549259E+03
    0.779972469989267836E+00   -0.130023967490349662E+03
    0.779965701459805261E+00   -0.130023967223444856E+03
    0.775679550729858724E+00   -0.130023967091373208E+03
    0.782022871991584601E+00   -0.130023966042308984E+03
    0.782002269537869554E+00   -0.130023964489838249E+03
    0.782000141241830815E+00   -0.130023964448585389E+03
    0.781998710579311140E+00   -0.130023964274141122E+03
    0.781993867883469140E+00   -0.130023963924934122E+03
    0.778039171082465453E+00   -0.130023940670522080E+03
    0.780799195396013057E+00   -0.130023938202730704E+03
    0.780794214909252604E+00   -0.130023928703261731E+03
    0.780782604049585882E+00   -0.130023928121605366E+03
    0.780778777912232713E+00   -0.130023926579367100E+03
    0.780773462881084290E+00   -0.130023925907960233E+03
    0.776645064597400014E+00   -0.130023917386754476E+03
    0.776667440897428563E+00   -0.130023914355297308E+03
    0.778363487318228353E+00   -0.130023911374121354E+03
    0.776882605461290066E+00   -0.130023910463005336E+03
    0.776880587918854171E+00   -0.130023910420420776E+03
    0.775371634019849987E+00   -0.130023960214211684E+03
    0.775389040604137603E+00   -0.130023959753250779E+03
    0.775383548841115378E+00   -0.130023958707218156E+03
    0.775330195045527359E+00   -0.130023954633464314E+03
    0.775136906030919115E+00   -0.130023935210640218E+03
    0.774097625049823601E+00   -0.130023913998445323E+03
    0.773734797388581308E+00   -0.130023911462116246E+03
    0.773760022948874138E+00   -0.130023907489998805E+03
    0.773751330503732682E+00   -0.130023906921370866E+03
    0.773765830091392104E+00   -0.130023906296162238E+03
    0.773766403073705700E+00   -0.130023906150492110E+03
    0.773773698213026884E+00   -0.130023904685907667E+03
    0.775621050327007344E+00   -0.130023899776400356E+03
    0.775622694168941473E+00   -0.130023899564233318E+03
    0.773805231563304829E+00   -0.130023893059626317E+03
    0.780883511999705959E+00   -0.130023909549868733E+03
    0.780914888381222694E+00   -0.130023905467000304E+03
    0.780674076936661465E+00   -0.130023904393991927E+03
    0.780670812559850824E+00   -0.130023904175441572E+03
    0.780670213120247647E+00   -0.130023904154613319E+03
    0.780666367572469322E+00   -0.130023903967131076E+03
    0.779887122349457451E+00   -0.130023902523579380E+03
    0.780729855648082616E+00   -0.130023900552280736E+03
    0.780844365739141955E+00   -0.130023894574975486E+03
    0.780078106090620116E+00   -0.130023884033142650E+03
    0.780091530112362985E+00   -0.130023882517246363E+03
    0.780630171696542807E+00   -0.130023876866754733E+03
    0.780562857483576344E+00   -0.130023876622553246E+03
    0.776858607912802257E+00   -0.130023909515881655E+03
    0.778372287091603443E+00   -0.130023907483517689E+03
    0.779417181110964474E+00   -0.130023907331930047E+03
    0.776900942604199729E+00   -0.130023898921379583E+03
    0.778004983614657086E+00   -0.130023898190459136E+03
    0.776885269256707756E+00   -0.130023898070138131E+03
    0.776791516902765489E+00   -0.130023897946938035E+03
    0.779394979009851219E+00   -0.130023894853959007E+03
    0.776984640357864187E+00   -0.130023893680472668E+03
    0.776707290265352679E+00   -0.130023888908657682E+03
    0.778327620277741272E+00   -0.130023887991934657E+03
    0.777761935404033711E+00   -0.130023887519956645E+03
    0.778413823118052295E+00   -0.130023886140503578E+03
    0.777999976005655069E+00   -0.130023882805673907E+03
    0.776948503813817970E+00   -0.130023882459441637E+03
    0.777981292926482992E+00   -0.130023874308942652E+03
    0.776922661813002402E+00   -0.130023874127255567E+03
    0.777977761777455701E+00   -0.130023873800531362E+03
    0.777969968349301544E+00   -0.130023873393414618E+03
    0.779209550231698356E+00   -0.130023873227012132E+03
    0.777943470835260054E+00   -0.130023868830523440E+03
    0.776765258022775629E+00   -0.130023865292774531E+03
    0.779168329183192232E+00   -0.130023857111933012E+03
    0.778912349062195530E+00   -0.130023853413992839E+03
    0.778272333677689665E+00   -0.130023852948526553E+03
    0.777014155622136604E+00   -0.130023852393137986E+03
    0.778924688383703878E+00   -0.130023851038797773E+03
    0.778315399702363853E+00   -0.130023848934225242E+03
    0.777051586914540682E+00   -0.130023848197037523E+03
    0.777839120389132943E+00   -0.130023699583565360E+03
    0.779326180470248375E+00   -0.130023785996689696E+03
    0.777417508825925307E+00   -0.130023793918343074E+03
    0.778789217316957494E+00   -0.130023773951713451E+03
    0.778551620010459300E+00   -0.130023626675537059E+03
    0.777550301253987719E+00   -0.130023829585826405E+03
    0.777679135097089413E+00   -0.130023707930765937E+03
    0.777268126193225495E+00   -0.130023804803769337E+03
    0.778108411494690122E+00   -0.130023779900713691E+03
    0.778285124006137585E+00   -0.130023784355804878E+03
    0.777643951988644888E+00   -0.130023720051239593E+03
    0.779150424778586648E+00   -0.130023699455464794E+03
    0.778061941794859435E+00   -0.130023723696108334E+03
    0.777774105740663413E+00   -0.130023781753383702E+03
    0.777485795843733563E+00   -0.130023805571957894E+03
    0.777307587587752313E+00   -0.130023802014208570E+03
    0.777671827642878899E+00   -0.130023720711569354E+03
    0.778599421037103889E+00   -0.130023691838273521E+03
    0.778536756191879009E+00   -0.130023622348075833E+03
    0.777690890964050752E+00   -0.130023709462770569E+03
    0.778971320217674901E+00   -0.130023814585105129E+03
    0.778675636642730651E+00   -0.130023735100236422E+03
    0.777424248810644869E+00   -0.130023793925625512E+03
    0.777726306997598260E+00   -0.130023709772182485E+03
    0.777553740324625542E+00   -0.130023829809174288E+03
    0.779043041738962105E+00   -0.130023558092659187E+03
    0.779278227585570860E+00   -0.130023785110740960E+03
    0.777436680617120679E+00   -0.130023792022601413E+03
    0.778626200573206306E+00   -0.130023705727739696E+03
    0.777311300687923090E+00   -0.130023799447520844E+03
    0.777819257815156817E+00   -0.130023788122091787E+03
    0.777372502900516182E+00   -0.130023793062924653E+03
    0.777630506272897426E+00   -0.130023718756075198E+03
    0.778434393601655117E+00   -0.130023824432180447E+03
    0.778207416081346359E+00   -0.130023762715346692E+03
    0.777385240706636949E+00   -0.130023707148978076E+03
    0.777324561433735850E+00   -0.130023793257787958E+03
    0.777605954368539631E+00   -0.130023715654419675E+03
    0.777845820411212308E+00   -0.130023684447894425E+03
    0.777483348988362688E+00   -0.130023805491626547E+03
    0.778530009356421138E+00   -0.130023621830655742E+03
    0.778257532657544049E+00   -0.130023742147825971E+03
    0.777491418016316826E+00   -0.130023823396951116E+03
    0.779036105366410658E+00   -0.130023677750969966E+03
    0.778560426634572700E+00   -0.130023627231912485E+03
    0.778161198717043923E+00   -0.130023816432607561E+03
    0.778791027053664320E+00   -0.130023773776113671E+03
    0.778663129478133320E+00   -0.130023728858125367E+03
    0.777413951009156556E+00   -0.130023793813601685E+03
    0.778458197633746130E+00   -0.130023832185977597E+03
    0.778288450039593127E+00   -0.130023786699677203E+03
    0.777495984033408694E+00   -0.130023823644582194E+03
    0.778640331362785987E+00   -0.130023754746021098E+03
    0.777783403334356693E+00   -0.130023784698074451E+03
    0.778654599167132200E+00   -0.130023731451956792E+03
    0.779062604307940498E+00   -0.130023558132808773E+03
    0.778824990098827108E+00   -0.130023786372894847E+03
    0.779154048619750239E+00   -0.130023699608323682E+03
    0.777526346844725769E+00   -0.130023823866358924E+03
    0.779215303047368968E+00   -0.130023755005164560E+03
    0.778765550876900803E+00   -0.130023621932321703E+03
    0.779249536992608460E+00   -0.130023771069197863E+03
    0.778927218305813795E+00   -0.130023712107173878E+03
    0.778555400846547729E+00   -0.130023626844483601E+03
    0.778207147843486657E+00   -0.130023762710758490E+03
    0.778603989083485937E+00   -0.130023706974182119E+03
    0.777454411855090788E+00   -0.130023806095373800E+03
    0.778156918361579186E+00   -0.130023787392081715E+03
    0.778717452560782397E+00   -0.130023698226190334E+03
    0.778241341892550453E+00   -0.130023746051590877E+03
    0.777831809057495605E+00   -0.130023700178570664E+03
    0.777680888231297440E+00   -0.130023708172276912E+03
    0.777631346436093440E+00   -0.130023718753786852E+03
    0.777642482963099013E+00   -0.130023719886680510E+03
    0.777452331291784149E+00   -0.130023806050695669E+03
    0.779270760078464853E+00   -0.130023787855400940E+03
    0.778747860688797311E+00   -0.130023623057340814E+03
    0.778527399377153095E+00   -0.130023736650108560E+03
    0.777745487270419034E+00   -0.130023788164602990E+03
    0.777417881083205531E+00   -0.130023793932976446E+03
    0.777580594401063863E+00   -0.130023748894449625E+03
    0.777444620541025033E+00   -0.130023794292900106E+03
    0.778706685039858959E+00   -0.130023823357717646E+03
    0.778567982839675543E+00   -0.130023628838018567E+03
    0.779285309967896023E+00   -0.130023776230565659E+03
    0.779002740409863725E+00   -0.130023664340709558E+03
    0.777430398668062961E+00   -0.130023792597036589E+03
    0.778490794842177980E+00   -0.130023826808958034E+03
    0.777718692001764023E+00   -0.130023708913228631E+03
    0.778451843748074968E+00   -0.130023821881746414E+03
    0.778540133929133127E+00   -0.130023624746812459E+03
    0.775640405863562754E+00   -0.130023892471954554E+03
    0.775647871774066133E+00   -0.130023888556864449E+03
    0.775651871463456710E+00   -0.130023887233235257E+03
    0.775576286125755687E+00   -0.130023885554630283E+03
    0.775577149318784298E+00   -0.130023885334745557E+03
    0.775663588509567514E+00   -0.130023883377122331E+03
    0.775913173466340256E+00   -0.130023628598627056E+03
    0.775982512072480923E+00   -0.130023626022232349E+03
    0.776144003385165648E+00   -0.130023602730105154E+03
    0.776136160431576183E+00   -0.130023606703013684E+03
    0.776184093905828432E+00   -0.130023608600835587E+03
    0.775867908354664571E+00   -0.130023614204758047E+03
    0.775965555353343217E+00   -0.130023625000913029E+03
    0.775968343603840482E+00   -0.130023625171341450E+03
    0.775889851269511266E+00   -0.130023642887974859E+03
    0.776092846638532730E+00   -0.130023604510775897E+03
    0.776180588139503969E+00   -0.130023609499083619E+03
    0.775983979841633364E+00   -0.130023626119155836E+03
    0.776005302654961149E+00   -0.130023617205197525E+03
    0.776107376537271909E+00   -0.130023605824089486E+03
    0.775906270106970664E+00   -0.130023628348694558E+03
    0.775883205720520497E+00   -0.130023641433782075E+03
    0.776111926239709926E+00   -0.130023606330630884E+03
    0.774137772659972523E+00   -0.130023794325837827E+03
    0.774166482962492020E+00   -0.130023789780497481E+03
    0.774167381798490539E+00   -0.130023789431709076E+03
    0.774042754061230243E+00   -0.130023782763570011E+03
    0.774191918427981296E+00   -0.130023781896760511E+03
    0.773691489684551703E+00   -0.130023780528863966E+03
    0.774045414099016504E+00   -0.130023774932085928E+03
    0.774052681922849151E+00   -0.130023774742753460E+03
    0.774055271195115302E+00   -0.130023774152137321E+03
    0.774058006088315320E+00   -0.130023773271695234E+03
    0.774176587801517546E+00   -0.130023769492943757E+03
    0.774177594860050999E+00   -0.130023769471629521E+03
    0.780636830614192201E+00   -0.130023876354600418E+03
    0.780081788362468442E+00   -0.130023867518375596E+03
    0.780696946984761109E+00   -0.130023798530177800E+03
    0.780369511379482073E+00   -0.130023701690459461E+03
    0.780261447833184296E+00   -0.130023605105438293E+03
    0.780323966529324897E+00   -0.130023636926594776E+03
    0.780379229151792475E+00   -0.130023696346749432E+03
    0.780444702799729551E+00   -0.130023786981738397E+03
    0.780272362201121616E+00   -0.130023600621212950E+03
    0.780383428654384148E+00   -0.130023679244653493E+03
    0.780227205559469339E+00   -0.130023631120367781E+03
    0.780226815067385004E+00   -0.130023631161487430E+03
    0.780191862600463915E+00   -0.130023645726116996E+03
    0.779911743902988230E+00   -0.130023860262920607E+03
    0.780366972580355700E+00   -0.130023701555919843E+03
    0.780118169602599498E+00   -0.130023687577590920E+03
    0.780325473756537269E+00   -0.130023636979089645E+03
    0.780677340138321685E+00   -0.130023802042666517E+03
    0.780323721288408878E+00   -0.130023636918149833E+03
    0.780291089700419160E+00   -0.130023639449911798E+03
    0.780494394759738030E+00   -0.130023816317343631E+03
    0.780408998029792800E+00   -0.130023679268626665E+03
    0.780524370385961008E+00   -0.130023839775544559E+03
    0.781193243868177123E+00   -0.130023871197238350E+03
    0.781193934938150925E+00   -0.130023871123651872E+03
    0.781371903418290881E+00   -0.130023866241508301E+03
    0.781353101566964914E+00   -0.130023843575461370E+03
    0.781215160809053288E+00   -0.130023779999094501E+03
    0.780994290721958917E+00   -0.130023493480866421E+03
    0.781297779571431983E+00   -0.130023850261693156E+03
    0.781238183856975521E+00   -0.130023859158806744E+03
    0.781077659640183941E+00   -0.130023580878027531E+03
    0.780988222109594954E+00   -0.130023792433774815E+03
    0.781277636117184593E+00   -0.130023854942101707E+03
    0.781300509590653447E+00   -0.130023849852727722E+03
    0.781037557701623975E+00   -0.130023521437825821E+03
    0.781326189583255060E+00   -0.130023843663885771E+03
    0.781317822548183938E+00   -0.130023845741394439E+03
    0.781378329410837291E+00   -0.130023864392114291E+03
    0.781061055734069809E+00   -0.130023527647677838E+03
    0.781348844275744359E+00   -0.130023842973773839E+03
    0.781100818928017748E+00   -0.130023741434541336E+03
    0.781073760135882922E+00   -0.130023526717862580E+03
    0.780954943582115590E+00   -0.130023802393920391E+03
    0.781078805884175886E+00   -0.130023582477285743E+03
    0.781384974149324507E+00   -0.130023861934196503E+03
    0.780925214778353860E+00   -0.130023810188763662E+03
    0.781388510621909060E+00   -0.130023860985562578E+03
    0.781201485077952840E+00   -0.130023781428400696E+03
    0.781211120561843719E+00   -0.130023780458966314E+03
    0.781288526580266374E+00   -0.130023852250914757E+03
    0.781389125120000250E+00   -0.130023858992353041E+03
    0.774269103597192698E+00   -0.130023700192207912E+03
    0.774286399427877359E+00   -0.130023693415364733E+03
    0.774394687906750256E+00   -0.130023596371568658E+03
    0.774362986115163188E+00   -0.130023598337977432E+03
    0.774391456924186872E+00   -0.130023596656133549E+03
    0.774388956679362472E+00   -0.130023595075463561E+03
    0.774428874232768849E+00   -0.130023559593149969E+03
    0.774436713719420244E+00   -0.130023559130507749E+03
    0.775085149844683019E+00   -0.130023216476803782E+03
    0.775106819871786534E+00   -0.130023225394150558E+03
    0.775090509405630512E+00   -0.130023221517674841E+03
    0.775087076043941337E+00   -0.130023216769984515E+03
    0.775116407219637815E+00   -0.130023243822493924E+03
    0.774714845744351344E+00   -0.130023472346109941E+03
    0.774560110401442348E+00   -0.130023550664511305E+03
    0.774760793646279922E+00   -0.130023502504919861E+03
    0.774602743687812456E+00   -0.130023560059795500E+03
    0.774754149571896811E+00   -0.130023503605307098E+03
    0.774544018017122915E+00   -0.130023546372282453E+03
    0.774844975518785839E+00   -0.130023526321897464E+03
    0.774465770025793976E+00   -0.130023555559302622E+03
    0.774822671798387486E+00   -0.130023524507236402E+03
    0.774702971131259188E+00   -0.130023476478673246E+03
    0.774851921025655033E+00   -0.130023528371845146E+03
    0.774753670020214225E+00   -0.130023503505303694E+03
    0.774552715029423244E+00   -0.130023546961034469E+03
    0.774744382702628465E+00   -0.130023504345617084E+03
    0.774592313490146789E+00   -0.130023558610495513E+03
    0.774790693934825581E+00   -0.130023525225589424E+03
    0.774708817208073053E+00   -0.130023478165914923E+03
    0.774514296067874142E+00   -0.130023550177756562E+03
    0.774910821390171756E+00   -0.130023518551161771E+03
    0.774951783096391233E+00   -0.130023516496487616E+03
    0.774909986741886159E+00   -0.130023518434219284E+03
    0.775022779581205912E+00   -0.130023391410269653E+03
    0.774988979180112780E+00   -0.130023542348308297E+03
    0.775009451469799604E+00   -0.130023391488133285E+03
    0.775025736734598736E+00   -0.130023391652983378E+03
    0.774876823386229208E+00   -0.130023526942081560E+03
    0.774813026836906782E+00   -0.130023534814839707E+03
    0.774625047772866671E+00   -0.130023565914988268E+03
    0.774618726731431617E+00   -0.130023564409671309E+03
    0.774976573460904539E+00   -0.130023539754494436E+03
    0.774387662127140164E+00   -0.130023594984376643E+03
    0.773976216265273687E+00   -0.130023709636083709E+03
    0.773975480952693751E+00   -0.130023709605726310E+03
    0.773843582545982400E+00   -0.130023757436511346E+03
    0.773965980120430275E+00   -0.130023711768275689E+03
    0.773859650952717693E+00   -0.130023757912627730E+03
    0.773942894274073367E+00   -0.130023694259877914E+03
    0.773880437234577667E+00   -0.130023748160939817E+03
    0.773947446589688615E+00   -0.130023694345746549E+03
    0.773983676719306790E+00   -0.130023704226092889E+03
    0.773875111927321613E+00   -0.130023746466493094E+03
    0.773894662792704136E+00   -0.130023738415814933E+03
    0.773850819209230378E+00   -0.130023757629224406E+03
    0.773835737745015795E+00   -0.130023766390883623E+03
    0.773936244836674447E+00   -0.130023722160207313E+03
    0.773930302477326970E+00   -0.130023717453159861E+03
