    0.616002254367553633E+03    0.762780119031748138E+00    0.511858704741503523E+00    0.475029873256462509E+00   -0.311147548255045479E+02
    0.373597295371353823E+03    0.492355716028811341E+00   -0.905538753765346982E-01    0.387833423163848667E+00   -0.296373525002368652E+02
    0.200895205140157827E+04    0.409785138685072658E+00   -0.388575609328384086E+01    0.332668816294898306E+00   -0.294873768483158862E+02
    0.166658978974769389E+04    0.690800806444676008E+00   -0.371672535104653301E+01    0.510696706713898330E+00   -0.292096496650166308E+02
    0.111894020278121002E+04    0.550215520493367749E+00   -0.211496860508315621E+00    0.213183235977845914E+00   -0.292061972102140537E+02
    0.373178352283258437E+04    0.339522435640738363E+00   -0.375238758279036144E+01    0.249798355871217459E-01   -0.288753872345328197E+02
    0.158801617006816741E+04    0.592901289389962449E+00   -0.289068493413549366E+01    0.486728202913246144E+00   -0.287430289639247860E+02
    0.283016616106033325E+04    0.481202648608012706E+00   -0.346203446388244629E+01    0.476907086133956937E-01   -0.286332663703925974E+02
    0.850866703455888455E+03    0.613946930310287908E+00   -0.193633914860475809E+01    0.453240677056076291E+00   -0.285578402266559586E+02
    0.153258231657404417E+04    0.779205628905884851E+00   -0.264531034026695044E+01    0.444797951030475536E+00   -0.284181088372878143E+02
    0.114729011058807373E+04    0.242929047034367823E+00   -0.760673880577087402E+00    0.287232538032531737E+00   -0.282382577509293036E+02
    0.237078377340415091E+04    0.588715856336891497E+00   -0.346167904858935493E+01    0.131359249900185521E+00   -0.281805870472681903E+02
    0.120562319085409013E+04    0.985490235574451590E-01    0.139084356714889168E-01    0.726176820877417750E-01   -0.281408042389489950E+02
    0.221930018597121034E+04    0.789819542169746036E+00   -0.335025340899307178E+01    0.305219472681556192E+00   -0.280944841899937217E+02
    0.163389211826544465E+04    0.561036792569809095E+00   -0.161078764476457126E+01    0.168397845620662234E+00   -0.276749007630361064E+02
    0.160399844535005536E+04    0.249781326649928193E+00   -0.257089627916119401E+01    0.234392097364636981E+00   -0.276058881098980393E+02
    0.198524160864771005E+03    0.559156754181388216E+00    0.229811559689282952E+01    0.128015965653409058E+00   -0.274639424617534971E+02
    0.319351626821689592E+03    0.656606456371493286E+00    0.896330008532444822E+00    0.237040420596785206E+00   -0.274622387276406315E+02
    0.691261748122444487E+03    0.207915452107425541E+00   -0.129555078335393103E+01    0.422848251500711314E+00   -0.274339935512020325E+02
    0.226813268661499023E+04    0.630128373068371328E+00   -0.338347852230072021E+01    0.224641948056221008E+00   -0.274231385067102060E+02
    0.188485011471973803E+04    0.731392004526658646E+00   -0.258859166797713280E+01    0.191492253085003200E+00   -0.274125775060421155E+02
    0.153424129664905740E+04    0.408523320695016345E+00   -0.245240266769005411E+01    0.323459456720107175E+00   -0.274012745749855569E+02
    0.137804192168510576E+04    0.426378068310399705E+00   -0.151831203389453773E+01    0.401241648137539292E-01   -0.273563184750454766E+02
    0.110738134289766595E+04    0.345421899621621342E+00   -0.187657715050191465E+01    0.516764958589635004E+00   -0.271566651954643632E+02
    0.155708720098380104E+04    0.881951928596897972E-01   -0.227012527239644202E+01    0.221176963615944105E+00   -0.271348276854727146E+02
    0.218821547470281075E+04    0.431763345001538124E+00   -0.302678782333549146E+01    0.117824509376667483E+00   -0.271112703716152161E+02
    0.144894250733834451E+04    0.372030560558592738E+00   -0.212532321570997951E+01    0.263461066378391395E+00   -0.270466483415069874E+02
    0.620227953789180106E+03    0.642554340903898513E+00    0.595976354918183127E+00    0.320807351968247778E+00   -0.270396226817584981E+02
    0.323557303912428210E+03    0.435322637007481195E+00    0.162962649992471675E+00    0.517533610184168658E+00   -0.268316768101825929E+02
    0.171631229396173865E+03    0.258153234851813018E+00    0.455541970496686588E+01    0.510520862323082525E-01   -0.268275807072366668E+02
    0.544493047830725345E+03    0.438074934774628277E+00   -0.750419390578471734E-02    0.553055526221746252E+00   -0.268155486329922610E+02
    0.321428360476205000E+03    0.252843250850546652E+00    0.626204615610936877E+00    0.353787370661213574E+00   -0.268009271654587522E+02
    0.110693267270971728E+04    0.764687117821421514E+00   -0.474711521274933546E+00    0.202126203560410528E+00   -0.267599331317462408E+02
    0.871439429665953867E+03    0.467414391291171794E+00   -0.750220757357189960E+00    0.110978401003812718E+00   -0.267387488156464528E+02
    0.138995629549026489E+04    0.264461202315260935E+00   -0.167072236537933350E+01    0.227618921971321109E+00   -0.267386638125393361E+02
    0.109025473272143608E+04    0.372151993300695705E+00   -0.199390922938658610E+01    0.443940132546682520E+00   -0.266757587359392403E+02
    0.200712280603087464E+03    0.585582633013534859E+00    0.142883298433718586E+01    0.470081090602107621E+00   -0.266467005694863666E+02
    0.102277282342922467E+04    0.603112350659717800E+00   -0.181140591421672958E+01    0.405807108589829990E+00   -0.266414718426147026E+02
    0.711692630890530040E+03    0.553209861167457073E+00    0.500685549415624820E-01    0.362558994752714858E+00   -0.266361918076623851E+02
    0.178175831107329259E+04    0.209182427233860407E+00   -0.192584405305448048E+01    0.861337981520849255E-01   -0.265711600363727172E+02
    0.848868670675084104E+03    0.177667270208928113E+00   -0.174276063463924302E+01    0.497897671348788706E+00   -0.265533762843391727E+02
    0.144805387109696176E+04    0.226434602980438160E+00   -0.174314440365883971E+01    0.175273065377260284E+00   -0.265321800510127837E+02
    0.518079272717499748E+03    0.439383422764125231E+00    0.187394114451885940E+01    0.611837224094760809E-01   -0.265046001188854312E+02
    0.938770475571010365E+03    0.583395617269861000E+00   -0.187254134996584831E+01    0.513551592258761791E+00   -0.264863808188406686E+02
    0.621611119798163372E+03    0.235685425237341761E+00    0.130475640486384492E+00    0.415198824363060270E+00   -0.264220053200208618E+02
    0.106514462926977171E+04    0.294787158352630474E+00   -0.321583736095200301E+00    0.177028111236533892E+00   -0.264016451861833232E+02
    0.174073851846217963E+04    0.638487332035102884E+00   -0.187859979521537257E+01    0.670092681043555072E-01   -0.263717203893184369E+02
    0.814153168735899499E+03    0.298589587000147039E+00   -0.314187444602002763E+00    0.303664193944298659E-01   -0.263282477006736428E+02
    0.771564227958772221E+03    0.475468544008437799E+00    0.120637327645931958E+01    0.216621302185813396E-02   -0.263093304633705749E+02
    0.372417584086877923E+03    0.304389039233466829E+00    0.256754303486403934E+01    0.840987278115063741E-01   -0.262878287034578193E+02
    0.175200045283068675E+04    0.573569691772384704E+00   -0.187104627131563550E+01    0.277415445405446298E-01   -0.262800633443673277E+02
    0.455176072732746320E+03    0.597007161576991408E+00    0.108594746459772118E+01    0.363790737243167572E+00   -0.262601300754913005E+02
    0.109879049580036008E+04    0.507797623010074611E-01   -0.135995106599131610E+00    0.106051420390268991E+00   -0.262004432286827509E+02
    0.649982333183288574E+03    0.647291526520211380E+00   -0.474688410758972168E+00    0.234729800963401791E+00   -0.261863626558899618E+02
    0.857564473767370259E+03    0.478238036790552157E+00   -0.142064619074689702E+01    0.395131407458116979E+00   -0.261796371254206584E+02
    0.718628631208541606E+03    0.597123385650097593E+00    0.475238791554599693E+00    0.226601615255936584E+00   -0.261777160292073745E+02
    0.581083194526738680E+03    0.246355263548071385E+00   -0.185667723376109706E+00    0.206738611287152124E+00   -0.261621996800729733E+02
    0.422909681661722516E+03    0.721856689421797038E+00    0.475090598134916497E+00    0.208394905904594779E+00   -0.261583215499734685E+02
    0.976740750090301844E+03    0.749441668078993040E+00   -0.144461386033680350E+01    0.328478942360398429E+00   -0.261458639074284633E+02
    0.840566022639803350E+03    0.403724028244858646E+00   -0.153120469788515123E+01    0.565886577128665857E+00   -0.261347064524306845E+02
    0.684729163940929425E+03    0.133439569232575994E+00   -0.566508935164237393E+00    0.511085316021289482E+00   -0.260811903690603373E+02
    0.112561106616013194E+04    0.313126756495119840E+00   -0.152922628193264742E+00    0.781853054779218654E-01   -0.260782364678002487E+02
    0.598688436063406925E+03    0.474040671445289497E+00   -0.111775120264031358E+01    0.547051345464699357E+00   -0.260672652791058255E+02
    0.548240581008296772E+03    0.546228518919714356E+00   -0.681452932481357188E+00    0.442808760612464491E+00   -0.259989686681568237E+02
    0.669760424818741853E+03    0.396170651966864074E+00   -0.491335379658668359E+00    0.232676964186115470E+00   -0.259950208868812993E+02
    0.153142294248654594E+04    0.321203938115973531E+00   -0.136311931774707418E+01    0.517980250854270588E-01   -0.259733287209157808E+02
    0.692179443677260451E+03    0.320774775926268518E+00   -0.426268498312083466E+00    0.188171155541462159E+00   -0.259662665315774426E+02
    0.859767912745284775E+03    0.153665238754543798E+00   -0.141402981039706432E+01    0.508366027622123351E+00   -0.259302559425652746E+02
    0.304128625806196510E+03    0.330655733215391601E+00    0.875276101469919965E+00    0.352598769765246622E+00   -0.259271959362833826E+02
    0.150890778959875252E+04    0.375202270767552692E+00   -0.109246508232790429E+01    0.125480729258513196E-01   -0.258973596289816079E+02
    0.396769803451830683E+03    0.249978589661001199E+00    0.264698772755557776E+01    0.281897984915493484E-02   -0.258972192486793489E+02
    0.293721758449044273E+03    0.455627023452711499E+00    0.115975413214991274E+01    0.279878806343496100E+00   -0.258970052328667464E+02
    0.818329640082259715E+02    0.244040303486434351E+00    0.456156312437504852E+01    0.790639833646215595E-01   -0.258887421671555025E+02
    0.125099682542278265E+04    0.441733523452946142E+00   -0.908461340048929422E+00    0.413521194888057629E-02   -0.258767647933335638E+02
    0.980731318208521088E+03    0.715214576462538498E+00   -0.916128453448565416E+00    0.148834779364318937E+00   -0.258691519231873066E+02
    0.693218710858311397E+03    0.628131154529834146E+00   -0.121984913605185108E+01    0.500013442237138173E+00   -0.258591868490485446E+02
    0.120649708129401893E+04    0.172026046444199415E+00   -0.888276649293187504E+00    0.196247214609360787E-01   -0.258428452285013890E+02
    0.856326209640973047E+03    0.619168941459685929E+00   -0.123633741166896138E+01    0.359842308327889382E+00   -0.257942188367682981E+02
    0.108560914825427835E+04    0.585562882407823060E+00   -0.118377770594265552E+01    0.193067381089933932E+00   -0.257863128722807815E+02
    0.664042530289393312E+03    0.556264583504885612E+00   -0.560153410804660190E+00    0.283335855952440929E+00   -0.257245729617761789E+02
    0.556763388448648584E+03    0.421752684027298208E+00    0.749122064976111446E+00    0.294119965019398077E+00   -0.257173972881989314E+02
    0.828232621078746433E+03    0.144440520761218327E+00   -0.731969218463126126E+00    0.193124849878286625E+00   -0.257063367278508643E+02
    0.677027668875311633E+03    0.740737085410849816E+00   -0.217894474999974719E+00    0.409926234954918423E+00   -0.256454079386435403E+02
    0.125804432770679637E+04    0.583011931747331014E+00   -0.889200349835498116E+00    0.110290409947247467E+00   -0.256362903528780173E+02
    0.110444456590207938E+04    0.749615013526814145E+00   -0.112110056940649416E+01    0.181462561430750291E+00   -0.256064051687612420E+02
    0.882830036564249554E+03    0.480559318122009749E+00    0.304399699934921664E+00    0.114129064648550063E+00   -0.255588264759757777E+02
    0.101788679532361687E+04    0.379630638221984895E+00   -0.760215236642105552E+00    0.247172834968647226E+00   -0.255432097726459801E+02
    0.201523387838822259E+03    0.629188723398532046E+00    0.228284272109593012E+01    0.198894464371081325E+00   -0.255273981290313223E+02
    0.726542275657243408E+03    0.380462413217045603E+00    0.194435801881738257E-01    0.254474505644952075E-01   -0.255226909561164277E+02
    0.539343809158491240E+03    0.233283782756695174E+00   -0.925484175637825146E-01    0.513797011763202582E+00   -0.255200836767082073E+02
    0.537610899897361151E+03    0.700106230399224594E+00   -0.552426106096274516E+00    0.437204196892510222E+00   -0.255103445225824572E+02
    0.701403160080953285E+03    0.638983926866348306E+00   -0.433897358451512005E+00    0.423729730692003093E+00   -0.254885599803750544E+02
    0.455579739912778678E+03    0.273628165151438174E+00    0.267891050348563198E+00    0.539931672831084675E+00   -0.254601111516294623E+02
    0.736647070632603914E+03    0.218657432524968526E+00   -0.107992990845974468E+00    0.315788513689643391E+00   -0.254460131882610980E+02
    0.546562298245712896E+03    0.529514965909646459E-01    0.120080264347724874E+01    0.170386037605484403E+00   -0.254360709056718157E+02
    0.433959455640138856E+03    0.554475196523890101E+00    0.413890662623051853E+00    0.249774326556187615E+00   -0.254068139720726123E+02
    0.944838935593122415E+03    0.490169853743681105E+00    0.342107116838469061E+00    0.483366491552841629E-01   -0.254048607032822460E+02
    0.354554493162823917E+03    0.554407050227132214E+00    0.146377294909164135E+01    0.390673341723836720E+00   -0.253958752192559025E+02
    0.418623078010704944E+03    0.919150513397323649E-01    0.453046287292004912E+00    0.263204280565799753E+00   -0.253749297039994346E+02
    0.420348197263422037E+03    0.318383749087856327E+00    0.976142688895693666E+00    0.736512012873519195E-01   -0.253684769156348153E+02
    0.280167728645200896E+03    0.562641999235542589E+00    0.139912911204761681E+01    0.257170603023559208E+00   -0.253500078491105398E+02
    0.690003266966533147E+03    0.792191823065066303E+00   -0.641756725548561668E+00    0.464846404135617453E+00   -0.253412517267479274E+02
    0.265627926763395351E+03    0.797003414946727440E+00    0.171924968065004347E+01    0.183908611239736230E+00   -0.253326184242734307E+02
    0.632960663268829649E+03    0.360300795003845487E+00   -0.418528945116181994E+00    0.292994870501279869E+00   -0.253238780078684016E+02
    0.746980484172532215E+03    0.782575405512694333E+00   -0.103585295900034335E+01    0.456785239760220063E+00   -0.253186269461558489E+02
    0.329686637443824054E+03    0.672509122331837794E+00    0.891050288222857922E+00    0.304823222171792918E+00   -0.253120833196838326E+02
    0.329686637443824054E+03    0.672509122331837794E+00    0.891050288222857922E+00    0.304823222171792918E+00   -0.253120833196838326E+02
    0.227752920155012646E+03    0.169474000824983984E+00    0.228683584248778793E+01    0.109111429345898001E+00   -0.253048684063421589E+02
    0.169156440768910215E+03    0.291099488975160303E+00    0.402271537023493053E+01    0.161988603275183413E+00   -0.252931016583134642E+02
    0.348919359934346460E+03    0.350794323832277266E+00    0.151713002260438046E+00    0.548371297117163925E+00   -0.252700047867104516E+02
    0.348919359934346460E+03    0.350794323832277266E+00    0.151713002260438046E+00    0.548371297117163925E+00   -0.252700047867104516E+02
    0.824702214976299047E+03    0.747313845648749808E+00   -0.981832546898121272E+00    0.384580600353290059E+00   -0.252525200079126009E+02
    0.642314687508988527E+03    0.665089907600859953E+00   -0.594681775328428586E+00    0.355592070793266879E+00   -0.252514333601624443E+02
    0.642314687508988527E+03    0.665089907600859953E+00   -0.594681775328428586E+00    0.355592070793266879E+00   -0.252514333601624443E+02
    0.628180949223056928E+03    0.699802869166205266E+00   -0.603259790230975312E+00    0.382773032446855621E+00   -0.252472171631483562E+02
    0.113323206073605093E+04    0.214485639059316446E+00   -0.694388119303780194E+00    0.793184710485231870E-01   -0.252260707475777970E+02
    0.312538163534117814E+03    0.343630920784360305E+00    0.146892002319972459E+01    0.145934857046172706E+00   -0.252208290742003243E+02
    0.563714959413598876E+03    0.559687804196897121E+00   -0.412541124486597965E+00    0.370140091509187474E+00   -0.252200105343673151E+02
    0.107990279485527503E+04    0.711556503257026463E+00   -0.696896679207447356E+00    0.618914187344549241E-01   -0.252122445585387638E+02
    0.764616794119684073E+03    0.780629125631937648E+00   -0.450888114073913826E+00    0.356719146908227147E+00   -0.251787880972905711E+02
    0.140444252572701657E+03    0.273163381726247378E+00    0.360865618457284754E+01    0.249874195464027463E-01   -0.251644202291220758E+02
    0.307625454468432281E+03    0.448221718770545396E+00    0.147433494059354686E+01    0.161198453357376148E+00   -0.251564297438678963E+02
    0.111658668836950710E+04    0.145217590204434172E+00   -0.636531028937745269E+00    0.343465393350133735E-01   -0.251559641747650247E+02
    0.307894722600064483E+03    0.578149674916770828E+00    0.276247679916601818E+01    0.100624191864735590E+00   -0.251328559103752589E+02
    0.307894722600064483E+03    0.578149674916770828E+00    0.276247679916601818E+01    0.100624191864735590E+00   -0.251328559103752589E+02
    0.111268001267091358E+04    0.588934170592490758E+00   -0.405099230533270571E+00    0.827507460204101458E-01   -0.251058270719503049E+02
    0.102027973560281316E+04    0.427295551252063033E+00   -0.645326535134626234E+00    0.173250712582757954E+00   -0.250810201449272405E+02
    0.162089832389793713E+03    0.465237085950127416E+00    0.254014363103452911E+01    0.317157679957847383E+00   -0.250808841204496318E+02
    0.162089832389793713E+03    0.465237085950127416E+00    0.254014363103452911E+01    0.317157679957847383E+00   -0.250808841204496318E+02
    0.596664666180505264E+03    0.721036421949171613E+00    0.314752694658917420E+00    0.319502009406402665E+00   -0.250601616816094293E+02
    0.304149939986942570E+03    0.271133887343168067E+00    0.307565989021465747E+01    0.151375666606471705E-01   -0.250564329796294771E+02
    0.114674688944857826E+04    0.785746348688021734E+00   -0.478887805802513888E+00    0.150356717590907130E-02   -0.250519974171006048E+02
    0.684626208764533544E+03    0.218415552142824876E+00   -0.429854677541571917E+00    0.402005612068996598E+00   -0.250253099332601323E+02
    0.684626208764533544E+03    0.218415552142824876E+00   -0.429854677541571917E+00    0.402005612068996598E+00   -0.250253099332601323E+02
    0.869108984365212223E+03    0.756386360378821898E+00   -0.232198894594004557E+00    0.207824473611212396E+00   -0.250226771604686888E+02
    0.143020955265254599E+03    0.263204530325915897E+00    0.293536164934096533E+01    0.271429254560463684E+00   -0.250226265530989451E+02
    0.143020955265254599E+03    0.263204530325915897E+00    0.293536164934096533E+01    0.271429254560463684E+00   -0.250226265530989451E+02
    0.523074470528952020E+03    0.518249660499241149E+00    0.883348759910182579E+00    0.259872172215656172E+00   -0.250011224574818876E+02
    0.649900445737194673E+03    0.566218222145455474E+00   -0.474071323297521552E+00    0.430943307128677011E+00   -0.249913878866271304E+02
    0.275029410026537619E+03    0.261150680209696673E+00    0.809730192931769288E+00    0.546259839152768434E+00   -0.249635735859024592E+02
    0.405881069533895072E+03    0.284537279357607087E+00    0.211269394003671884E+01    0.982907689779913829E-01   -0.249024779936172536E+02
    0.405881069533895072E+03    0.284537279357607087E+00    0.211269394003671884E+01    0.982907689779913829E-01   -0.249024779936172536E+02
    0.303377436059131298E+03    0.341720972432022652E+00    0.754819491590302150E+00    0.481447918855106904E+00   -0.248993596441547993E+02
    0.107256155259634897E+04    0.178972168854320657E+00   -0.487672365659602036E+00    0.223434036106283963E-01   -0.248946067191988618E+02
    0.107256155259634897E+04    0.178972168854320657E+00   -0.487672365659602036E+00    0.223434036106283963E-01   -0.248946067191988618E+02
    0.518764330378262571E+03    0.693734441982899241E+00   -0.283004005637589984E+00    0.416691311632351624E+00   -0.248933019027463516E+02
    0.854520323703163740E+03    0.252884908481255555E+00   -0.626331375802102741E+00    0.246012102833583129E+00   -0.248655278827288697E+02
    0.231389993180653931E+03    0.350294624950084954E+00    0.156470478123911860E+01    0.399455900991225632E+00   -0.248611607835016102E+02
    0.231389993180653931E+03    0.350294624950084954E+00    0.156470478123911860E+01    0.399455900991225632E+00   -0.248611607835016102E+02
    0.572175780569093831E+03    0.414030230035290658E+00    0.987538751474634324E+00    0.171726669447290481E+00   -0.248568210307115258E+02
    0.572175780569093831E+03    0.414030230035290658E+00    0.987538751474634324E+00    0.171726669447290481E+00   -0.248568210307115258E+02
    0.801636847784176553E+03    0.297570733351223915E+00   -0.620830090047451932E+00    0.289944010030933230E+00   -0.248486296343407851E+02
    0.801636847784176553E+03    0.297570733351223915E+00   -0.620830090047451932E+00    0.289944010030933230E+00   -0.248486296343407851E+02
    0.461404360164551179E+03    0.329382050681780836E+00   -0.195380730604850505E+00    0.571021438451136731E+00   -0.248476399340011405E+02
    0.902158051894733035E+03    0.760716398531609550E+00   -0.143717791709060627E+00    0.147481128329959688E+00   -0.248339350751146739E+02
    0.729909769072451468E+03    0.201820858715658552E+00   -0.513040728462160978E+00    0.325857519243216875E+00   -0.248316628161836022E+02
    0.712694440317474459E+03    0.402594763073410744E+00    0.937935182537418477E+00    0.488800121631292606E-01   -0.248029237164377960E+02
    0.104614458806959624E+04    0.733670802535370536E+00   -0.500400273504842730E+00    0.710347802994596988E-01   -0.247980529132227332E+02
    0.334891196429424326E+03    0.653270314627863780E+00    0.460187972903778331E+00    0.525026328760424432E+00   -0.247510643554368137E+02
    0.516601452697614832E+03    0.786439906690178048E+00    0.100757034241569787E+01    0.217755014314372691E+00   -0.247440303255590059E+02
    0.572118176200587868E+03    0.117884634384799139E+00   -0.313496293159910344E+00    0.448082515263609094E+00   -0.247438246609975323E+02
    0.188642273076112616E+03    0.281866538705887404E+00    0.392195682700497805E+01    0.815695468609729801E-01   -0.247371037313372995E+02
    0.188642273076112616E+03    0.281866538705887404E+00    0.392195682700497805E+01    0.815695468609729801E-01   -0.247371037313372995E+02
    0.826766672454760965E+03    0.753550963842318677E+00   -0.382774132267426737E+00    0.238808573501051558E+00   -0.247281805202235780E+02
    0.620623630742529258E+03    0.557882401840471776E+00   -0.157599616199068038E+00    0.366977028403333627E+00   -0.247179706708380422E+02
    0.375464288966771733E+03    0.501217457192626115E+00    0.150356320611910910E+01    0.304106212040576307E+00   -0.246946545882882198E+02
    0.108966895329434556E+04    0.774750691573558470E+00   -0.179150904410537493E+00    0.182835551321368223E-01   -0.246937007731015754E+02
    0.483881892054880268E+03    0.282362272569733341E+00    0.171527683551421717E+01    0.769539117356965591E-01   -0.246932371167833082E+02
    0.537375042496273409E+03    0.787628170675653161E+00   -0.271129295517598123E+00    0.430445727736931627E+00   -0.246911425203601738E+02
    0.537375042496273409E+03    0.787628170675653161E+00   -0.271129295517598123E+00    0.430445727736931627E+00   -0.246911425203601738E+02
    0.370111548300015215E+03    0.738623207931615622E+00    0.166727554699514791E+01    0.268186338241741595E+00   -0.246880547197008475E+02
    0.429138612032094272E+03    0.387276820284974954E+00    0.188075837385098499E+01    0.110948038829630294E+00   -0.246877449248044130E+02
    0.558306459124156049E+03    0.471161384265623873E+00   -0.261579326798132783E+00    0.450784265839378362E+00   -0.246788536847167954E+02
    0.780694722713952615E+03    0.479176869747526823E+00   -0.121554599319582124E-01    0.208272393274207074E+00   -0.246744420691936241E+02
    0.880343193161560748E+03    0.582437073741741917E+00    0.450489151620185879E-01    0.118384870251053875E+00   -0.246741933991457607E+02
    0.880343193161560748E+03    0.582437073741741917E+00    0.450489151620185879E-01    0.118384870251053875E+00   -0.246741933991457607E+02
    0.106181945383463335E+04    0.750927150581712333E+00   -0.415923153290576053E-01    0.870526973528798140E-02   -0.246736642242756616E+02
    0.106181945383463335E+04    0.750927150581712333E+00   -0.415923153290576053E-01    0.870526973528798140E-02   -0.246736642242756616E+02
    0.978151437683042786E+03    0.730179737798327566E+00   -0.165607780415011341E+00    0.856463829242376795E-01   -0.246666111311848972E+02
    0.422685983284630140E+03    0.137157574131015592E+00    0.604663044184801990E+00    0.448078817557327147E+00   -0.246580833138536946E+02
    0.422685983284630140E+03    0.137157574131015592E+00    0.604663044184801990E+00    0.448078817557327147E+00   -0.246580833138536946E+02
    0.602281576505019871E+03    0.621134309821688158E+00    0.106426086964644995E+01    0.102296355282040632E+00   -0.246336802741909722E+02
    0.602281576505019871E+03    0.621134309821688158E+00    0.106426086964644995E+01    0.102296355282040632E+00   -0.246336802741909722E+02
    0.483890045506638046E+03    0.594848389603681471E+00   -0.183520217659332019E-01    0.389712729378102418E+00   -0.246131365851054298E+02
    0.483890045506638046E+03    0.594848389603681471E+00   -0.183520217659332019E-01    0.389712729378102418E+00   -0.246131365851054298E+02
    0.534376270593314302E+03    0.480729132078517807E+00    0.449405882533930878E-01    0.416219333376811940E+00   -0.246010659023798937E+02
    0.165739846888996482E+03    0.463644964839083462E+00    0.312779972151541941E+01    0.103086254383341333E+00   -0.245885839494327456E+02
    0.681218040848151531E+03    0.271901946457927590E+00   -0.243264694537089987E+00    0.244120053690086297E+00   -0.245883877854603483E+02
    0.424213219414951936E+03    0.355850701050285489E+00    0.856021561324760150E+00    0.380806701279844784E+00   -0.245883750200341993E+02
    0.631137776051866012E+03    0.363007751711614479E+00    0.655239175566979526E-01    0.175622645401817767E+00   -0.245835989291576311E+02
    0.251472206514995122E+03    0.555691333123995213E+00    0.204944725127233340E+01    0.143788229990077149E+00   -0.245752686231469362E+02
    0.251472206514995122E+03    0.555691333123995213E+00    0.204944725127233340E+01    0.143788229990077149E+00   -0.245752686231469362E+02
    0.422419395808242371E+03    0.679166948352250222E+00    0.130607218972957462E+01    0.267814824376951366E+00   -0.245751061870971199E+02
    0.479547180289582741E+03    0.601246512276017997E+00   -0.657467624796641559E-01    0.441386815081551143E+00   -0.245392953370388369E+02
    0.479547180289582741E+03    0.601246512276017997E+00   -0.657467624796641559E-01    0.441386815081551143E+00   -0.245392953370388369E+02
    0.193672528463080880E+03    0.445533033169781101E+00    0.327335732822148628E+01    0.247951061628175623E+00   -0.245342528881424187E+02
    0.693639213411242395E+03    0.465326329995449095E+00    0.916625336071358099E+00    0.511640683650102512E-01   -0.245319739430143287E+02
    0.375477164660928338E+03    0.276313899174359556E+00    0.839431458575960576E+00    0.457890887453647921E+00   -0.245254946042742077E+02
    0.375477164660928338E+03    0.276313899174359556E+00    0.839431458575960576E+00    0.457890887453647921E+00   -0.245254946042742077E+02
    0.428373314638470447E+03    0.165506612365443284E+00    0.143698112743360085E+00    0.463783757968031063E+00   -0.245136418002885890E+02
    0.824809168521190486E+03    0.714420293425671149E+00    0.116675000486266889E+00    0.128871489973711478E+00   -0.245033782506809601E+02
    0.824809168521190486E+03    0.714420293425671149E+00    0.116675000486266889E+00    0.128871489973711478E+00   -0.245033782506809601E+02
    0.381127523798782875E+03    0.669127765136641961E+00    0.714269837677643515E+00    0.472569188684147323E+00   -0.244940284298742625E+02
    0.623056183548946592E+03    0.493540836289462881E+00    0.126430849425616287E+01    0.241990679234200048E-01   -0.244939676930224906E+02
    0.623056183548946592E+03    0.493540836289462881E+00    0.126430849425616287E+01    0.241990679234200048E-01   -0.244939676930224906E+02
    0.468134484952497189E+03    0.405813685652765932E+00    0.173545339579096769E+01    0.763081844946389143E-01   -0.244857967417548679E+02
    0.582386898461867759E+03    0.670832795208089472E+00    0.129595350008355759E+00    0.333909944299381922E+00   -0.244676063139804363E+02
    0.252361877788819726E+03    0.115634086328145896E+00    0.223567319216322780E+01    0.790260021285372205E-01   -0.244582362806977116E+02
    0.252361877788819726E+03    0.115634086328145896E+00    0.223567319216322780E+01    0.790260021285372205E-01   -0.244582362806977116E+02
    0.381050493270390803E+03    0.445640603023996218E+00    0.887940350729847339E+00    0.249382766781618886E+00   -0.244452781773740746E+02
    0.490142163916420941E+03    0.358098107393566845E+00    0.956245054855605403E+00    0.252118029034003210E+00   -0.244429176052195238E+02
    0.372532458399012853E+03    0.730317249127840240E+00    0.495738981205340323E+00    0.449186989620591948E+00   -0.244284269080956165E+02
    0.372532458399012853E+03    0.730317249127840240E+00    0.495738981205340323E+00    0.449186989620591948E+00   -0.244284269080956165E+02
    0.596272488024925792E+03    0.555572444416720934E+00    0.183186339816181487E-01    0.306692174780585414E+00   -0.244260702991923431E+02
    0.596272488024925792E+03    0.555572444416720934E+00    0.183186339816181487E-01    0.306692174780585414E+00   -0.244260702991923431E+02
    0.264526805166205918E+03    0.572325845443891090E+00    0.166668511885023651E+01    0.269688066056446629E+00   -0.244228008269252861E+02
    0.264526805166205918E+03    0.572325845443891090E+00    0.166668511885023651E+01    0.269688066056446629E+00   -0.244228008269252861E+02
    0.884944072423309422E+03    0.746656140578810690E+00    0.318795774343676896E+00    0.392845557520889593E-01   -0.244201206019301686E+02
    0.333282609327442856E+03    0.535453629353885741E+00    0.130648919441246569E+01    0.200191342964451097E+00   -0.244158520142460240E+02
    0.333282609327442856E+03    0.535453629353885741E+00    0.130648919441246569E+01    0.200191342964451097E+00   -0.244158520142460240E+02
    0.624229658081998082E+03    0.465768028077017893E+00   -0.143606736974106752E-01    0.255944491463441670E+00   -0.244113589825651758E+02
    0.459015602079447774E+03    0.575594300181495711E+00    0.516896421901227754E+00    0.393463916328578855E+00   -0.244086758000690125E+02
    0.151906475888049698E+03    0.390775898233137964E+00    0.375788785694428817E+01    0.263440632116472340E+00   -0.244071249917738555E+02
    0.569701941068142787E+03    0.564170627970782101E+00    0.239204240593386075E+00    0.315217324743948202E+00   -0.244019838517124832E+02
    0.569701941068142787E+03    0.564170627970782101E+00    0.239204240593386075E+00    0.315217324743948202E+00   -0.244019838517124832E+02
    0.468296286115964563E+03    0.688861270037176454E+00    0.522526314461639885E+00    0.215381236874637505E+00   -0.244010457333032633E+02
    0.468296286115964563E+03    0.688861270037176454E+00    0.522526314461639885E+00    0.215381236874637505E+00   -0.244010457333032633E+02
    0.488097014536921563E+03    0.451440072233951328E+00    0.804157197271361923E+00    0.784567173765530618E-01   -0.243984561694515634E+02
    0.360331170033261458E+03    0.367706760047312176E+00    0.759381457752969169E+00    0.360124460517461331E+00   -0.243945565401580708E+02
    0.360331170033261458E+03    0.367706760047312176E+00    0.759381457752969169E+00    0.360124460517461331E+00   -0.243945565401580708E+02
    0.552369321748419338E+03    0.622548689836388114E+00    0.895374936255262099E-01    0.272995431691000490E+00   -0.243838737113696844E+02
    0.862319886684417725E+03    0.238504154779659250E+00   -0.107049942016601562E-02    0.985446737766265957E-01   -0.243670159193259295E+02
    0.557552473635461183E+03    0.229705769101451240E+00   -0.431184318543866851E-01    0.333419615512806355E+00   -0.243661527111777190E+02
    0.716291566615425495E+03    0.282091407522305770E+00    0.222978107595358743E+00    0.180365165602594857E+00   -0.243650223913248425E+02
    0.304614827442326884E+03    0.292948811541607512E+00    0.115362032672105297E+01    0.366973501599593077E+00   -0.243617921722328035E+02
    0.517180812478277403E+03    0.477319927780056164E+00    0.553414092185022355E+00    0.131337618858776650E+00   -0.243579222581590855E+02
    0.517180812478277403E+03    0.477319927780056164E+00    0.553414092185022355E+00    0.131337618858776650E+00   -0.243579222581590855E+02
    0.188174229987824333E+03    0.491341125198011597E+00    0.296392672912913291E+01    0.334556651224810597E+00   -0.243515346538187600E+02
    0.188174229987824333E+03    0.491341125198011597E+00    0.296392672912913291E+01    0.334556651224810597E+00   -0.243515346538187600E+02
    0.284996842086504330E+03    0.110354682739966001E+00    0.110261441698654927E+01    0.479569939737888362E+00   -0.243405842704827826E+02
    0.245089684286514569E+03    0.272398741033992642E+00    0.219402489613407603E+01    0.134932641192746450E+00   -0.242908014297716726E+02
    0.245089684286514569E+03    0.272398741033992642E+00    0.219402489613407603E+01    0.134932641192746450E+00   -0.242908014297716726E+02
    0.755882864480857393E+03    0.418604866360610395E+00   -0.511639693245360405E-01    0.152120685041705728E+00   -0.242804474802380028E+02
    0.755882864480857393E+03    0.418604866360610395E+00   -0.511639693245360405E-01    0.152120685041705728E+00   -0.242804474802380028E+02
    0.783232931889789825E+03    0.616472139609196557E+00    0.154029190778177671E+00    0.129526475734339147E+00   -0.242762396958255628E+02
    0.357200609264240029E+03    0.691424526843842369E+00    0.865135090821672392E+00    0.334130996832634808E+00   -0.242755566802962477E+02
    0.357200609264240029E+03    0.691424526843842369E+00    0.865135090821672392E+00    0.334130996832634808E+00   -0.242755566802962477E+02
    0.816944215076891737E+03    0.600944926408099267E+00    0.392596795534695175E+00    0.583643929086827551E-01   -0.242672188508689963E+02
    0.816944215076891737E+03    0.600944926408099267E+00    0.392596795534695175E+00    0.583643929086827551E-01   -0.242672188508689963E+02
    0.196590691488155500E+03    0.491792643431438414E+00    0.198638525878054573E+01    0.441885907665388877E+00   -0.242648371245845098E+02
    0.613932883631854565E+03    0.472985814775724545E+00    0.106203109756688008E+00    0.233158470637509496E+00   -0.242574074723899749E+02
    0.289092202276060675E+03    0.454068177684067764E+00    0.115929643257271930E+01    0.452151045625577008E+00   -0.242465554057112094E+02
    0.208991933067982160E+03    0.480348613072047959E+00    0.249877188403711337E+01    0.165710640459819702E+00   -0.242450912240164982E+02
    0.208991933067982160E+03    0.480348613072047959E+00    0.249877188403711337E+01    0.165710640459819702E+00   -0.242450912240164982E+02
    0.410343974070980494E+03    0.693449944509750171E+00    0.702676096564922581E+00    0.400663089719414667E+00   -0.242337548317408995E+02
    0.327243441200940197E+03    0.523395455447975055E+00    0.215838330886729768E+01    0.180428089984698614E+00   -0.242095310190555750E+02
    0.327243441200940197E+03    0.523395455447975055E+00    0.215838330886729768E+01    0.180428089984698614E+00   -0.242095310190555750E+02
    0.313298672018004197E+03    0.183694634006557722E+00    0.147900261492788054E+01    0.214333666797383499E+00   -0.242062368966265709E+02
    0.835952770753384584E+03    0.484375351896094819E+00    0.458069087051184098E+00    0.179432826694541428E-01   -0.242027447542967984E+02
    0.119572810814922676E+03    0.372185332037983541E+00    0.401741322284029678E+01    0.593038065635963160E-01   -0.242010462574758769E+02
    0.749408153908694743E+02    0.334933177055255549E+00    0.443608343218495094E+01    0.292338122803474099E+00   -0.241946993888854216E+02
    0.749408153908694743E+02    0.334933177055255549E+00    0.443608343218495094E+01    0.292338122803474099E+00   -0.241946993888854216E+02
    0.344544073356999093E+03    0.211125616616960998E+00    0.253478364741033957E+01    0.459112317082124646E-01   -0.241898123569859749E+02
    0.387651968961878083E+03    0.199708979198738285E+00    0.110787266439850907E+01    0.342503166420277783E+00   -0.241810201043922319E+02
    0.385308461954364816E+03    0.642131998438952745E+00    0.682313265011650572E+00    0.394304014460968466E+00   -0.241605934012885655E+02
    0.852713671747012086E+03    0.442940891024293570E+00    0.105299525752917233E+00    0.321963173252324680E-01   -0.241585676291081803E+02
    0.852713671747012086E+03    0.442940891024293570E+00    0.105299525752917233E+00    0.321963173252324680E-01   -0.241585676291081803E+02
    0.690532445047254669E+03    0.368764959767358402E+00    0.443458340693100084E+00    0.129582911717612548E+00   -0.241476621843874497E+02
    0.460148481185855815E+03    0.743067612900939700E+00    0.618038730119341295E+00    0.219735486395554153E+00   -0.241469868061564163E+02
    0.460148481185855815E+03    0.743067612900939700E+00    0.618038730119341295E+00    0.219735486395554153E+00   -0.241469868061564163E+02
    0.299227194994371587E+03    0.443092360333758761E+00    0.128726350353314256E+01    0.362628113875215541E+00   -0.241453714359782516E+02
    0.299227194994371587E+03    0.443092360333758761E+00    0.128726350353314256E+01    0.362628113875215541E+00   -0.241453714359782516E+02
    0.734753828454074323E+03    0.783053669041038458E+00    0.158076446753479871E+00    0.112073531550567387E+00   -0.241390841949367854E+02
    0.593672289023734720E+03    0.285800603109691964E+00    0.315727864600123809E+00    0.220433920035191855E+00   -0.241345699027149720E+02
    0.581459951520261143E+03    0.454352607136475906E+00    0.353957596482935344E+00    0.156638308986976310E+00   -0.241317165403779086E+02
    0.327916725587036694E+03    0.616203641296321769E+00    0.135949038704364611E+01    0.223517002370251572E+00   -0.241220449265096804E+02
    0.327916725587036694E+03    0.616203641296321769E+00    0.135949038704364611E+01    0.223517002370251572E+00   -0.241220449265096804E+02
    0.641153702950653724E+03    0.625059025049354622E+00    0.696401462965331675E+00    0.121255076448483920E+00   -0.241219846666567470E+02
    0.263500337993897517E+03    0.414105476633062020E+00    0.205196778707465910E+01    0.147510444889547288E+00   -0.241056460956212959E+02
    0.464938598184588386E+03    0.198596370551243184E+00    0.807653912660473594E+00    0.286191423272233403E+00   -0.241039661461368873E+02
    0.193013492612912302E+03    0.365152219589794602E+00    0.257639683119739615E+01    0.218722422087035684E+00   -0.240949395163430466E+02
    0.506786915152606468E+03    0.576273795711961023E+00    0.481061573917846097E+00    0.290424093425897090E+00   -0.240944754627497879E+02
    0.548240957627632724E+03    0.793405174711294792E+00    0.450794970097664560E+00    0.240199630312285584E+00   -0.240882952327633859E+02
    0.717316481972744782E+03    0.995886176777594501E-01    0.286229430034819821E+00    0.123116122720554194E+00   -0.240530967113948293E+02
    0.487780191448692335E+03    0.175986565155837854E+00    0.603896974253002483E+00    0.191543227664310256E+00   -0.240496572836441729E+02
    0.306192091871937578E+03    0.698794633547429100E+00    0.186908184853037618E+01    0.279320205519568321E+00   -0.240478791160290868E+02
    0.306192091871937578E+03    0.698794633547429100E+00    0.186908184853037618E+01    0.279320205519568321E+00   -0.240478791160290868E+02
    0.613315766336709771E+03    0.479385907916063503E+00    0.617660309349733261E+00    0.298357646018994165E-01   -0.240463889904411019E+02
    0.613315766336709771E+03    0.479385907916063503E+00    0.617660309349733261E+00    0.298357646018994165E-01   -0.240463889904411019E+02
    0.416014097599617799E+03    0.149709105119612523E+00    0.663056790210373670E+00    0.329124331881556653E+00   -0.240446371545465567E+02
    0.387391242489943636E+03    0.417867930156060108E+00    0.136626568001544246E+01    0.888379257719566634E-01   -0.240432074327805765E+02
    0.387391242489943636E+03    0.417867930156060108E+00    0.136626568001544246E+01    0.888379257719566634E-01   -0.240432074327805765E+02
    0.580837230323765539E+03    0.556420525823078771E+00    0.953519654162864327E+00    0.115144824272050431E+00   -0.240367801287526390E+02
    0.388411120883270371E+03    0.543787816429954551E+00    0.117833184825897330E+01    0.309892820828251148E+00   -0.240359712306830247E+02
    0.349890207376792091E+03    0.574021333870354589E+00    0.984741201527194576E+00    0.402883366604968540E+00   -0.240352848377404946E+02
    0.198938498065737122E+03    0.354218909509012414E+00    0.207081435859065000E+01    0.454867661179286620E+00   -0.240295385174591942E+02
    0.281385336846910718E+03    0.621682935654182089E+00    0.156661692103999517E+01    0.305218656378184072E+00   -0.240258226533092873E+02
    0.281385336846910718E+03    0.621682935654182089E+00    0.156661692103999517E+01    0.305218656378184072E+00   -0.240258226533092873E+02
    0.278596031997859200E+03    0.482564514251924426E+00    0.175432790414928697E+01    0.228459286727423022E+00   -0.240257846837022342E+02
    0.478233200760832347E+03    0.452656777319677073E+00    0.618795965491116817E+00    0.204074451458602174E+00   -0.240212740331190808E+02
    0.436963685981677941E+03    0.343736751792556305E+00    0.155909555366208252E+01    0.140802721795925262E+00   -0.240206810824269539E+02
    0.453345130652029468E+03    0.685924942023770523E+00    0.739647290327271278E+00    0.309407600825692464E+00   -0.240189353890466961E+02
    0.453345130652029468E+03    0.685924942023770523E+00    0.739647290327271278E+00    0.309407600825692464E+00   -0.240189353890466961E+02
    0.752010900672476055E+03    0.393298233447280043E+00    0.354656314373257509E+00    0.947678001395926492E-02   -0.240113405958696546E+02
    0.759798619137343962E+03    0.735876262686475546E+00    0.253393838128486593E+00    0.762641133471272797E-01   -0.240063623553721897E+02
    0.453378946063179058E+03    0.296940356509969361E+00    0.164103806759872128E+01    0.952328373893075730E-01   -0.240052117857042830E+02
    0.453378946063179058E+03    0.296940356509969361E+00    0.164103806759872128E+01    0.952328373893075730E-01   -0.240052117857042830E+02
    0.547106382238291076E+03    0.422433298640984500E+00    0.775867402977557852E+00    0.551045784760502977E-01   -0.240003134754359557E+02
    0.505264493999357114E+03    0.662328468579108876E+00    0.101526476315911474E+01    0.174787536494471846E+00   -0.240002767292723362E+02
    0.445346260549966189E+03    0.640927087103953186E+00    0.862521344933040446E+00    0.168104939843833040E+00   -0.239963577945767383E+02
    0.704131869401615859E+03    0.516393233713951516E+00    0.434972914983358550E+00    0.925098941006789188E-01   -0.239939748401086206E+02
    0.644511003782764419E+03    0.262660325822827057E+00    0.856383883809607838E+00    0.698446020083710317E-01   -0.239927006057836962E+02
    0.644511003782764419E+03    0.262660325822827057E+00    0.856383883809607838E+00    0.698446020083710317E-01   -0.239927006057836962E+02
    0.411817277136255996E+03    0.691211850130815209E+00    0.178137572889171114E+01    0.120973502228610127E+00   -0.239899025479639114E+02
    0.688056337150994295E+03    0.427965464090668213E+00    0.746892628157747041E+00    0.538965222939078864E-01   -0.239896241346924732E+02
    0.266016238336551794E+03    0.601422752836729080E+00    0.267172984472545849E+01    0.159667277241557298E+00   -0.239812619528616153E+02
    0.413351844474831637E+03    0.251850424025554354E+00    0.766930309989511727E+00    0.295760510217186079E+00   -0.239806674298476032E+02
    0.156180046928360895E+03    0.423940385422779453E+00    0.314840287469446700E+01    0.376749547857976985E+00   -0.239799530675003112E+02
    0.226904137049468432E+03    0.599563200488660519E+00    0.194656435575453912E+01    0.377305291106961427E+00   -0.239771660495527108E+02
    0.226904137049468432E+03    0.599563200488660519E+00    0.194656435575453912E+01    0.377305291106961427E+00   -0.239771660495527108E+02
    0.650455730510425838E+03    0.719644291783071433E+00    0.400233515820978880E+00    0.104577729286653237E+00   -0.239731217833228385E+02
    0.342874207616252590E+03    0.445953134700606435E+00    0.163873065019832698E+01    0.269698983599325037E+00   -0.239713595339943737E+02
    0.449867113602005702E+03    0.268059199227423051E+00    0.638987313735890794E+00    0.266208348702155706E+00   -0.239686590241330428E+02
    0.645758671718119672E+03    0.317174820065989349E+00    0.793303366048426994E+00    0.793602730257460393E-01   -0.239676060422662900E+02
    0.590827812901285029E+03    0.346835554281227587E+00    0.535792787036980300E+00    0.106005504219218158E+00   -0.239627870172539694E+02
    0.318534750630891892E+03    0.553102451733196387E+00    0.231731212051509150E+01    0.135157003637776413E+00   -0.239595251786409165E+02
    0.294228745731025242E+03    0.360968893117208756E+00    0.147166045179966876E+01    0.369473039583648299E+00   -0.239519768512047264E+02
    0.752557226141558886E+03    0.724756047498787748E+00    0.356283844543216155E+00    0.248517946146337987E-01   -0.239511081811151669E+02
    0.559329285823741770E+03    0.686129106601047090E+00    0.422048008847625056E+00    0.213390542516257747E+00   -0.239428890504635774E+02
    0.196387543507718561E+03    0.332563332063878447E+00    0.268907446922410820E+01    0.352213903977778131E+00   -0.239388731662271539E+02
    0.525649328318121093E+03    0.573945500943366604E+00    0.884625426780467627E+00    0.175957274950042236E+00   -0.239353690861444051E+02
    0.219862556487934626E+03    0.496990824446691626E+00    0.272579588284814278E+01    0.623009648400778132E-01   -0.239342567296769424E+02
    0.500969824292214696E+03    0.185979400509552778E+00    0.576832850900674821E+00    0.210797400340864416E+00   -0.239287680716096709E+02
    0.237197516944298911E+03    0.463189713424867255E+00    0.215536787806833985E+01    0.356562299422434614E+00   -0.239207695740112563E+02
    0.693575905851402013E+03    0.670214597166267190E+00    0.442775576597202125E+00    0.721552343943277913E-01   -0.239187400618498565E+02
    0.219308418141897363E+03    0.544611098681471284E+00    0.203930529805474059E+01    0.389426209858216077E+00   -0.239107402219981608E+02
    0.230142232842967189E+03    0.649070309098662146E+00    0.224221169003188336E+01    0.221021110346569405E+00   -0.239038095698630428E+02
    0.330452895417512991E+03    0.552935650941813517E+00    0.123864034653625144E+01    0.329084234748768800E+00   -0.239033664375795709E+02
    0.287577679335147593E+03    0.433880266745171661E+00    0.186870336723815988E+01    0.168579060085473409E+00   -0.238929756459125819E+02
    0.683584775894072322E+03    0.238643681259648383E+00    0.959306393973726301E+00    0.342634899851023550E-02   -0.238925870332372341E+02
    0.683584775894072322E+03    0.238643681259648383E+00    0.959306393973726301E+00    0.342634899851023550E-02   -0.238925870332372341E+02
    0.680209439692852243E+03    0.645499218921395057E+00    0.896738609877641757E+00    0.193084384354324373E-01   -0.238848476082142227E+02
    0.364668558950029023E+03    0.455122548941792493E+00    0.168919371999960877E+01    0.209016778320874314E+00   -0.238810320764112198E+02
    0.565304243872874508E+03    0.407350753301068014E+00    0.541153232691131691E+00    0.158474325055685705E+00   -0.238792898151707931E+02
    0.444030815106301361E+03    0.367239425566360633E+00    0.894021720352554894E+00    0.264906950096300664E+00   -0.238790484420506068E+02
    0.606273348963725880E+03    0.708330293146309020E+00    0.565933366602729748E+00    0.107390831001354367E+00   -0.238725665444167063E+02
    0.268947276703806040E+03    0.553217740152982085E+00    0.250039021230466929E+01    0.188186007528579946E+00   -0.238698541083018050E+02
    0.313674251443970434E+03    0.541690502618966896E+00    0.279345642524115423E+01    0.597238094535478253E-02   -0.238688143444888503E+02
    0.248775748712016963E+03    0.542690021540792267E+00    0.187353966744048961E+01    0.302070516620095375E+00   -0.238465644647948949E+02
    0.269254593286438308E+03    0.105803532949140328E+00    0.183400854224754273E+01    0.330654374933003037E+00   -0.238442543622661276E+02
    0.391158539182331481E+03    0.384977816965916597E+00    0.120177100596786435E+01    0.165765890066227578E+00   -0.238439765715738012E+02
    0.285223826808219940E+03    0.377903401905388070E+00    0.213527065988703590E+01    0.734242172248324027E-01   -0.238438625814382021E+02
    0.240207447419627982E+03    0.428258283036859033E+00    0.194964334952014617E+01    0.371286411456321297E+00   -0.238399731099315453E+02
    0.629060391858486014E+03    0.592557977665371549E+00    0.792921790423780415E+00    0.702635345642420167E-01   -0.238386763781887936E+02
    0.601386371958040058E+03    0.778807572932123104E+00    0.763890324102053597E+00    0.970168822668893011E-01   -0.238345978138801087E+02
    0.294109500605583492E+03    0.411407896269399886E+00    0.161932480724843408E+01    0.326724324838370717E+00   -0.238325461507363769E+02
    0.370283192325867333E+03    0.431868952369434234E+00    0.111009144528336989E+01    0.297702925215615533E+00   -0.238292357984095986E+02
    0.609685727675696398E+03    0.289018353162399877E+00    0.600983008973130950E+00    0.985016731349409175E-01   -0.238284330817939001E+02
    0.533772612098541572E+03    0.584231357972168630E+00    0.606108257398969563E+00    0.187511408060062557E+00   -0.238219129405939114E+02
    0.697582686964187360E+03    0.662634357627076898E+00    0.573646878725133647E+00    0.173752333850955495E-01   -0.238211559563769271E+02
    0.266978414102113788E+03    0.424440739957696100E+00    0.227810288835782782E+01    0.761068485207437029E-01   -0.238194712475810739E+02
    0.276228638775472689E+03    0.616722149088862248E+00    0.227717331403057610E+01    0.460451376017119648E-01   -0.238173127786324201E+02
    0.380788833729743430E+03    0.464803116620751688E+00    0.124999304531171873E+01    0.277058384789782230E+00   -0.238166951742940967E+02
    0.247791303129157825E+03    0.473598804226768699E+00    0.303662346242117032E+01    0.976098857700693767E-01   -0.238145270651702035E+02
    0.241339051736453854E+03    0.579790691610864384E+00    0.210670843291648868E+01    0.344569013900947019E+00   -0.238136924227466480E+02
    0.220853497191477345E+03    0.637894071464013002E+00    0.231506546830631965E+01    0.348261035859126600E+00   -0.238127574511320645E+02
    0.578947417732356371E+03    0.344423417406860499E+00    0.577360266328549088E+00    0.128154289232056601E+00   -0.238101753903674229E+02
    0.502158467862921782E+03    0.711934665733255478E+00    0.161403070262192117E+01    0.162877196517603809E-01   -0.238069770996484209E+02
    0.648935139971145077E+03    0.695192275207547783E+00    0.637102826165598657E+00    0.271467863244331774E-01   -0.237995946643882341E+02
    0.567040926700581167E+03    0.798588857101745320E+00    0.132504243838641766E+01    0.168104738348875231E-01   -0.237982397016449845E+02
    0.595266408723274253E+03    0.643735191028767528E+00    0.760099624072152480E+00    0.343965457230363050E-01   -0.237968563830058280E+02
    0.565797371748443993E+03    0.525972242152455860E+00    0.109926194617581885E+01    0.702127164927368874E-01   -0.237935854631911887E+02
    0.299076344274792859E+03    0.634967093278051009E+00    0.181206485865143385E+01    0.172883165794375626E+00   -0.237918604565504275E+02
    0.415496815286164349E+03    0.429230263761096686E+00    0.963674807678969181E+00    0.260972224957339571E+00   -0.237895176181090235E+02
    0.271803840524139673E+03    0.429061665051267860E+00    0.211557165132726333E+01    0.129249393060715451E+00   -0.237872598833917763E+02
    0.488367621561948795E+03    0.114356470971683374E+00    0.738049985470792258E+00    0.215082809411483028E+00   -0.237805053540977909E+02
    0.267500026084435945E+03    0.504419949662392786E+00    0.258334044789175632E+01    0.162057595987765840E+00   -0.237789209810119715E+02
    0.694273476994644170E+03    0.719074449848367547E+00    0.632182614807855536E+00    0.227504782035965886E-01   -0.237775518905930348E+02
    0.114241700461106973E+03    0.432960542722750918E+00    0.406064409801279425E+01    0.319058679159778091E+00   -0.237769475259575636E+02
    0.299684556002286399E+03    0.485542951511229226E+00    0.253664737956719843E+01    0.102051833454808921E+00   -0.237756726720254576E+02
    0.243852437266411755E+03    0.506337464916183699E+00    0.197484023786559160E+01    0.298242025740212968E+00   -0.237732121064213437E+02
    0.855571558649592845E+02    0.422137448452270692E+00    0.433089497062675122E+01    0.268081347848652896E+00   -0.237726913787794842E+02
    0.400478704145499648E+03    0.561405213572148121E+00    0.972118663942344696E+00    0.284710685046449141E+00   -0.237708311956560649E+02
    0.345632494528238112E+03    0.654858788428119620E+00    0.163837646897796585E+01    0.103701473471892444E+00   -0.237678809687417854E+02
    0.253376084734215738E+03    0.422387242323657874E+00    0.208039727228373028E+01    0.198202496816928475E+00   -0.237619560565835535E+02
    0.275607808076123320E+03    0.449239425831589156E+00    0.203742848788187381E+01    0.270955412770201187E+00   -0.237571191388660345E+02
    0.235392168750126842E+03    0.489152836018601156E+00    0.301803600705439123E+01    0.128915415744865480E+00   -0.237553401454011350E+02
    0.290607153743058859E+03    0.379811769168708957E+00    0.177998178048678124E+01    0.220543956132173563E+00   -0.237546745832073114E+02
    0.465280851193607418E+03    0.590561348789860108E+00    0.163009947097658880E+01    0.564951190836442893E-01   -0.237492467906092450E+02
    0.433636147496949036E+03    0.462841950512423550E+00    0.101453013822742300E+01    0.173101917675373224E+00   -0.237475742291484622E+02
    0.287877797088538728E+03    0.666421857846423382E+00    0.200088906468435379E+01    0.259763338525639043E+00   -0.237341562217602373E+02
    0.445784310530400546E+03    0.513429127388525641E+00    0.158886203263667536E+01    0.944160666868621296E-01   -0.237340820171778475E+02
    0.312424269162787596E+03    0.634077969286343968E+00    0.164887901649160895E+01    0.254402638421702354E+00   -0.237257534576266877E+02
    0.105091965112664752E+03    0.410216723129933014E+00    0.405073000252993332E+01    0.370582599240556809E+00   -0.237247577000813799E+02
    0.286627412968521924E+03    0.387002939237248988E+00    0.213168282830425504E+01    0.231120230530069304E+00   -0.237215476789685482E+02
    0.483155211555475887E+03    0.691410798447271158E+00    0.820539400956791454E+00    0.201450614963307073E+00   -0.237193718404503571E+02
    0.249746468339151221E+03    0.694039559461310240E+00    0.191883260849734683E+01    0.313074389620889515E+00   -0.237179093398819205E+02
    0.268451846106463847E+03    0.649888961174104218E+00    0.232280445305380745E+01    0.646527131742406919E-01   -0.237170625039773668E+02
    0.248882418652800482E+03    0.336805002828363176E+00    0.212439930608451899E+01    0.206689280539830239E+00   -0.237132926152735060E+02
    0.573995640281918099E+03    0.775669820455415548E+00    0.729270323217257044E+00    0.112493719985433963E+00   -0.237118152847493135E+02
    0.284823279661991933E+03    0.304598839974957458E+00    0.191988565848684622E+01    0.195966342688488337E+00   -0.236525014461898166E+02
    0.292198472698944727E+03    0.192264239670226322E+00    0.192507296157370167E+01    0.180548959539674703E+00   -0.235948606650597483E+02
    0.199996004657755378E+03    0.318541758660731811E+00    0.308112252300271194E+01    0.170725132360811355E+00   -0.233374075476222771E+02
    0.285667690569913077E+03    0.492036833178594590E+00    0.199996200366189569E+01    0.235240020682283862E+00   -0.235903389082536918E+02
    0.229436870316228578E+03    0.566767849630830267E+00    0.233794065402699847E+01    0.233688206724826458E+00   -0.236344142550937164E+02
    0.275589289617971531E+03    0.547691530700276874E+00    0.217872387067441053E+01    0.179557510737827331E+00   -0.234675086822609629E+02
    0.214087918105684594E+03    0.575739828398289966E+00    0.279150519624610105E+01    0.145033391020460284E+00   -0.233458722877189331E+02
    0.227915657106807174E+03    0.586876214172717625E+00    0.288609179810479333E+01    0.135231498318040488E+00   -0.233467819349702950E+02
    0.211299185513965483E+03    0.550857786325888887E+00    0.288449291672300667E+01    0.162776412492672135E+00   -0.232963907293128365E+02
    0.196776066441603064E+03    0.680899933657037271E+00    0.269774308931956419E+01    0.232513434527765600E+00   -0.235343715419396098E+02
    0.260236485960020900E+03    0.416920457091048580E+00    0.252236805814228582E+01    0.131285603100729564E+00   -0.233090608088065423E+02
    0.197731512567105739E+03    0.519010525874571194E+00    0.288340754891384687E+01    0.119890597818555961E+00   -0.236447183544756037E+02
    0.279691946507534283E+03    0.424600040264814904E+00    0.228800270668537920E+01    0.157006524265430075E+00   -0.234237473503483287E+02
    0.229762890547636090E+03    0.327163339563538214E+00    0.287330616798588512E+01    0.155139626580531015E+00   -0.234923065796240458E+02
    0.279670707264336215E+03    0.255378495640540826E+00    0.268771745255350947E+01    0.824763575939183730E-01   -0.235181236380618905E+02
    0.217201316018912081E+03    0.225054367640147912E+00    0.319999376010968994E+01    0.114475768454155191E+00   -0.235128073074036728E+02
    0.236561185064197474E+03    0.316793253436088496E+00    0.301744325888833664E+01    0.881675847050959194E-01   -0.233786081253600351E+02
    0.278999811046479010E+03    0.198892511712155079E+00    0.277434876475976555E+01    0.476708904473766015E-01   -0.233938062643025688E+02
    0.131693758173773119E+03    0.318984853824699599E+00    0.402998707967567249E+01    0.922093928848800870E-01   -0.231329394636444619E+02
    0.131693758173773119E+03    0.318984853824699599E+00    0.402998707967567249E+01    0.922093928848800870E-01   -0.231329394636444619E+02
    0.176554431921935617E+03    0.564218803000195002E+00    0.353038713730286879E+01    0.367280715123173146E-01   -0.231875182419166066E+02
    0.176554431921935617E+03    0.564218803000195002E+00    0.353038713730286879E+01    0.367280715123173146E-01   -0.231875182419166066E+02
    0.207999037329520320E+03    0.437540438794907227E+00    0.319301432797265150E+01    0.615469328465293383E-01   -0.230925037295987998E+02
    0.175894970482982359E+03    0.224121589567870733E+00    0.360743958623433159E+01    0.889223890079960250E-01   -0.232145126033178713E+02
    0.201219326434412181E+03    0.323678973554445026E+00    0.332853286827827155E+01    0.106549208780521935E-01   -0.230736868070723347E+02
    0.151670959172382311E+03    0.239304094550143703E+00    0.382478198787469381E+01    0.226036266993088347E-01   -0.232505077093744781E+02
    0.151670959172382311E+03    0.239304094550143703E+00    0.382478198787469381E+01    0.226036266993088347E-01   -0.232505077093744781E+02
    0.235190824133258275E+03    0.114371982388218288E+00    0.305515939997732566E+01    0.520944018074929321E-01   -0.231807958810787866E+02
    0.235190824133258275E+03    0.114371982388218288E+00    0.305515939997732566E+01    0.520944018074929321E-01   -0.231807958810787866E+02
    0.243423266394902242E+03    0.179528074114249814E+00    0.319149018172996968E+01    0.340494838127569088E-01   -0.234402160266556940E+02
    0.243423266394902242E+03    0.179528074114249814E+00    0.319149018172996968E+01    0.340494838127569088E-01   -0.234402160266556940E+02
    0.207346277972732906E+03    0.300382384103026867E+00    0.329040620130812478E+01    0.403344149705681318E-01   -0.230475990976306235E+02
    0.207346277972732906E+03    0.300382384103026867E+00    0.329040620130812478E+01    0.403344149705681318E-01   -0.230475990976306235E+02
    0.163690265784607760E+03    0.266154917542804792E+00    0.374298451466212967E+01    0.260133507120374960E-01   -0.231001782668597606E+02
    0.130549005803556270E+03    0.539033120625244333E+00    0.389814572704541362E+01    0.736137885441212891E-01   -0.236789665035931094E+02
    0.260381087514429680E+03    0.496358661515243271E+00    0.206007439634279521E+01    0.202532845429781339E+00   -0.236979142568651469E+02
    0.282390010245082465E+03    0.346492322325270885E+00    0.213708662589991150E+01    0.162633943028576949E+00   -0.234461824881717362E+02
    0.250515227871142685E+03    0.110404785867012384E+00    0.198606236187858887E+01    0.300057866695416231E+00   -0.236485909572846609E+02
    0.214165760509464349E+03    0.355928811509983567E+00    0.282662727569164662E+01    0.238341136756269112E+00   -0.236957331068950197E+02
    0.203867038830704644E+03    0.489516611895599363E+00    0.249648668202923396E+01    0.326127771614196815E+00   -0.236572688635099198E+02
    0.175366750388936140E+03    0.222697482923693291E+00    0.301778240044089863E+01    0.280638645404977016E+00   -0.236114490612714789E+02
    0.172064161225650679E+03    0.254757865459437793E+00    0.336440048166988248E+01    0.214537274650115323E+00   -0.235247729614827286E+02
    0.142056985395375051E+03    0.383464450581245814E-01    0.368629424418487339E+01    0.239289606207253924E+00   -0.234389312695722190E+02
    0.120459912907495337E+03    0.285722315313857333E+00    0.416698224310596643E+01    0.163190843669183516E+00   -0.231128925504496650E+02
    0.120459912907495337E+03    0.285722315313857333E+00    0.416698224310596643E+01    0.163190843669183516E+00   -0.231128925504496650E+02
    0.925370421747235099E+02    0.280114006833634910E+00    0.491547778478073560E+01    0.162688824438078944E+00   -0.232085063739998105E+02
    0.129501686693413887E+03    0.245829509275090757E+00    0.376851061134447640E+01    0.281997694152311074E+00   -0.234870934215661933E+02
    0.166276820683972971E+03    0.647397265531543531E+00    0.289565911019670885E+01    0.325071551593476282E+00   -0.236440844889490833E+02
    0.191189472630308359E+03    0.527748339315672665E+00    0.262461085885948897E+01    0.338675736994131615E+00   -0.237043675808428915E+02
    0.143650536440788841E+03    0.391845361249226365E+00    0.325032284789666015E+01    0.279405105604877857E+00   -0.236145853124119967E+02
    0.912450855773707161E+02    0.447159008407063796E+00    0.417230394452310094E+01    0.352472593940761914E+00   -0.234950525367884779E+02
    0.764626366248692761E+02    0.356834309279905781E+00    0.460269189300248271E+01    0.380040565957125043E+00   -0.234749232279852933E+02
    0.107876772995462844E+03    0.398519492144014886E+00    0.383928523462009963E+01    0.368236176502106050E+00   -0.235314215119997101E+02
    0.120356887593345590E+03    0.370742893390931305E+00    0.383449974802372573E+01    0.335019231124049910E+00   -0.236571534974024118E+02
    0.134548655018904668E+03    0.465199292504856532E+00    0.348066066284711084E+01    0.324467021887215545E+00   -0.235339196995355451E+02
    0.375675881893804842E+03    0.543742813719315876E+00    0.186087913128206051E+01    0.464574734242489875E-02   -0.233407565617305224E+02
    0.279261334877637012E+03    0.568100961630238710E+00    0.275222314365020004E+01    0.305268688713238590E-01   -0.232340338782651088E+02
    0.437581193949419799E+03    0.452455316125549400E+00    0.169071543774580491E+01    0.706100739497377977E-01   -0.236220300120573441E+02
    0.425334423432522499E+03    0.442026859622833279E+00    0.199844717098760505E+01    0.116670218308340245E-01   -0.236210179167696168E+02
    0.419219410262067868E+03    0.467419105861848594E+00    0.181267506272195078E+01    0.140520994898173605E-01   -0.232466374309246326E+02
    0.339601838104640592E+03    0.489414605917441625E+00    0.235494203068464270E+01    0.121248894142519034E-01   -0.232339043061415964E+02
    0.363829268761087292E+03    0.462016291364239884E+00    0.215668434696597089E+01    0.194764172094216530E-01   -0.232437741957567425E+02
    0.339287705124168383E+03    0.463944891463738185E+00    0.175631083735057558E+01    0.107892396736306739E+00   -0.235502698789862528E+02
    0.328941497127857019E+03    0.489247115503955721E+00    0.252545977271597621E+01    0.121789412128869116E-01   -0.234190685597654564E+02
    0.370158539563677209E+03    0.376235009650973229E+00    0.235271239238207208E+01    0.199190079022212299E-02   -0.235553910679364549E+02
    0.316718644215374411E+03    0.420520818663571772E+00    0.226936025720893664E+01    0.315544962252095329E-01   -0.232357234424561128E+02
    0.349919892629595154E+03    0.444114692637542774E+00    0.227751640119547361E+01    0.445892786916872244E-01   -0.234162783241954529E+02
    0.263210046289760669E+03    0.466241091000645258E+00    0.253605954017327484E+01    0.667488066478588108E-02   -0.236186859130057449E+02
    0.276684253643512022E+03    0.517277476838482353E+00    0.291802016253924990E+01    0.725646587549836752E-02   -0.233242988921570671E+02
    0.348969978834541166E+03    0.319415192230824596E+00    0.191550448123583905E+01    0.259113996741984834E-01   -0.234281297967810573E+02
    0.368704554512750121E+03    0.151905342835228663E+00    0.218988834767204210E+01    0.460629381229169590E-01   -0.235509083351102575E+02
    0.464008699726885936E+03    0.335461512687746044E+00    0.167843260816087803E+01    0.300298803946308437E-01   -0.235766393861137686E+02
    0.481395837389733117E+03    0.360017198441350106E+00    0.126093859848125245E+01    0.564123825102327489E-01   -0.233863907801505100E+02
    0.341285975475291309E+03    0.429912646392551390E+00    0.156770386664271300E+01    0.167917613084771294E+00   -0.236589019488376806E+02
    0.386285317092362618E+03    0.169667899554507118E+00    0.151856885878864034E+01    0.192795714113656536E+00   -0.236697322731034916E+02
    0.393746319083618346E+03    0.405466066446840967E+00    0.133255688971618724E+01    0.179807369029508973E+00   -0.235302673845039223E+02
    0.393808913132188081E+03    0.292457465625728608E+00    0.137702616765158847E+01    0.164706468075379309E+00   -0.234963515292936904E+02
    0.376600507078965791E+03    0.373168322715747902E+00    0.174420866804018893E+01    0.147564089242363167E+00   -0.235813816057025889E+02
    0.439130937391000089E+03    0.383403133743032865E+00    0.143696765609447930E+01    0.901980509433887578E-01   -0.234254743296276970E+02
    0.599728142323705356E+03    0.370912902732841110E+00    0.819692978950668838E+00    0.472267166351614462E-01   -0.236953037553159902E+02
    0.537003214134634391E+03    0.254132314088189704E+00    0.933702343796785073E+00    0.935155542548062046E-01   -0.236072348628366839E+02
    0.512763293402384875E+03    0.363211430239404998E+00    0.923118605319293906E+00    0.138604985570147027E+00   -0.236930785483984181E+02
    0.318724105154379004E+03    0.442340094270017137E+00    0.205082238030818864E+01    0.101569555055781524E+00   -0.233631212381043696E+02
    0.318724105154379004E+03    0.442340094270017137E+00    0.205082238030818864E+01    0.101569555055781524E+00   -0.233631212381043696E+02
    0.379820274264920329E+03    0.542891873493746568E+00    0.227007578058831871E+01    0.123260108349952865E-01   -0.235936831690960958E+02
    0.510694532861371727E+03    0.203175014378714769E+00    0.123629738247875487E+01    0.303673692433152273E-01   -0.234240032395603919E+02
    0.318249568923170614E+03    0.218054947876826777E+00    0.218291697828508013E+01    0.620798735985678071E-01   -0.232792526116831198E+02
    0.365762282644538800E+03    0.530743584842757965E+00    0.173186697861876215E+01    0.111087957176862664E+00   -0.233841582167179709E+02
    0.365762282644538800E+03    0.530743584842757965E+00    0.173186697861876215E+01    0.111087957176862664E+00   -0.233841582167179709E+02
    0.384102661686600186E+03    0.543773162916348918E+00    0.194251342847394781E+01    0.572732757616275373E-01   -0.233454674974568377E+02
    0.384102661686600186E+03    0.543773162916348918E+00    0.194251342847394781E+01    0.572732757616275373E-01   -0.233454674974568377E+02
    0.368773103769754528E+03    0.492796928694287817E+00    0.156132543021235559E+01    0.118050905453763302E+00   -0.235451270327075797E+02
    0.409483722419870901E+03    0.468576958930585596E+00    0.180821495381371555E+01    0.138552665572801697E-01   -0.232115040622395661E+02
    0.409483722419870901E+03    0.468576958930585596E+00    0.180821495381371555E+01    0.138552665572801697E-01   -0.232115040622395661E+02
    0.303088308274168696E+03    0.589476577084499631E+00    0.226964325410432100E+01    0.136717934133222890E+00   -0.235584011235259894E+02
    0.323954345698381815E+03    0.638292995367885863E+00    0.207986567317005733E+01    0.605578687154253378E-01   -0.233198230874285173E+02
    0.369029575718155343E+03    0.619736039536718297E+00    0.187340357155798909E+01    0.709109341961559111E-02   -0.233939548455755926E+02
    0.358736788515561784E+03    0.743935087936959394E+00    0.170609115210695172E+01    0.716405600422250211E-01   -0.235678314417465273E+02
    0.231901161828380367E+03    0.678628434632452815E+00    0.284170521010527199E+01    0.127365685938525108E-01   -0.235016805236239250E+02
    0.241030652057872260E+03    0.660951968175619298E+00    0.271867709963432880E+01    0.409057727502058627E-01   -0.233600536638721792E+02
    0.241030652057872260E+03    0.660951968175619298E+00    0.271867709963432880E+01    0.409057727502058627E-01   -0.233600536638721792E+02
    0.261641576522173693E+03    0.728930770357914093E+00    0.219061735014450853E+01    0.207450333270693343E+00   -0.234954270251730577E+02
    0.484870836310739151E+03    0.637378640809490471E+00    0.148030538703812731E+01    0.110296759661814986E-01   -0.232981261330025404E+02
    0.519550522213873364E+03    0.672192549269493012E+00    0.120276782982680430E+01    0.211524690750042425E-01   -0.234326709233473274E+02
    0.577944657696194895E+03    0.630481130943439050E+00    0.120513498029409494E+01    0.156640565956038778E-01   -0.236069377481168132E+02
    0.467378242517146532E+03    0.704396023991760378E+00    0.119480970757270200E+01    0.759476032607640517E-01   -0.234960570738265808E+02
    0.516689085649226513E+03    0.616277173358916408E+00    0.111383249092832770E+01    0.366930118333491928E-01   -0.234962375870577098E+02
    0.416675833727519773E+03    0.669885436089148412E+00    0.169007972445772037E+01    0.433841888587004829E-01   -0.232818047765194081E+02
    0.350818489399045347E+03    0.599768492562340327E+00    0.144756782475947432E+01    0.186401506966424019E+00   -0.236519770413848498E+02
    0.380838473120081119E+03    0.607812325449976321E+00    0.149528614247121538E+01    0.111406988788880917E+00   -0.235648037981729317E+02
    0.381588576126776161E+03    0.613483868615052552E+00    0.154024407871166424E+01    0.190365539235040876E+00   -0.236308639145181623E+02
    0.421280874379952365E+03    0.596650867149971842E+00    0.167430557170515915E+01    0.480791995667938232E-01   -0.233040335081095940E+02
    0.346234858756169217E+03    0.587817264353185487E+00    0.166113029621588915E+01    0.167093095529071589E+00   -0.234575774042606362E+02
    0.397765174618139326E+03    0.616101106258927556E+00    0.185024137567795144E+01    0.559813341883972707E-01   -0.232941082427860167E+02
    0.399986679698395562E+03    0.728273559206440768E+00    0.168553180536940328E+01    0.138378337521940092E+00   -0.236530201313540083E+02
    0.456087205113262883E+03    0.655853219433943035E+00    0.957627135333094515E+00    0.182433396984339635E+00   -0.236517535484836117E+02
    0.412314538306372526E+03    0.734771166912198681E+00    0.132571881165789218E+01    0.135186101390936786E+00   -0.235192612492213513E+02
    0.469205422524776168E+03    0.674528752440829327E+00    0.138546730727552969E+01    0.912382990781316072E-01   -0.235835002681243964E+02
    0.456322009331955542E+03    0.627863251125751920E+00    0.125815282936651140E+01    0.715775600875629137E-01   -0.234533215375887920E+02
    0.523057989465703372E+03    0.560939876203116694E+00    0.994103475508487655E+00    0.771502103136627870E-01   -0.235689137126602368E+02
    0.456241999864987065E+03    0.605316470516014782E+00    0.163542598694461638E+01    0.500856624539859213E-01   -0.235328563157488908E+02
    0.485451476976874801E+03    0.556299952326535396E+00    0.120195643254124374E+01    0.698204327527207902E-01   -0.234244838137444731E+02
    0.372578565124269915E+03    0.572719740177872194E+00    0.135039128925689589E+01    0.197511842434716312E+00   -0.236241473327327611E+02
    0.390444490608936746E+03    0.543904390370282820E+00    0.145746342207740298E+01    0.159346143050245970E+00   -0.234922792595311982E+02
    0.418753386166036648E+03    0.731345278299129431E+00    0.157344447662954945E+01    0.908844892341773292E-01   -0.234039403735896592E+02
    0.482145827880969080E+03    0.548201521445312978E+00    0.136462911357922234E+01    0.953663984545157217E-01   -0.236550425669121367E+02
    0.451470159001048444E+03    0.652539080107626068E+00    0.107194834004049167E+01    0.154319114683114184E+00   -0.235789391425963650E+02
    0.475078816345261657E+03    0.702352751445624812E+00    0.108898798860423085E+01    0.156491221129649416E+00   -0.236468307134371045E+02
    0.314636440003123369E+03    0.547611867050180945E+00    0.173800627560099841E+01    0.220951844485702570E+00   -0.236369076032301102E+02
    0.448486513625399596E+03    0.704774544914413492E+00    0.149536757256548558E+01    0.107701196641974334E+00   -0.236691461332553459E+02
    0.355205682393201130E+03    0.611233669797743073E+00    0.169436245208981084E+01    0.104016713267229388E+00   -0.234596993285595019E+02
    0.543365400086771047E+03    0.554838918501330269E+00    0.114734265267022728E+01    0.140829967881925984E-01   -0.235089062667983661E+02
    0.327826408706462757E+03    0.544061795582351237E+00    0.217987451348000683E+01    0.613103158453806238E-01   -0.232427708950525087E+02
