    0.772333470872201833E+00   -0.130024538722932249E+03
    0.772333470872201833E+00   -0.130024538722932249E+03
    0.772330934957232818E+00   -0.130024538551781916E+03
    0.772330934957232818E+00   -0.130024538551781916E+03
    0.772322748324937525E+00   -0.130024531966892511E+03
    0.772322748324937525E+00   -0.130024531966892511E+03
    0.772305345166019119E+00   -0.130024512018376868E+03
    0.772305345166019119E+00   -0.130024512018376868E+03
    0.772301927789386000E+00   -0.130024511713131801E+03
    0.772065329548893065E+00   -0.130024450130287931E+03
    0.772065329548893065E+00   -0.130024450130287931E+03
    0.771942526639094462E+00   -0.130024423239205930E+03
    0.771942526639094462E+00   -0.130024423239205930E+03
    0.771996644046472502E+00   -0.130024421835550697E+03
    0.771996644046472502E+00   -0.130024421835550697E+03
    0.772077705407672510E+00   -0.130024419467263101E+03
    0.772077705407672510E+00   -0.130024419467263101E+03
    0.772091859033046668E+00   -0.130024415663318678E+03
    0.772091859033046668E+00   -0.130024415663318678E+03
    0.772087684649828909E+00   -0.130024413542542561E+03
    0.772087684649828909E+00   -0.130024413542542561E+03
    0.772140734483818258E+00   -0.130024412518530369E+03
    0.772140734483818258E+00   -0.130024412518530369E+03
    0.770649971578639570E+00   -0.130024409784169706E+03
    0.770649971578639570E+00   -0.130024409784169706E+03
    0.771933409448177121E+00   -0.130024394412290718E+03
    0.771933409448177121E+00   -0.130024394412290718E+03
    0.772278448025575548E+00   -0.130024389608128786E+03
    0.772278448025575548E+00   -0.130024389608128786E+03
    0.772265709077665008E+00   -0.130024388865212188E+03
    0.772265709077665008E+00   -0.130024388865212188E+03
    0.772250557528075254E+00   -0.130024387966541326E+03
    0.771868867500651867E+00   -0.130024380882635000E+03
    0.771868867500651867E+00   -0.130024380882635000E+03
    0.775238810763465125E+00   -0.130024377008831266E+03
    0.775238810763465125E+00   -0.130024377008831266E+03
    0.771812235872309516E+00   -0.130024375404801503E+03
    0.771812235872309516E+00   -0.130024375404801503E+03
    0.771812689162828525E+00   -0.130024375403210968E+03
    0.771812689162828525E+00   -0.130024375403210968E+03
    0.775266818865306684E+00   -0.130024373908634232E+03
    0.775266818865306684E+00   -0.130024373908634232E+03
    0.772189044748678222E+00   -0.130024350353569673E+03
    0.772187183631434015E+00   -0.130024350137799445E+03
    0.772187183631434015E+00   -0.130024350137799445E+03
    0.770591181967725802E+00   -0.130024347730315981E+03
    0.770591181967725802E+00   -0.130024347730315981E+03
    0.774728958265295531E+00   -0.130024345221326001E+03
    0.774728958265295531E+00   -0.130024345221326001E+03
    0.774714845744351344E+00   -0.130024344981323907E+03
    0.774714845744351344E+00   -0.130024344981323907E+03
    0.775176700828044352E+00   -0.130024342601327618E+03
    0.775176700828044352E+00   -0.130024342601327618E+03
    0.774627853927343568E+00   -0.130024341655940077E+03
    0.774627853927343568E+00   -0.130024341655940077E+03
    0.774613225317445697E+00   -0.130024341559197154E+03
    0.774613225317445697E+00   -0.130024341559197154E+03
    0.770609613879182254E+00   -0.130024338309204552E+03
    0.770609613879182254E+00   -0.130024338309204552E+03
    0.774753670020214225E+00   -0.130024333478218637E+03
    0.774753670020214225E+00   -0.130024333478218637E+03
    0.774734998332916480E+00   -0.130024332692266455E+03
    0.774744382702628465E+00   -0.130024331834035195E+03
    0.773529942044105301E+00   -0.130024325490127183E+03
    0.773529942044105301E+00   -0.130024325490127183E+03
    0.773532080616251672E+00   -0.130024322566303340E+03
    0.773532080616251672E+00   -0.130024322566303340E+03
    0.775271535598641703E+00   -0.130024318279109508E+03
    0.770905863781827905E+00   -0.130024310342403794E+03
    0.770905863781827905E+00   -0.130024310342403794E+03
    0.770909219501816123E+00   -0.130024310081969134E+03
    0.770909219501816123E+00   -0.130024310081969134E+03
    0.771642935859726986E+00   -0.130024309076655925E+03
    0.771642935859726986E+00   -0.130024309076655925E+03
    0.775389040604137603E+00   -0.130024308448346915E+03
    0.770930253552045475E+00   -0.130024305978958694E+03
    0.770930253552045475E+00   -0.130024305978958694E+03
    0.770954818016090226E+00   -0.130024303160317771E+03
    0.770954818016090226E+00   -0.130024303160317771E+03
    0.775330195045527359E+00   -0.130024301486163949E+03
    0.775371634019849987E+00   -0.130024299373230974E+03
    0.775371634019849987E+00   -0.130024299373230974E+03
    0.768165160833928939E+00   -0.130024293792198705E+03
    0.768165160833928939E+00   -0.130024293792198705E+03
    0.768175247404318973E+00   -0.130024292519840571E+03
    0.771700867986560790E+00   -0.130024290081360988E+03
    0.771700867986560790E+00   -0.130024290081360988E+03
    0.771688871201968496E+00   -0.130024289310463246E+03
    0.771686991816088685E+00   -0.130024289270754025E+03
    0.771686991816088685E+00   -0.130024289270754025E+03
    0.770964627131578206E+00   -0.130024285491043855E+03
    0.770964627131578206E+00   -0.130024285491043855E+03
    0.773734797388581308E+00   -0.130024283721181121E+03
    0.773734797388581308E+00   -0.130024283721181121E+03
    0.771764197353402959E+00   -0.130024281117602811E+03
    0.775469081205327537E+00   -0.130024279064368159E+03
    0.775469081205327537E+00   -0.130024279064368159E+03
    0.773751330503732682E+00   -0.130024277653236595E+03
    0.775837684038975794E+00   -0.130024274513016735E+03
    0.774822671798387486E+00   -0.130024273990517884E+03
    0.774822671798387486E+00   -0.130024273990517884E+03
    0.773760022948874138E+00   -0.130024273805947303E+03
    0.773760022948874138E+00   -0.130024273805947303E+03
    0.773765830091392104E+00   -0.130024271862139415E+03
    0.773765830091392104E+00   -0.130024271862139415E+03
    0.773859650952717693E+00   -0.130024271030241891E+03
    0.773875111927321613E+00   -0.130024266954165057E+03
    0.773875111927321613E+00   -0.130024266954165057E+03
    0.771005417569339602E+00   -0.130024262741030498E+03
    0.774845350025814117E+00   -0.130024261711309805E+03
    0.774845350025814117E+00   -0.130024261711309805E+03
    0.774844975518785839E+00   -0.130024261676193106E+03
    0.774844975518785839E+00   -0.130024261676193106E+03
    0.770753600413663476E+00   -0.130024260887562548E+03
    0.770753600413663476E+00   -0.130024260887562548E+03
    0.768037416258220529E+00   -0.130024259756497429E+03
    0.773894662792704136E+00   -0.130024259524285327E+03
    0.773894662792704136E+00   -0.130024259524285327E+03
    0.773894831777582781E+00   -0.130024259476781310E+03
    0.773894831777582781E+00   -0.130024259476781310E+03
    0.775845105672158364E+00   -0.130024258981184431E+03
    0.775845105672158364E+00   -0.130024258981184431E+03
    0.768030019744411763E+00   -0.130024258752698131E+03
    0.768030019744411763E+00   -0.130024258752698131E+03
    0.770576073806145345E+00   -0.130024258469294693E+03
    0.770576073806145345E+00   -0.130024258469294693E+03
    0.768042721013261542E+00   -0.130024258030803168E+03
    0.768042721013261542E+00   -0.130024258030803168E+03
    0.770973763732920814E+00   -0.130024257123834616E+03
    0.770973763732920814E+00   -0.130024257123834616E+03
    0.767372105664248738E+00   -0.130024256315582079E+03
    0.767372105664248738E+00   -0.130024256315582079E+03
    0.767539873395026606E+00   -0.130024254132851695E+03
    0.767539873395026606E+00   -0.130024254132851695E+03
    0.767400568198398969E+00   -0.130024254117562037E+03
    0.767400568198398969E+00   -0.130024254117562037E+03
    0.776136160431576183E+00   -0.130024253689988996E+03
    0.776136160431576183E+00   -0.130024253689988996E+03
    0.776144003385165648E+00   -0.130024253020891621E+03
    0.776144003385165648E+00   -0.130024253020891621E+03
    0.775904916043082316E+00   -0.130024251992809639E+03
    0.767287409986368685E+00   -0.130024251444134308E+03
    0.767287409986368685E+00   -0.130024251444134308E+03
    0.775867908354664571E+00   -0.130024250669548167E+03
    0.767737311673478806E+00   -0.130024249059129374E+03
    0.767426043810640612E+00   -0.130024248157067063E+03
    0.767426043810640612E+00   -0.130024248157067063E+03
    0.767749464883262789E+00   -0.130024246368000149E+03
    0.767749464883262789E+00   -0.130024246368000149E+03
    0.774137772659972523E+00   -0.130024243687587216E+03
    0.767761997167233923E+00   -0.130024243464632633E+03
    0.767761997167233923E+00   -0.130024243464632633E+03
    0.767768147988457716E+00   -0.130024243148829669E+03
    0.767338775680520446E+00   -0.130024242853948920E+03
    0.767338775680520446E+00   -0.130024242853948920E+03
    0.773942894274073367E+00   -0.130024241674629309E+03
    0.773942894274073367E+00   -0.130024241674629309E+03
    0.771529177066303751E+00   -0.130024241344730541E+03
    0.771529177066303751E+00   -0.130024241344730541E+03
    0.767713499648859710E+00   -0.130024241033590755E+03
    0.767713499648859710E+00   -0.130024241033590755E+03
    0.767712128359405499E+00   -0.130024240843344046E+03
    0.773947446589688615E+00   -0.130024240403491689E+03
    0.773947446589688615E+00   -0.130024240403491689E+03
    0.767656726438592174E+00   -0.130024238900208672E+03
    0.767656221767535674E+00   -0.130024238822186646E+03
    0.767656221767535674E+00   -0.130024238822186646E+03
    0.775818086360214765E+00   -0.130024236742339383E+03
    0.767207468720884300E+00   -0.130024236392149646E+03
    0.773983923345886393E+00   -0.130024236233949807E+03
    0.773983923345886393E+00   -0.130024236233949807E+03
    0.767274890262084508E+00   -0.130024234645162949E+03
    0.767310542646104099E+00   -0.130024234540735904E+03
    0.767310542646104099E+00   -0.130024234540735904E+03
    0.774389508748578481E+00   -0.130024234127007617E+03
    0.774389508748578481E+00   -0.130024234127007617E+03
    0.768206815606508719E+00   -0.130024233381700668E+03
    0.768206815606508719E+00   -0.130024233381700668E+03
    0.767669947221764626E+00   -0.130024233048292217E+03
    0.774097625049823601E+00   -0.130024233036482315E+03
    0.774394687906750256E+00   -0.130024232339163177E+03
    0.774394687906750256E+00   -0.130024232339163177E+03
    0.773976216265273687E+00   -0.130024231738839688E+03
    0.773976216265273687E+00   -0.130024231738839688E+03
    0.774166482962492020E+00   -0.130024230688618331E+03
    0.774166482962492020E+00   -0.130024230688618331E+03
    0.767908222751356839E+00   -0.130024229208031244E+03
    0.774361456116937852E+00   -0.130024228853738975E+03
    0.774361456116937852E+00   -0.130024228853738975E+03
    0.773843582545982400E+00   -0.130024228229595252E+03
    0.773843582545982400E+00   -0.130024228229595252E+03
    0.775729611358360160E+00   -0.130024227145548878E+03
    0.775136906030919115E+00   -0.130024226979746288E+03
    0.767982864970748746E+00   -0.130024226872216332E+03
    0.767982864970748746E+00   -0.130024226872216332E+03
    0.775798049092411346E+00   -0.130024226793700507E+03
    0.775798049092411346E+00   -0.130024226793700507E+03
    0.773560666463691704E+00   -0.130024226441948002E+03
    0.773560666463691704E+00   -0.130024226441948002E+03
    0.767956856142707700E+00   -0.130024225954839494E+03
    0.767956856142707700E+00   -0.130024225954839494E+03
    0.767898132755597596E+00   -0.130024225421431566E+03
    0.773590040146038715E+00   -0.130024224827548181E+03
    0.773590040146038715E+00   -0.130024224827548181E+03
    0.767895672198750101E+00   -0.130024224774735387E+03
    0.767895672198750101E+00   -0.130024224774735387E+03
    0.773596472989323547E+00   -0.130024223236102330E+03
    0.771511320616866336E+00   -0.130024220307666525E+03
    0.774428874232768849E+00   -0.130024218091705706E+03
    0.771477225634025321E+00   -0.130024215717610360E+03
    0.775679550729858724E+00   -0.130024215203913627E+03
    0.775679550729858724E+00   -0.130024215203913627E+03
    0.771422042936838248E+00   -0.130024211566836925E+03
    0.771412567223948575E+00   -0.130024210497145333E+03
    0.771412567223948575E+00   -0.130024210497145333E+03
    0.773550617572362431E+00   -0.130024210331606355E+03
    0.774058006088315320E+00   -0.130024209718558950E+03
    0.774058006088315320E+00   -0.130024209718558950E+03
    0.773553283651359558E+00   -0.130024209535096816E+03
    0.776184093905828432E+00   -0.130024207256146411E+03
    0.776184093905828432E+00   -0.130024207256146411E+03
    0.774465770025793976E+00   -0.130024206479413095E+03
    0.774465770025793976E+00   -0.130024206479413095E+03
    0.767854417052572513E+00   -0.130024205987954474E+03
    0.767854417052572513E+00   -0.130024205987954474E+03
    0.774544018017122915E+00   -0.130024205857391166E+03
    0.767853642919142043E+00   -0.130024205846027598E+03
    0.775622694168941473E+00   -0.130024205720243572E+03
    0.776189324444537587E+00   -0.130024204999073675E+03
    0.774918416575391844E+00   -0.130024204389012283E+03
    0.774552715029423244E+00   -0.130024202919516313E+03
    0.774910821390171756E+00   -0.130024202550037131E+03
    0.774910821390171756E+00   -0.130024202550037131E+03
    0.774560110401442348E+00   -0.130024201644254646E+03
    0.774602743687812456E+00   -0.130024200999613640E+03
    0.774909986741886159E+00   -0.130024200982645880E+03
    0.775576286125755687E+00   -0.130024200940303729E+03
    0.775576286125755687E+00   -0.130024200940303729E+03
    0.770698004388597591E+00   -0.130024200891179078E+03
    0.775577149318784298E+00   -0.130024200797085058E+03
    0.767838137414739053E+00   -0.130024199718976007E+03
    0.767840924523446544E+00   -0.130024199535246680E+03
    0.767840924523446544E+00   -0.130024199535246680E+03
    0.768226693023751239E+00   -0.130024198941920076E+03
    0.768230964459095333E+00   -0.130024197795080141E+03
    0.767485955800849662E+00   -0.130024197478649512E+03
    0.767485955800849662E+00   -0.130024197478649512E+03
    0.767490453310558318E+00   -0.130024197009271518E+03
    0.768243581235505735E+00   -0.130024194491159079E+03
    0.767494281731490813E+00   -0.130024194441286170E+03
    0.774052681922849151E+00   -0.130024193980864112E+03
    0.774052681922849151E+00   -0.130024193980864112E+03
    0.774042754061230243E+00   -0.130024192376206486E+03
    0.774042754061230243E+00   -0.130024192376206486E+03
    0.775720005481442376E+00   -0.130024192283915056E+03
    0.770680787341403550E+00   -0.130024189878579421E+03
    0.770680787341403550E+00   -0.130024189878579421E+03
    0.775711949013175195E+00   -0.130024186272643931E+03
    0.775711949013175195E+00   -0.130024186272643931E+03
    0.775651871463456710E+00   -0.130024185430904396E+03
    0.774449190097263984E+00   -0.130024185111822817E+03
    0.771333997247918512E+00   -0.130024182047589136E+03
    0.771333997247918512E+00   -0.130024182047589136E+03
    0.774956101345113835E+00   -0.130024181490921364E+03
    0.771100038825259126E+00   -0.130024181218225294E+03
    0.774177594860050999E+00   -0.130024180091086237E+03
    0.776330542138946922E+00   -0.130024175991942968E+03
    0.776335414155683856E+00   -0.130024174897698231E+03
    0.776335414155683856E+00   -0.130024174897698231E+03
    0.776338903465069397E+00   -0.130024174761205302E+03
    0.776366691201494818E+00   -0.130024173389550270E+03
    0.776366691201494818E+00   -0.130024173389550270E+03
    0.776366718604448169E+00   -0.130024173387875862E+03
    0.774960129579247425E+00   -0.130024171849714605E+03
    0.774960129579247425E+00   -0.130024171849714605E+03
    0.775663588509567514E+00   -0.130024170503276480E+03
    0.776382184146210963E+00   -0.130024168682276411E+03
    0.776382184146210963E+00   -0.130024168682276411E+03
    0.776205045747197842E+00   -0.130024168670215147E+03
    0.776205045747197842E+00   -0.130024168670215147E+03
    0.771383344257844605E+00   -0.130024168256913185E+03
    0.771383344257844605E+00   -0.130024168256913185E+03
    0.774269103597192698E+00   -0.130024167321295323E+03
    0.776246540669216833E+00   -0.130024167194201084E+03
    0.774286399427877359E+00   -0.130024166171399486E+03
    0.774286399427877359E+00   -0.130024166171399486E+03
    0.771218097598769470E+00   -0.130024164468449328E+03
    0.771218097598769470E+00   -0.130024164468449328E+03
    0.776397219233249336E+00   -0.130024162831240972E+03
    0.775085149844683019E+00   -0.130024161218624897E+03
    0.775085149844683019E+00   -0.130024161218624897E+03
    0.771203117317637799E+00   -0.130024160256486766E+03
    0.775090509405630512E+00   -0.130024159972017685E+03
    0.774235614904693281E+00   -0.130024159168311485E+03
    0.776416126129229500E+00   -0.130024154683546385E+03
    0.776416126129229500E+00   -0.130024154683546385E+03
    0.776266920473936306E+00   -0.130024152986443312E+03
    0.776266920473936306E+00   -0.130024152986443312E+03
    0.776092846638532730E+00   -0.130024149966830464E+03
    0.768285685873235313E+00   -0.130024142653174124E+03
    0.768306266632945656E+00   -0.130024142245989850E+03
    0.771327596374745905E+00   -0.130024141996760790E+03
    0.771327596374745905E+00   -0.130024141996760790E+03
    0.771325110698524607E+00   -0.130024141770758831E+03
    0.776280222324178926E+00   -0.130024140260076251E+03
    0.768315185152451674E+00   -0.130024137566273424E+03
    0.771309030873892132E+00   -0.130024134240967442E+03
    0.771309030873892132E+00   -0.130024134240967442E+03
    0.767562818801247770E+00   -0.130024130324097484E+03
    0.767596731097733520E+00   -0.130024125812503854E+03
    0.775982512072480923E+00   -0.130024125425603131E+03
    0.775982512072480923E+00   -0.130024125425603131E+03
    0.771200283395551689E+00   -0.130024121070776118E+03
    0.771200283395551689E+00   -0.130024121070776118E+03
    0.775022779581205912E+00   -0.130024111935872696E+03
    0.775022779581205912E+00   -0.130024111935872696E+03
    0.775009451469799604E+00   -0.130024109961994441E+03
    0.775965555353343217E+00   -0.130024109912523471E+03
    0.775007910053677085E+00   -0.130024109879461719E+03
    0.771127176883333765E+00   -0.130024109012747090E+03
    0.771127176883333765E+00   -0.130024109012747090E+03
    0.775970067706318267E+00   -0.130024108303967125E+03
    0.770256674116918560E+00   -0.130024096849295660E+03
    0.772376636232581681E+00   -0.130024090750750247E+03
    0.772376636232581681E+00   -0.130024090750750247E+03
    0.772369460084188941E+00   -0.130024088341843992E+03
    0.768011682601502099E+00   -0.130024081484383544E+03
    0.767135330446349295E+00   -0.130024064939333243E+03
    0.767135330446349295E+00   -0.130024064939333243E+03
    0.772400275846952922E+00   -0.130024064166689129E+03
    0.772401897188355946E+00   -0.130024063915799360E+03
    0.772396987492558140E+00   -0.130024063909930106E+03
    0.772396987492558140E+00   -0.130024063909930106E+03
    0.768352793422262370E+00   -0.130024056155147179E+03
    0.772405038251876785E+00   -0.130024055641391527E+03
    0.772405038251876785E+00   -0.130024055641391527E+03
    0.767110169968070466E+00   -0.130024054453229496E+03
    0.766328049718542514E+00   -0.130024043533755048E+03
    0.772477814786865502E+00   -0.130024040687624733E+03
    0.772532796529061816E+00   -0.130024039221763871E+03
    0.772414076659303395E+00   -0.130024038596573519E+03
    0.772416805536735196E+00   -0.130024038133028114E+03
    0.772449034835173021E+00   -0.130024034356418497E+03
    0.772451657526160851E+00   -0.130024034029481641E+03
    0.772451657526160851E+00   -0.130024034029481641E+03
    0.772473577605213180E+00   -0.130024031424509644E+03
    0.770367500794339799E+00   -0.130024030743597336E+03
    0.770367500794339799E+00   -0.130024030743597336E+03
    0.770398026542514769E+00   -0.130024030155263290E+03
    0.776469100605097329E+00   -0.130024022563792528E+03
    0.776880587918854171E+00   -0.130023977831124512E+03
    0.776882605461290066E+00   -0.130023976781920709E+03
    0.776544313719349399E+00   -0.130023954089341828E+03
    0.776544313719349399E+00   -0.130023954089341828E+03
    0.776900942604199729E+00   -0.130023917483819332E+03
    0.776984640357864187E+00   -0.130023898145882299E+03
    0.776984640357864187E+00   -0.130023898145882299E+03
    0.777014155622136604E+00   -0.130023877394898705E+03
    0.777031759736045879E+00   -0.130023869955453421E+03
    0.778971320217674901E+00   -0.130023837200120767E+03
    0.778971320217674901E+00   -0.130023837200120767E+03
    0.776765258022775629E+00   -0.130023835580543050E+03
    0.780168965149411031E+00   -0.130023827652208070E+03
    0.780261413579492635E+00   -0.130023821210258973E+03
    0.780261447833184296E+00   -0.130023821195870198E+03
    0.780272362201121616E+00   -0.130023816768768313E+03
    0.776667440897428563E+00   -0.130023813477306533E+03
    0.776667440897428563E+00   -0.130023813477306533E+03
    0.780286316013294678E+00   -0.130023812798198435E+03
    0.776689069820102218E+00   -0.130023809297915307E+03
    0.780226815067385004E+00   -0.130023804525414789E+03
    0.780191862600463915E+00   -0.130023803072903718E+03
    0.780310521955367209E+00   -0.130023801124500324E+03
    0.780310521955367209E+00   -0.130023801124500324E+03
    0.780316470679810470E+00   -0.130023799153391678E+03
    0.780316470679810470E+00   -0.130023799153391678E+03
    0.780323966529324897E+00   -0.130023796038786656E+03
    0.778912349062195530E+00   -0.130023795875804922E+03
    0.778915077939627332E+00   -0.130023795068767754E+03
    0.778915077939627332E+00   -0.130023795068767754E+03
    0.780336748865244845E+00   -0.130023790299537779E+03
    0.776628385980042246E+00   -0.130023788356541331E+03
    0.776632591191582455E+00   -0.130023787582452201E+03
    0.776615958740725310E+00   -0.130023783034701722E+03
    0.781922798689750120E+00   -0.130023779649050113E+03
    0.781922678801829418E+00   -0.130023779645220600E+03
    0.770423780751448239E+00   -0.130024026526738908E+03
    0.770555473636009847E+00   -0.130024025456286665E+03
    0.770496954629259712E+00   -0.130024012883239607E+03
    0.770336973904375055E+00   -0.130024000105948517E+03
    0.770337375814356684E+00   -0.130024000095082016E+03
    0.770294372935449889E+00   -0.130023997494292587E+03
    0.770306291731008397E+00   -0.130023996368703337E+03
    0.770312182224175968E+00   -0.130023996083101849E+03
    0.770315468294991312E+00   -0.130023994711979356E+03
    0.770288759549851654E+00   -0.130023994700770601E+03
    0.770291579770461032E+00   -0.130023994570791018E+03
    0.770441966792876021E+00   -0.130023980632425975E+03
    0.770475981093885598E+00   -0.130023978912027417E+03
    0.770475981093885598E+00   -0.130023978912027417E+03
    0.770478353732924615E+00   -0.130023978824971152E+03
    0.768573360935080774E+00   -0.130023964450501381E+03
    0.768700283422190545E+00   -0.130023958544269931E+03
    0.768674510149480850E+00   -0.130023944322870932E+03
    0.768601917095988019E+00   -0.130023942521556137E+03
    0.768648804690856391E+00   -0.130023942251232029E+03
    0.768640238984373947E+00   -0.130023941865552615E+03
    0.768630289655066967E+00   -0.130023941400338884E+03
    0.768621795013200493E+00   -0.130023941364353561E+03
    0.769771413485746958E+00   -0.130023913728787136E+03
    0.769771436321541436E+00   -0.130023913725206341E+03
    0.769778494865592910E+00   -0.130023913681234092E+03
    0.769787599496823405E+00   -0.130023912499806926E+03
    0.770058863615017519E+00   -0.130023911442879836E+03
    0.770045835794307743E+00   -0.130023909909570705E+03
    0.770055125395472939E+00   -0.130023909552475118E+03
    0.769960267789081221E+00   -0.130023909431084945E+03
    0.770039421219658515E+00   -0.130023905598927115E+03
    0.768676700897305332E+00   -0.130023904633393045E+03
    0.769124290706810210E+00   -0.130023903401059556E+03
    0.768714558077275067E+00   -0.130023902751616873E+03
    0.768972481369406657E+00   -0.130023899208680007E+03
    0.768546914801576775E+00   -0.130023898241106593E+03
    0.769860074312044396E+00   -0.130023898029719959E+03
    0.769865755003185104E+00   -0.130023896508955659E+03
    0.768944536226547126E+00   -0.130023894939792228E+03
    0.768995604240126474E+00   -0.130023892064024722E+03
    0.768469636189720418E+00   -0.130023888332683015E+03
    0.768476328285258692E+00   -0.130023887987820274E+03
    0.768442753892543240E+00   -0.130023887918949185E+03
    0.769990472694344730E+00   -0.130023886808009365E+03
    0.768436432617042753E+00   -0.130023884928304199E+03
    0.768437969793614783E+00   -0.130023884570754717E+03
    0.769999221087182550E+00   -0.130023881943426346E+03
    0.769974767376740643E+00   -0.130023878770521492E+03
    0.769920270895175451E+00   -0.130023876778992644E+03
    0.769915404587387053E+00   -0.130023876236982090E+03
    0.768381455769613697E+00   -0.130023866399134590E+03
    0.769407141460508259E+00   -0.130023820177068217E+03
    0.769381760616813404E+00   -0.130023735354334462E+03
    0.769150704623623449E+00   -0.130023852251492769E+03
    0.769470307551420429E+00   -0.130023845437618490E+03
    0.769495205418063599E+00   -0.130023859583698368E+03
    0.770171504596304457E+00   -0.130023802990453305E+03
    0.768777455847602931E+00   -0.130023795257092672E+03
    0.769188245527840597E+00   -0.130023808047272382E+03
    0.769719108098655291E+00   -0.130023755153636898E+03
    0.768538821796038607E+00   -0.130023870758667783E+03
    0.769524278809714191E+00   -0.130023860619103289E+03
    0.769913365350946455E+00   -0.130023876023291791E+03
    0.768398220668078280E+00   -0.130023861627928682E+03
    0.769540026373538022E+00   -0.130023807198049099E+03
    0.769359156605718630E+00   -0.130023740360566819E+03
    0.768839150171565455E+00   -0.130023814413291007E+03
    0.769338727704041214E+00   -0.130023713133802573E+03
    0.769691038340168943E+00   -0.130023765955645217E+03
    0.768816470802349050E+00   -0.130023782879949692E+03
    0.769154051209293921E+00   -0.130023851627247296E+03
    0.768808681512876513E+00   -0.130023781111683547E+03
    0.770218015400565115E+00   -0.130023824873362798E+03
    0.769039809438818889E+00   -0.130023834709761587E+03
    0.768803092051482451E+00   -0.130023780681619371E+03
    0.768734916793513468E+00   -0.130023792992096190E+03
    0.769715015304291206E+00   -0.130023756719351070E+03
    0.769162633325769174E+00   -0.130023857855333915E+03
    0.769317402175052067E+00   -0.130023636341020563E+03
    0.769689659574363527E+00   -0.130023766083725775E+03
    0.769414360866739533E+00   -0.130023817764694513E+03
    0.768753856906083777E+00   -0.130023794183936587E+03
    0.769095977954311172E+00   -0.130023870230661572E+03
    0.769672242778217552E+00   -0.130023763827671530E+03
    0.769546496110005918E+00   -0.130023806857973938E+03
    0.769173876353814845E+00   -0.130023856975282655E+03
    0.770096461041680391E+00   -0.130023830614399458E+03
    0.769046647610300393E+00   -0.130023833516648239E+03
    0.769905072019704928E+00   -0.130023875383611596E+03
    0.769067603007066225E+00   -0.130023830854985164E+03
    0.768747680311913761E+00   -0.130023792964795547E+03
    0.768904046638050676E+00   -0.130023849532024769E+03
    0.769360536651103932E+00   -0.130023740344078874E+03
    0.768730594897196085E+00   -0.130023792434418397E+03
    0.769437246820437015E+00   -0.130023816033684966E+03
    0.768830862573095519E+00   -0.130023813863962289E+03
    0.769582838383709222E+00   -0.130023841444024924E+03
    0.767059963190484861E+00   -0.130024027682641133E+03
    0.767082139030434540E+00   -0.130024024630424805E+03
    0.767082139030434540E+00   -0.130024024630424805E+03
    0.767077725185754233E+00   -0.130024022665157986E+03
    0.767077725185754233E+00   -0.130024022665157986E+03
    0.766372990561937639E+00   -0.130024018827290774E+03
    0.766373496374783802E+00   -0.130024018782967374E+03
    0.766852116356941393E+00   -0.130024018428414053E+03
    0.766321651128949455E+00   -0.130024018424198488E+03
    0.766320268421597950E+00   -0.130024018405094068E+03
    0.766391895755077268E+00   -0.130024011887949257E+03
    0.766399730135399748E+00   -0.130024011614759473E+03
    0.766870760641285898E+00   -0.130024005578127372E+03
    0.766871542767244341E+00   -0.130024005399395151E+03
    0.766914530611444767E+00   -0.130024005023712846E+03
    0.766938334040518810E+00   -0.130024003867539648E+03
    0.766897334655238572E+00   -0.130024003204704968E+03
    0.766675918792657951E+00   -0.130023954070535240E+03
    0.766999097805859287E+00   -0.130023989289956660E+03
    0.766490086806713600E+00   -0.130023924476166229E+03
    0.766444158315210400E+00   -0.130023907594326687E+03
    0.767020466400476608E+00   -0.130023971637264822E+03
    0.766587931335013906E+00   -0.130023955066738324E+03
    0.766763136684030400E+00   -0.130023910845927276E+03
    0.766445785365561960E+00   -0.130023907510046854E+03
    0.766992708350583863E+00   -0.130023989790221094E+03
    0.766983186966105457E+00   -0.130023991477520838E+03
    0.767024421560068115E+00   -0.130023968808045140E+03
    0.767018279873162068E+00   -0.130023972662521885E+03
    0.766962476042367114E+00   -0.130023995140779050E+03
    0.766705440907668678E+00   -0.130023908315537000E+03
    0.766983394771834526E+00   -0.130023991440281065E+03
    0.766756043886287264E+00   -0.130023910110998855E+03
    0.766573008143368262E+00   -0.130023945902597291E+03
    0.766560939426023547E+00   -0.130023946348222069E+03
    0.766430479674359955E+00   -0.130023917321556951E+03
    0.766571492988409209E+00   -0.130023946087822111E+03
    0.766434496490596362E+00   -0.130023918200558768E+03
    0.766497438790723296E+00   -0.130023931484360332E+03
    0.766674056533623971E+00   -0.130023953540496336E+03
    0.766547767354233245E+00   -0.130023966925520483E+03
    0.766758921688960426E+00   -0.130023910549177828E+03
    0.766792599552077681E+00   -0.130023895295209286E+03
    0.766685137731899724E+00   -0.130023950893879061E+03
    0.766464851215689413E+00   -0.130023915471700036E+03
    0.766771435901438148E+00   -0.130023902640912468E+03
    0.766762620356627234E+00   -0.130023910785500760E+03
    0.766433891744443097E+00   -0.130023918244547900E+03
    0.766621481502373969E+00   -0.130023951715203253E+03
    0.766722187374336395E+00   -0.130023905053564249E+03
    0.766966877724307938E+00   -0.130023994900688052E+03
    0.766723157974313785E+00   -0.130023905255962688E+03
    0.766485112161503723E+00   -0.130023924371649912E+03
    0.766807320359906064E+00   -0.130023899752184491E+03
    0.766725441522398965E+00   -0.130023905968454869E+03
    0.772520872819011717E+00   -0.130024028100502761E+03
    0.772503573562957846E+00   -0.130024025083536230E+03
    0.772504799845117551E+00   -0.130024025051956954E+03
    0.772498840844566770E+00   -0.130024015081787240E+03
    0.772492988030459959E+00   -0.130024011176975932E+03
    0.772619692435733141E+00   -0.130024003988410300E+03
    0.772627430344668298E+00   -0.130024003591733759E+03
    0.772627567359434830E+00   -0.130024003586255674E+03
    0.772609113684724513E+00   -0.130023978094291920E+03
    0.773432124918758346E+00   -0.130023977293490020E+03
    0.773413381298708180E+00   -0.130023976221147819E+03
    0.773414646401718420E+00   -0.130023976048790246E+03
    0.773306359064635296E+00   -0.130023976033136279E+03
    0.773443723218738222E+00   -0.130023975649998562E+03
    0.772587744017566580E+00   -0.130023972862830874E+03
    0.772900545303999209E+00   -0.130023880308194236E+03
    0.773221223797712853E+00   -0.130023958291214370E+03
    0.773266204603748175E+00   -0.130023963905593178E+03
    0.772588874389389724E+00   -0.130023970080046411E+03
    0.772927059944886419E+00   -0.130023884767014096E+03
    0.772890822964529933E+00   -0.130023881953883802E+03
    0.772971789557183153E+00   -0.130023872617937627E+03
    0.772719627581011537E+00   -0.130023950676389603E+03
    0.773124546178506900E+00   -0.130023921015246970E+03
    0.773229050766246262E+00   -0.130023957398068063E+03
    0.772767871622067726E+00   -0.130023947753150594E+03
    0.772995713477194868E+00   -0.130023924290369109E+03
    0.772713981430844132E+00   -0.130023951207837854E+03
    0.772844815689536002E+00   -0.130023906234272260E+03
    0.772686717775900256E+00   -0.130023954440021498E+03
    0.772602892141787123E+00   -0.130023961885325889E+03
    0.773281807737966842E+00   -0.130023963758216098E+03
    0.773178623881429439E+00   -0.130023911202609924E+03
    0.773147755113962609E+00   -0.130023920750754371E+03
    0.772597843344391966E+00   -0.130023962273058203E+03
    0.773178046812011854E+00   -0.130023911275425917E+03
    0.773014291674471776E+00   -0.130023899469687024E+03
    0.773380609897157068E+00   -0.130023949548266899E+03
    0.772804658901382613E+00   -0.130023904988912534E+03
    0.773179374947051135E+00   -0.130023911107771767E+03
    0.772871958060965092E+00   -0.130023882091724857E+03
    0.772825138623882801E+00   -0.130023906078500005E+03
    0.781942332524744543E+00   -0.130023746841551826E+03
    0.781929569502792021E+00   -0.130023740606477674E+03
    0.781929569502792021E+00   -0.130023740606477674E+03
    0.782522004226069323E+00   -0.130023708130743870E+03
    0.781378329410837291E+00   -0.130023703498017142E+03
    0.781381010333100812E+00   -0.130023702990250058E+03
    0.782505237044025193E+00   -0.130023698988306194E+03
    0.781326189583255060E+00   -0.130023697144770466E+03
    0.781413138012253539E+00   -0.130023696704639434E+03
    0.781361642154073555E+00   -0.130023695934832830E+03
    0.782528769330162688E+00   -0.130023695824599088E+03
    0.782528769330162688E+00   -0.130023695824599088E+03
    0.781353101566964914E+00   -0.130023694909402735E+03
    0.781431943288948494E+00   -0.130023694152238733E+03
    0.781901720109721698E+00   -0.130023693589407969E+03
    0.781889518944769435E+00   -0.130023692283988055E+03
    0.781889518944769435E+00   -0.130023692283988055E+03
    0.781317822548183938E+00   -0.130023688996508440E+03
    0.781499981396597709E+00   -0.130023687364222042E+03
    0.781496770683903885E+00   -0.130023687077713646E+03
    0.781496770683903885E+00   -0.130023687077713646E+03
    0.782470281151735003E+00   -0.130023678776969206E+03
    0.781238183856975521E+00   -0.130023678073152070E+03
    0.781548619355107443E+00   -0.130023677406192007E+03
    0.781247567329785619E+00   -0.130023677393024400E+03
    0.781255921560282007E+00   -0.130023676965071331E+03
    0.781255921560282007E+00   -0.130023676965071331E+03
    0.781834539486152558E+00   -0.130023676901368304E+03
    0.780408940803896778E+00   -0.130023676829171905E+03
    0.781259416578616084E+00   -0.130023676507565767E+03
    0.781562380728421213E+00   -0.130023672993290035E+03
    0.780444702799729551E+00   -0.130023668698913127E+03
    0.781514554058799216E+00   -0.130023666941808017E+03
    0.781863100214218787E+00   -0.130023656497611796E+03
    0.784219021168131358E+00   -0.130023656238957699E+03
    0.784214909583348163E+00   -0.130023654785010166E+03
    0.784207589569450692E+00   -0.130023653848756851E+03
    0.784203297581891667E+00   -0.130023653501920336E+03
    0.781275795552155317E+00   -0.130023650622630981E+03
    0.781277636117184593E+00   -0.130023650208175013E+03
    0.781300509590653447E+00   -0.130023649257951860E+03
    0.784184194766689102E+00   -0.130023645171598162E+03
    0.781766012692503121E+00   -0.130023641586438032E+03
    0.784157550310752183E+00   -0.130023639680304598E+03
    0.782558487833005301E+00   -0.130023628779507305E+03
    0.782002269537869554E+00   -0.130023626071313231E+03
    0.782000141241830815E+00   -0.130023626024973964E+03
    0.781998710579311140E+00   -0.130023625994588031E+03
    0.781982189515168513E+00   -0.130023625311101682E+03
    0.781586516497717376E+00   -0.130023623497944470E+03
    0.780699782048636881E+00   -0.130023621000122574E+03
    0.780630171696542807E+00   -0.130023620828697517E+03
    0.781442146321890019E+00   -0.130023619965271564E+03
    0.781432715138799527E+00   -0.130023619806539784E+03
    0.781434425341588690E+00   -0.130023619693392277E+03
    0.780636830614192201E+00   -0.130023619412894845E+03
    0.782554998620862752E+00   -0.130023617137239086E+03
    0.782552512369615649E+00   -0.130023616963461507E+03
    0.780696946984761109E+00   -0.130023614859287903E+03
    0.780729855648082616E+00   -0.130023613611396740E+03
    0.782036324558070373E+00   -0.130023609994464039E+03
    0.780358793399376749E+00   -0.130023608475630226E+03
    0.782078417777902768E+00   -0.130023607957066616E+03
    0.780599944010338609E+00   -0.130023607434469739E+03
    0.780763129365123487E+00   -0.130023605964777545E+03
    0.784115077199144750E+00   -0.130023605462658651E+03
    0.780770417062372046E+00   -0.130023604552773349E+03
    0.780773462881084290E+00   -0.130023604145956426E+03
    0.780775984035780746E+00   -0.130023603836913907E+03
    0.780778777912232713E+00   -0.130023603469070480E+03
    0.780782604049585882E+00   -0.130023602970860281E+03
    0.780666367572469322E+00   -0.130023602717846217E+03
    0.780670213120247647E+00   -0.130023602045263289E+03
    0.780790153774998941E+00   -0.130023601993605610E+03
    0.780670812559850824E+00   -0.130023601946700239E+03
    0.781630884162672790E+00   -0.130023599864271830E+03
    0.781645196840428214E+00   -0.130023599032969685E+03
    0.781645310589192954E+00   -0.130023599022948019E+03
    0.781640283375651168E+00   -0.130023598856042895E+03
    0.781656898401605904E+00   -0.130023592567838648E+03
    0.780555974775141825E+00   -0.130023592269427240E+03
    0.782022871991584601E+00   -0.130023590212918151E+03
    0.784381213539704469E+00   -0.130023584959214276E+03
    0.784306789402149040E+00   -0.130023581910655423E+03
    0.784296371634712441E+00   -0.130023581833866530E+03
    0.784333576131102439E+00   -0.130023580792921678E+03
    0.784281761371477870E+00   -0.130023580379023485E+03
    0.780799195396013057E+00   -0.130023579719625531E+03
    0.784272488897158393E+00   -0.130023579389617112E+03
    0.782448850900472781E+00   -0.130023576780364067E+03
    0.782447645122149482E+00   -0.130023576430623791E+03
    0.782416116930978456E+00   -0.130023575939698105E+03
    0.780149461487450124E+00   -0.130023572068337359E+03
    0.780947171592065281E+00   -0.130023571599356160E+03
    0.782394518836627362E+00   -0.130023571140663307E+03
    0.781722399757935560E+00   -0.130023569741531787E+03
    0.784339311785709925E+00   -0.130023568419434639E+03
    0.782382175145677872E+00   -0.130023564723109700E+03
    0.780365367262204956E+00   -0.130023563667994267E+03
    0.780914888381222694E+00   -0.130023563325248205E+03
    0.780969813033932980E+00   -0.130023563185682292E+03
    0.782356016486765116E+00   -0.130023560584956556E+03
    0.782353061593669241E+00   -0.130023560172762899E+03
    0.782347507928469188E+00   -0.130023559980029177E+03
    0.780995108633889323E+00   -0.130023556263821945E+03
    0.780988222109594954E+00   -0.130023556227063182E+03
    0.784241249459163847E+00   -0.130023552626408076E+03
    0.781215160809053288E+00   -0.130023551402997441E+03
    0.781197326130717018E+00   -0.130023550269279184E+03
    0.780882356709667103E+00   -0.130023549590821233E+03
    0.780882624515765400E+00   -0.130023549568836529E+03
    0.783980657720730778E+00   -0.130023542707833229E+03
    0.783925760470973731E+00   -0.130023539944808817E+03
    0.784056193211082331E+00   -0.130023537461950070E+03
    0.783433594295573243E+00   -0.130023029808320189E+03
    0.783142766752309760E+00   -0.130023118839460750E+03
    0.783080268608383978E+00   -0.130022853027692634E+03
    0.783169303087201674E+00   -0.130023123273305259E+03
    0.783080619137828116E+00   -0.130022852987262979E+03
    0.783114518874626908E+00   -0.130023109896420692E+03
    0.782991226429537890E+00   -0.130022951086939258E+03
    0.783032734732628133E+00   -0.130022937461541972E+03
    0.783069363711647592E+00   -0.130022853806540127E+03
    0.783007014513585564E+00   -0.130022945174540951E+03
    0.783075772166330064E+00   -0.130022853373598934E+03
    0.783173482329116877E+00   -0.130023123757581772E+03
    0.783016105028112586E+00   -0.130022939129577622E+03
    0.782644569643606069E+00   -0.130023433568623972E+03
    0.782866977721453750E+00   -0.130023128415634403E+03
    0.782795427468624627E+00   -0.130023159512348911E+03
    0.782650181540081813E+00   -0.130023433442793362E+03
    0.782700060624017646E+00   -0.130023471365317278E+03
    0.782694419041009115E+00   -0.130023470410603124E+03
    0.782743050148780539E+00   -0.130023494094442810E+03
    0.782670021278263572E+00   -0.130023361978843440E+03
    0.782696583874318952E+00   -0.130023469768003622E+03
    0.782661146146766851E+00   -0.130023390983760180E+03
    0.782682338905767216E+00   -0.130023470141066952E+03
    0.782619439993649690E+00   -0.130023437608665120E+03
    0.782796301198423583E+00   -0.130023159563475076E+03
    0.782680651836938912E+00   -0.130023470122507604E+03
    0.782653156486553647E+00   -0.130023433501552176E+03
    0.782761708314829607E+00   -0.130023497100525390E+03
    0.782798786252955736E+00   -0.130023159709652589E+03
    0.782728743467894228E+00   -0.130023504458922332E+03
    0.782809035587225810E+00   -0.130023111252942385E+03
    0.783193904296617061E+00   -0.130023097112886035E+03
    0.783353471485523256E+00   -0.130023007272554366E+03
    0.783320151777902485E+00   -0.130023112483401036E+03
    0.783327404426206519E+00   -0.130022997359266071E+03
    0.783379933604083423E+00   -0.130023035887192378E+03
    0.783377513649005985E+00   -0.130023035623052806E+03
    0.783286450102539944E+00   -0.130023109786802593E+03
    0.783265300251662633E+00   -0.130023079007596436E+03
    0.783347163876505714E+00   -0.130023006598219752E+03
    0.782929574362027370E+00   -0.130023067200569017E+03
    0.783387314365999843E+00   -0.130023037193053142E+03
    0.782909921682082288E+00   -0.130023076805050067E+03
    0.783466286018847824E+00   -0.130022988428208208E+03
    0.783458452587908361E+00   -0.130022981885593026E+03
    0.783459697301592151E+00   -0.130022982020579207E+03
    0.782179751615588614E+00   -0.130023405686588973E+03
    0.782224806637955683E+00   -0.130023376774757594E+03
    0.782289024317200377E+00   -0.130023419482234829E+03
    0.782238940852904574E+00   -0.130023374510770196E+03
    0.782184587095054451E+00   -0.130023406120986010E+03
    0.782098988261505590E+00   -0.130023534121773423E+03
    0.782186270093102376E+00   -0.130023406794410079E+03
    0.782251529245222121E+00   -0.130023377374917686E+03
    0.782095083541208824E+00   -0.130023533824754651E+03
    0.782267792609353085E+00   -0.130023416003932198E+03
    0.782047434984462164E+00   -0.130023472232606537E+03
    0.784718001544583266E+00   -0.130023458379636565E+03
    0.785280949548331053E+00   -0.130023380968184085E+03
    0.785348108477895490E+00   -0.130023384479438477E+03
    0.784652502777272276E+00   -0.130023488584038660E+03
    0.784745638564765646E+00   -0.130023424130973410E+03
    0.785070771180178650E+00   -0.130023434738111689E+03
    0.784571924393123954E+00   -0.130023340296909225E+03
    0.784643169788097783E+00   -0.130023410835392440E+03
    0.784570209424963916E+00   -0.130023340512652084E+03
    0.785051592538244969E+00   -0.130023421142395989E+03
    0.784974134665402556E+00   -0.130023423462433897E+03
    0.785335860499564720E+00   -0.130023380159620586E+03
    0.784448615670479299E+00   -0.130023491130590259E+03
    0.784796276938865556E+00   -0.130023490125432716E+03
    0.784432385129603782E+00   -0.130023513211954622E+03
    0.784938964116644988E+00   -0.130023343358422210E+03
    0.784552489990293034E+00   -0.130023339978938168E+03
    0.784571956363236178E+00   -0.130023340296833510E+03
    0.784894079220946117E+00   -0.130023268210713354E+03
    0.785263644583328646E+00   -0.130023358242408477E+03
    0.785231789791919099E+00   -0.130023418393337693E+03
    0.785122708910980349E+00   -0.130023486849628455E+03
    0.784572739649415873E+00   -0.130023340149498438E+03
    0.784914563401502785E+00   -0.130023252093487315E+03
    0.784471177503608397E+00   -0.130023476220927648E+03
    0.784871450672038118E+00   -0.130023242180274508E+03
    0.785063949529110738E+00   -0.130023418639191675E+03
    0.784814798140868630E+00   -0.130023464835519349E+03
    0.784411135213565647E+00   -0.130023395658216714E+03
    0.784928862156222151E+00   -0.130023345024244009E+03
    0.784555472591775382E+00   -0.130023338772191266E+03
    0.784544137648307771E+00   -0.130023449343669057E+03
    0.785070050235759154E+00   -0.130023434692436581E+03
    0.784440477335877739E+00   -0.130023496591147932E+03
    0.784770294419695813E+00   -0.130023433770574371E+03
    0.784408687916992586E+00   -0.130023396392726568E+03
    0.785209731465191130E+00   -0.130023365038332258E+03
    0.784557229066533246E+00   -0.130023338716275873E+03
    0.785145851475674172E+00   -0.130023476214925950E+03
    0.784713744291726245E+00   -0.130023455286069066E+03
    0.784729606427139625E+00   -0.130023465782305749E+03
    0.785029640732235356E+00   -0.130023423387855729E+03
    0.785027784127836026E+00   -0.130023402629143391E+03
    0.784067562761719850E+00   -0.130023535428286721E+03
    0.783734745901488505E+00   -0.130023508223043791E+03
    0.783775294279829171E+00   -0.130023534127356413E+03
    0.783761491183899262E+00   -0.130023514479279925E+03
    0.783687722433643374E+00   -0.130023505025039867E+03
    0.783553597536977287E+00   -0.130023098905164431E+03
    0.783886960172694991E+00   -0.130023523537374672E+03
    0.783555109266567129E+00   -0.130023084342813661E+03
    0.783651905631904122E+00   -0.130023125143967604E+03
    0.783646704779727643E+00   -0.130023122966749781E+03
    0.783774894653427090E+00   -0.130023522160741265E+03
    0.784042602044374148E+00   -0.130023532894729328E+03
    0.783614937879269946E+00   -0.130023141178780634E+03
    0.783709393667089915E+00   -0.130023494119578544E+03
    0.783663090228592929E+00   -0.130023125309737679E+03
    0.783845407501165159E+00   -0.130023499942460290E+03
    0.783574240638466479E+00   -0.130023121052778151E+03
    0.784020343850191703E+00   -0.130023531003609293E+03
    0.783564181187635933E+00   -0.130023120322428326E+03
    0.784044955510517450E+00   -0.130023533560646740E+03
    0.783530807679688746E+00   -0.130023074297286939E+03
    0.783545382009464664E+00   -0.130023075190852808E+03
    0.782762351901422626E+00   -0.130023497144379007E+03
    0.782665679082318322E+00   -0.130023361936440892E+03
    0.784784987774722165E+00   -0.130023446241002688E+03
    0.784784333716337601E+00   -0.130023446266736187E+03
    0.777051586914540682E+00   -0.130023753022270341E+03
    0.779081677619521074E+00   -0.130023751551948408E+03
    0.777056208879328802E+00   -0.130023751518853942E+03
    0.779056231585478653E+00   -0.130023744090630345E+03
    0.779150424778586648E+00   -0.130023740703645444E+03
    0.779168329183192232E+00   -0.130023739812684880E+03
    0.779018147297688146E+00   -0.130023737946637311E+03
    0.779018147297688146E+00   -0.130023737946637311E+03
    0.779191405895231282E+00   -0.130023737477526538E+03
    0.779043041738962105E+00   -0.130023736858128359E+03
    0.779040960256301762E+00   -0.130023736791229283E+03
    0.779036105366410658E+00   -0.130023736640349739E+03
    0.777095766775034336E+00   -0.130023732678668750E+03
    0.777101414180534800E+00   -0.130023730962267052E+03
    0.778789217316957494E+00   -0.130023729523811312E+03
    0.778791027053664320E+00   -0.130023729134239545E+03
    0.779271049366523361E+00   -0.130023720754917065E+03
    0.779326180470248375E+00   -0.130023719959788139E+03
    0.779278227585570860E+00   -0.130023719737896556E+03
    0.779362092857449507E+00   -0.130023719545473341E+03
    0.779288778447991271E+00   -0.130023717864606652E+03
    0.779296261012414893E+00   -0.130023717071872511E+03
    0.779418850968543908E+00   -0.130023705917689767E+03
    0.779394979009851219E+00   -0.130023703308017133E+03
    0.779384098895605559E+00   -0.130023699313288091E+03
    0.779503138983453914E+00   -0.130023675099083647E+03
    0.779446269195432584E+00   -0.130023674784132140E+03
    0.779448442961445220E+00   -0.130023674509901866E+03
    0.779454403455849709E+00   -0.130023673770433845E+03
    0.779689881600626800E+00   -0.130023667288652177E+03
    0.779687390215456855E+00   -0.130023667210295571E+03
    0.779660696313583590E+00   -0.130023667076119978E+03
    0.779702460697976552E+00   -0.130023664960726478E+03
    0.779677330384221268E+00   -0.130023664763836791E+03
    0.779972469989267836E+00   -0.130023570409680445E+03
    0.779797201841816778E+00   -0.130023577791736614E+03
    0.779625010817662112E+00   -0.130023609138520754E+03
    0.779617167864072647E+00   -0.130023614460246193E+03
    0.779803928125059609E+00   -0.130023576770213907E+03
    0.779944771312440555E+00   -0.130023603143487890E+03
    0.779915238921322307E+00   -0.130023599172499843E+03
    0.780081788362468442E+00   -0.130023540575202901E+03
    0.779586076929986049E+00   -0.130023620187119093E+03
    0.779766754877132429E+00   -0.130023597954136420E+03
    0.779614901411477601E+00   -0.130023614727368567E+03
    0.779842463717429379E+00   -0.130023601229877954E+03
    0.779769566886850729E+00   -0.130023597275243645E+03
    0.779825231610690062E+00   -0.130023587985885598E+03
    0.780079366381900008E+00   -0.130023540829941624E+03
    0.780006787542993796E+00   -0.130023568512587360E+03
    0.779565862840903345E+00   -0.130023592788709095E+03
    0.779532725476124622E+00   -0.130023600745369549E+03
    0.779801052270147732E+00   -0.130023577136831676E+03
    0.780112478762150396E+00   -0.130023583781530931E+03
    0.779859550889109965E+00   -0.130023598124167563E+03
    0.780004945357018142E+00   -0.130023568622393242E+03
    0.779975045978779757E+00   -0.130023570011154391E+03
    0.780016958039669195E+00   -0.130023567156249840E+03
    0.779595703462365064E+00   -0.130023612018575704E+03
    0.780038402774187900E+00   -0.130023552371882801E+03
    0.780022710348763360E+00   -0.130023558030767219E+03
    0.779935543724095237E+00   -0.130023595206334221E+03
    0.779607362786776337E+00   -0.130023612315877813E+03
    0.777115043920955761E+00   -0.130023704695327808E+03
    0.777932390907813298E+00   -0.130023704653306709E+03
    0.777109846735024257E+00   -0.130023702509434656E+03
    0.778004983614657086E+00   -0.130023688622429177E+03
    0.777990291064534989E+00   -0.130023683667740670E+03
    0.778675636642730651E+00   -0.130023683358710230E+03
    0.777969968349301544E+00   -0.130023678799449982E+03
    0.777169956254854855E+00   -0.130023663427848874E+03
    0.777177939627435532E+00   -0.130023661123176055E+03
    0.777179917147445609E+00   -0.130023660564791612E+03
    0.777849446735364269E+00   -0.130023656076095421E+03
    0.777845820411212308E+00   -0.130023655542363315E+03
    0.777201487919773615E+00   -0.130023654937343281E+03
    0.778640331362785987E+00   -0.130023650718016427E+03
    0.778654599167132200E+00   -0.130023649440558557E+03
    0.777606396014793200E+00   -0.130023639485142667E+03
    0.777618723395826494E+00   -0.130023634769332773E+03
    0.777630506272897426E+00   -0.130023633406454337E+03
    0.777205613113414406E+00   -0.130023633125335977E+03
    0.777689805122026678E+00   -0.130023631985575264E+03
    0.777553740324625542E+00   -0.130023627544744897E+03
    0.777685560924142649E+00   -0.130023627348535030E+03
    0.777550301253987719E+00   -0.130023627194590233E+03
    0.778551620010459300E+00   -0.130023562874953967E+03
    0.778283580306435629E+00   -0.130023552877480796E+03
    0.778315399702363853E+00   -0.130023559685917746E+03
    0.778327620277741272E+00   -0.130023562793168480E+03
    0.778530009356421138E+00   -0.130023483763482886E+03
    0.778536756191879009E+00   -0.130023507268096182E+03
    0.778483109201865919E+00   -0.130023516130904625E+03
    0.778545481748922352E+00   -0.130023506300097552E+03
    0.778560426634572700E+00   -0.130023558726118182E+03
    0.778533137860255020E+00   -0.130023507680540291E+03
    0.778587375155553651E+00   -0.130023558007971928E+03
    0.778434393601655117E+00   -0.130023533004155325E+03
    0.778207416081346359E+00   -0.130023546907747686E+03
    0.778257532657544049E+00   -0.130023554132754498E+03
    0.778371901166677982E+00   -0.130023519884352709E+03
    0.778630535948774627E+00   -0.130023565665855301E+03
    0.778582281631610917E+00   -0.130023558661811705E+03
    0.778108411494690122E+00   -0.130023506253092506E+03
    0.778597218669900393E+00   -0.130023560473577163E+03
    0.778400627492719543E+00   -0.130023501716536828E+03
    0.778087129463771898E+00   -0.130023551044750775E+03
    0.778596626249839607E+00   -0.130023560533497005E+03
    0.778512562582721168E+00   -0.130023514260307252E+03
    0.778206405445639349E+00   -0.130023546997153915E+03
    0.778376257859413667E+00   -0.130023504728971488E+03
    0.778218150624574112E+00   -0.130023550835896685E+03
    0.778451685287277262E+00   -0.130023518271556469E+03
    0.778576991172190147E+00   -0.130023559219153213E+03
    0.778480277856608671E+00   -0.130023516540213677E+03
    0.778327077113926236E+00   -0.130023562853217584E+03
    0.777724684514405462E+00   -0.130023613495484994E+03
    0.777485795843733563E+00   -0.130023584754068395E+03
    0.777690890964050752E+00   -0.130023612330140679E+03
    0.777268126193225495E+00   -0.130023609485784505E+03
    0.777307587587752313E+00   -0.130023603405372342E+03
    0.777671827642878899E+00   -0.130023617439243253E+03
    0.777436680617120679E+00   -0.130023579510580731E+03
    0.777819257815156817E+00   -0.130023603017728846E+03
    0.777778347489474720E+00   -0.130023607931318480E+03
    0.777793036614227717E+00   -0.130023611282379363E+03
    0.777324561433735850E+00   -0.130023580949249947E+03
    0.777761935404033711E+00   -0.130023603992193728E+03
    0.777323147223556998E+00   -0.130023587654942560E+03
    0.777649704130691233E+00   -0.130023616686247294E+03
    0.777529731366144006E+00   -0.130023618575958494E+03
    0.777349954713194347E+00   -0.130023577055885937E+03
    0.777671641925756219E+00   -0.130023617411526232E+03
    0.777489407182355707E+00   -0.130023619101579840E+03
    0.777804039726044283E+00   -0.130023613620820214E+03
    0.777796449289098635E+00   -0.130023611882728403E+03
    0.777746633147407662E+00   -0.130023599296169323E+03
    0.777453059120578716E+00   -0.130023577580951724E+03
    0.777488979834470850E+00   -0.130023619180762921E+03
    0.780813272669551917E+00   -0.130023540054789578E+03
    0.780883825991879110E+00   -0.130023549522291347E+03
    0.781105288190103830E+00   -0.130023478402542764E+03
    0.781061055734069809E+00   -0.130023530419605663E+03
    0.781072288617941646E+00   -0.130023528231543196E+03
    0.781051406660763226E+00   -0.130023531855254447E+03
    0.781041835329575607E+00   -0.130023531880331518E+03
    0.781193934938150925E+00   -0.130023532777507228E+03
    0.780075501972967378E+00   -0.130023541468682879E+03
    0.780393593358066018E+00   -0.130023538692684383E+03
    0.781681510375592303E+00   -0.130023514656231555E+03
