    0.583542311191558838E+04   -0.238818466663360596E+00    0.130761370042012182E+01    0.819875496625900269E+02    0.788962534039221119E+00    0.147776250797434217E+01   -0.106634616851806641E+01    0.185269623994827271E+01   -0.748508602380752563E+01   -0.139773130416870117E+02    0.556742535138130212E+00    0.465104730776669653-309
    0.432870074390759783E+04   -0.935018578299144920E-01    0.131198222418136345E+01    0.215983833283545295E+02    0.110446733312210243E+01    0.661239668621808052E+00   -0.970690689178775656E+00    0.138548988118332850E+01   -0.111122537992151962E+02   -0.132704966018478494E+02    0.311763165924788921E+00    0.465104783353475623-309
    0.550349086523056030E+04   -0.111350542306900024E+01    0.141411357649933489E+01    0.469321287274360657E+02    0.760957460224058413E+00    0.145454625552995442E+01    0.361409246921539307E+01    0.151930731534957886E+01   -0.128422227501869202E+02   -0.954207837581634521E+01    0.433300470757484457E+00    0.465104764796607116-309
    0.386856683436825460E+04   -0.516721234411181785E+00    0.115975085079133189E+01    0.719619875927853627E+02    0.115873676614869026E+01    0.641081671158437283E+00   -0.706173223255166782E+01    0.199602224577355547E+01   -0.144156395686265562E+02   -0.109998338141134333E+02    0.171659008463396628E+00    0.465104813230929560-309
    0.593966114521026611E+04    0.365421175956726074E-01    0.134106262066533133E+01    0.834093500375747681E+02    0.119388730404979326E+01    0.971862403981518463E+00   -0.774843871593475342E+01    0.108527922630310059E+01   -0.611120671033859253E+01   -0.148652413487434387E+02    0.126852367186546328E+00    0.465104730776669653-309
    0.589717663630573225E+04    0.559370278035823620E+00    0.144404085163609697E+01    0.305454589467717277E+02    0.724439130018680544E+00    0.137884850798246172E+01   -0.702241728990106928E+01    0.163104521676706238E+01   -0.102198710538870969E+02   -0.146504858921675680E+02    0.355118526434575865E+00    0.465104785342544388-309
    0.426287835836410522E+04   -0.884182274341583252E+00    0.119962421785946116E+01    0.489280591607093811E+02    0.680401653825664199E+00    0.134925257463122028E+01   -0.983703553676605225E+01    0.179655921459197998E+01   -0.113912209868431091E+02   -0.117830023169517517E+02    0.305174899291992208E+00    0.465104730776669653-309
    0.493223828549835434E+04    0.184625199174447641E+00    0.116018780413519651E+01    0.725593854773850495E+02    0.116453349365924841E+01    0.101139110255386488E+01   -0.951743385469200831E+01    0.195794071848411111E+01   -0.114027565594701628E+02   -0.136773462285631808E+02    0.162124564977944946E+00    0.465104771342384045-309
    0.345537382539947748E+04   -0.119381140041356715E+01    0.110524573077357946E+01    0.437845183068681223E+02    0.732167288504320668E+00    0.143622223816277583E+01   -0.320828507418343278E+01    0.131828990453762929E+01   -0.707890479692657149E+01   -0.146057453902255450E+02    0.298747752008198864E+00    0.465104796760282887-309
    0.671454703807830811E+04   -0.294518649578094482E+00    0.147952377946869040E+01    0.203153445124626160E+02    0.452298317434689678E+00    0.367385309015627659E+00    0.176924586296081543E+01    0.156208157539367676E+01   -0.124504154920578003E+02   -0.613140732049942017E+01    0.425620030903816227E+00    0.465104730776669653-309
    0.679613882536332403E+04    0.940343074154639247E-01    0.105496828915400709E+01    0.161590920080968452E+02    0.133132629308608164E+01    0.114718341620734710E+01    0.703516568811177834E+01    0.117546755393724967E+01   -0.145336358128112160E+02   -0.497456954521724981E+01    0.428871897760165821E+00    0.465104813230929560-309
    0.698630809783935547E+04    0.501141667366027832E+00    0.155730989025325273E+01    0.152341318130493164E+01    0.100570033113557811E+01    0.111189095636707247E+01    0.707998752593994141E+01    0.182470631599426270E+01   -0.133325868844985962E+02   -0.114659294486045837E+02    0.492888566780090354E+00    0.465104730776669653-309
    0.624378472526753649E+04   -0.975798504538022193E+00    0.152562288757353781E+01    0.445774345105543475E+02    0.155091451775188416E+01    0.126094162139056731E+01    0.795376730232553086E+01    0.162009111346618240E+01   -0.523276942826452363E+01   -0.601154097365140849E+01    0.287779452804904523E+00    0.465104756730530908-309
    0.457082766294479370E+04    0.567878067493438721E+00    0.148522549033652651E+01    0.597913473844528198E+01    0.105139018858725009E+01    0.990832589365884253E+00    0.112198770046234131E+01    0.178767359256744385E+01   -0.991246104240417480E+01   -0.143203577399253845E+02    0.527120423269271887E+00    0.465104730776669653-309
    0.331417412775048570E+04    0.589055371130209338E+00    0.112663857033330350E+01    0.474873372909323592E+02    0.152329809622960721E+01    0.111737188992076453E+01   -0.233215370276013800E+00    0.173011206445837140E+01   -0.900644159913064968E+01   -0.144952774224153593E+02    0.397421734290220929E+00    0.465104790008026044-309
    0.452088618278503418E+04    0.419448018074035645E-01    0.128416556541292137E+01    0.909442936778068542E+02    0.120675021607028099E+01    0.979167350821875809E-01    0.133224427700042725E+02    0.194121932983398438E+01   -0.113493928313255310E+02   -0.839673936367034912E+01    0.481020179414749172E+00    0.465104730776669653-309
    0.386762732267379761E+04    0.985444366931915283E+00    0.151130960937706615E+01    0.673724298477172852E+02    0.136337308125271384E+01    0.108089244787476879E+01    0.920608878135681152E+01    0.126396048069000244E+01   -0.620874702930450439E+01   -0.738236457109451294E+01    0.500036327004432679E+00    0.465104764798346228-309
    0.527862921527230355E+04    0.675695991101221693E-02    0.130795631001845547E+01    0.271072244364444330E+02    0.131520456672592179E+01    0.415650004827686159E+00    0.359144456154447411E+01    0.168794085059895682E+01   -0.806363577652130559E+01   -0.998049614274681929E+01    0.417897319954170454E+00    0.465104783353475623-309
    0.238855263152287580E+04    0.970833249035284673E+00    0.120439372092123986E+01    0.823655494559353656E+02    0.145201732225763225E+01    0.126514523762285364E+00    0.253301284675114147E+00    0.186690285862641492E+01   -0.141076732151970834E+02   -0.133587501742852819E+02    0.423382301822506413E+00    0.465104678350296791-309
    0.563803273956269732E+04   -0.897512833234567431E+00    0.101347602619141508E+01    0.614242044069032431E+02    0.153735370553121142E+01    0.433379303690070161E-01    0.144692870166796759E+02    0.157255609253114037E+01   -0.144718320725192502E+02   -0.104836682435590980E+02    0.500066626021217764E+00    0.465104790067630123-309
    0.471659765937391967E+04    0.709213382449256358E-01    0.118412824890499024E+01    0.294636364103348996E+02    0.714518503684210438E+00    0.133394124094621036E+00    0.473867462350582969E+00    0.126442222107943714E+01   -0.145250461997074360E+02   -0.144819142080105721E+02    0.527663299999545532E+00    0.465104796760282887-309
    0.138904975363898120E+04    0.170106033514287436E+00    0.143312325332921486E+01    0.751342505458596861E+02    0.125550520234827179E+01    0.713639307900504338E+00    0.932269795664966594E+00    0.131869141880959417E+01   -0.742135147415192797E+01   -0.123414670262205988E+02    0.515569949793548976E+00    0.465104790953707215-309
    0.385496139526367188E+04    0.452733159065246582E+00    0.115605297381072814E+01    0.345199651122093201E+02    0.142908296091581222E+01    0.474300605346867743E+00   -0.737986922264099121E+01    0.138557237386703491E+01   -0.341453880071640015E+01   -0.114104685187339783E+02    0.493195216655731239E+00    0.465104764796172339-309
    0.535945969820022583E+04   -0.783328175544738770E+00    0.864998694275773139E+00    0.423023200035095215E+02    0.380109372555375857E+00    0.936191639430995926E+00    0.231870353221893311E+01    0.134119737148284912E+01   -0.687972307205200195E+01   -0.138774669170379639E+02    0.492709687685966513E+00    0.465104764798781005-309
    0.385521551402600244E+04   -0.117813840497867295E+01    0.116184021890222988E+01    0.735809046047873210E+02    0.118771300382655109E+01    0.939656085607671887E+00   -0.278145233607908260E+01    0.196894087775999482E+01   -0.634664868059936715E+01   -0.107944079521441765E+02    0.541024533426587184E+00    0.465104773013116433-309
    0.378446165464116166E+04   -0.806634370459241801E+00    0.117962633860571575E+01    0.613928294462684008E+02    0.133087456021047501E+01    0.147437961464509737E+01   -0.609471388124554458E+01    0.125395889930106241E+01   -0.721834548335027293E+01   -0.126767396684680502E+02    0.559612793364055006E+00    0.465104796769373695-309
    0.327523851394653320E+04    0.162900090217590332E-01    0.811660795781045108E+00    0.429310448169708252E+02    0.830010751382237122E+00    0.131047546153452643E+01   -0.893503367900848389E+01    0.151511663198471069E+01   -0.756859570741653442E+01   -0.136643484234809875E+02    0.540382279801368770E+00    0.465104764797041894-309
    0.582803715256857322E+04   -0.137805409620444230E+01    0.115323987285401186E+01    0.830464406483826423E+02    0.532072164612376386E+00    0.124842642366560796E+01   -0.105747749958514561E+02    0.159701572277187953E+01   -0.469880734309176162E+01   -0.139615457829152056E+02    0.528505822567566952E+00    0.465104801200391559-309
    0.586319064191835878E+04   -0.264550522467757343E+00    0.962424135036621720E+00    0.793058837802064858E+02    0.118576665779536117E+01    0.152340062573389434E+01   -0.802649996547423328E+01    0.153002734440462396E+01   -0.686997159754923459E+01   -0.108433994509439717E+02    0.289218719404775448E+00    0.465104790067630123-309
    0.387562028521988441E+04   -0.128785553450239365E+01    0.878608318487674067E+00    0.463933914147607922E+02    0.132219061546708683E+01    0.125168388248185991E+01    0.590482017288476158E+01    0.149530148283577713E+01   -0.101434365992029001E+02   -0.111642098734487405E+02    0.550549291850714106E+00    0.465104790953707215-309
    0.633793836832046509E+04    0.369714677333831787E+00    0.650793102587111427E+00    0.410365855693817139E+02    0.123321662775970431E+01    0.485086782268716987E+00    0.609867811203002930E+01    0.158806359767913818E+01   -0.121754559874534607E+02   -0.961293786764144897E+01    0.529132343959808349E+00    0.465104764795737561-309
    0.570761335296445850E+04   -0.305961518879449557E-01    0.122333092863371129E+01    0.646733472865259102E+02    0.109808072287982017E+01    0.293821574126966079E+00   -0.405192467878588047E+01    0.135198968529173058E+01   -0.407282209703752329E+01   -0.927181314717018878E+01    0.567755734728256689E+00    0.465104790067630123-309
    0.585745820904748962E+04   -0.758845916981059965E+00    0.596065968067535645E+00    0.746172499546903509E+02    0.126414797702683424E+01    0.681683380162814018E-01    0.683138816632583712E+01    0.134979006793565892E+01   -0.136504173085838421E+02   -0.986869913899129614E+01    0.452798469472778908E+00    0.465104758274782490-309
    0.450416834580685099E+04   -0.173249647776138804E+01    0.599626269645296084E+00    0.497333388302781216E+02    0.131535110763345275E+01    0.609650352258834682E+00   -0.110523307202032406E+01    0.133629925917639913E+01   -0.123489400550745785E+02   -0.874236893422321160E+01    0.342938744581786803E+00    0.465104774428120443-309
    0.534988629817962646E+04   -0.177906519174575806E+01    0.915337566226156696E+00    0.941953133940696716E+02    0.147078956161456631E+01    0.740429606482267522E+00    0.765434145927429199E+01    0.189566683769226074E+01   -0.105940818786621094E+02   -0.110192602872848511E+02    0.553489583158493059E+00    0.465104730776669653-309
    0.673687722556855624E+04   -0.110852752179095337E+01    0.114213520754017805E+01    0.786072863594418436E+02    0.139604937433251464E+01    0.873611474299987645E+00    0.121403680907322560E+02    0.173468742219820449E+01   -0.118863814005479895E+02   -0.295639644478802310E+01    0.297386504145499886E+00    0.465104772007910233-309
    0.621815511865835288E+04   -0.545825394515453866E+00    0.107197249613446788E+01    0.595593925918262244E+02    0.103618607501179461E+01    0.119969688297343091E+01    0.931676745664063688E+01    0.131790235138084877E+01   -0.125559612704099610E+02   -0.536016258089453856E+01    0.408084855557725279E+00    0.465104756730530908-309
    0.609101808071136475E+04   -0.267157793045043945E+00    0.117765460194710148E+01    0.285988476276397705E+02    0.854525138813443497E+00    0.282125787968638075E+00   -0.145488256216049194E+02    0.140901809930801392E+01   -0.518976241350173950E+01   -0.411120951175689697E+01    0.543017906141281093E+00    0.465104730776669653-309
    0.614198940020156806E+04   -0.185501529490675443E+00    0.857130366555604151E+00    0.850389300994115303E+02    0.104871726028467216E+01    0.975600337244420746E+00   -0.130886121585199167E+02    0.196282334280317183E+01   -0.569641044705570287E+01   -0.859196490681220126E+01    0.285789672170644271E+00    0.465104785342544388-309
    0.558791695167896432E+04   -0.536638424357830823E+00    0.122979777541770985E+01    0.440258663267323911E+02    0.145547269836066606E+01    0.886174230414839892E+00   -0.822716813056818097E+00    0.170071824928567961E+01   -0.697517044471620906E+01   -0.325480239134102334E+01    0.564750657091936836E+00    0.465104788036032188-309
    0.235750186911615492E+04    0.307730623786191870E+00    0.801196739892246712E+00    0.269497040483616921E+02    0.120496164090726365E+01    0.109934654344561022E+01   -0.305230314526482616E+01    0.191606784909693051E+01   -0.318786041209556181E+01   -0.442608992806192703E+00    0.320880442469041904E+00    0.465104758274782490-309
    0.162926292419433594E+04   -0.162302124500274658E+01    0.153174619501448062E+01    0.477597892284393311E+01    0.513399045473836524E+00    0.105902844668278751E+01   -0.784997999668121338E+01    0.123801922798156738E+01   -0.144799241423606873E+02   -0.998403847217559814E+01    0.521445285272598258E+00    0.465104730776669653-309
    0.111513142844956306E+03   -0.800451477248824261E+00    0.138257288579479987E+01    0.268841677432058574E+02    0.127459153690020854E+01    0.128654041015935738E+01   -0.951069598432744101E+01    0.193941937438445455E+01   -0.294816744816132115E+01   -0.358524109541614955E+01    0.344622899691893192E+00    0.465104796760282887-309
    0.411766132090405517E+04   -0.380338989363973479E+00    0.625930811333791026E+00    0.441208966487725078E+02    0.146725187055250328E+01    0.137270103356287287E+01   -0.918824710944536349E+01    0.161323199344759272E+01   -0.857822718929153538E+01   -0.631382217514928712E+01    0.148790259560556720E+00    0.465104785342544388-309
    0.402967051869991155E+04   -0.255641888715679055E+00    0.889450259868405979E+00    0.286661572030970611E+02    0.791863317321179982E+00    0.101598567077582147E+01   -0.320450051615862108E+01    0.104067078530015755E+01   -0.115685541001776766E+02   -0.688969708935382741E+01    0.405750845059194676E+00    0.465104783353475623-309
    0.477334067854097430E+04    0.769867381841975451E-01    0.102373050554948120E+01    0.112218991794389193E+02    0.144726685819758139E+01    0.126485123686627321E+01   -0.164452495996100190E+01    0.112664006246768289E+01   -0.797429375008702213E+01   -0.536158078036173080E+01    0.497572396840864739E+00    0.465104678350296791-309
    0.172757041454315186E+04   -0.575232744216918945E+00    0.133942596383028700E+01    0.139328151941299438E+02    0.347811418301654518E+00    0.806128344561274135E+00   -0.876815915107727051E+01    0.136501431465148926E+01   -0.956718564033508301E+01   -0.361712783575057983E+01    0.371245460414886486E+00    0.465104730776669653-309
    0.200706821680068970E+04   -0.160491114854812622E+01    0.583415237461132441E+00    0.129388625621795654E+02    0.831317312777192230E+00    0.941801380207787586E+00   -0.110811978578567505E+02    0.189232105016708374E+01   -0.139517623186111450E+02   -0.666372299194335938E+01    0.373524625039100666E+00    0.465104764797911450-309
    0.470429825782775879E+04   -0.325837731361389160E+00    0.984483164740196037E+00    0.100041702389717102E+02    0.861162245995598430E+00    0.606057046491499385E+00   -0.359717130661010742E+01    0.107853883504867554E+01   -0.287652969360351562E+01   -0.746160328388214111E+01    0.480199034643173261E+00    0.465104730776669653-309
    0.264534467458724976E+04   -0.218175649642944336E-01    0.116476963047873339E+01    0.389330057501792908E+02    0.137813427577285852E+01    0.106483676981133146E+01   -0.132043290138244629E+02    0.134022748470306396E+01   -0.108752435445785522E+02   -0.518889784812927246E+01    0.301624372744560276E+00    0.465104764798346228-309
    0.550019138042275699E+03    0.117667011266594734E+00    0.108812627274438745E+01    0.195449890391938439E+02    0.143515503040654502E+01    0.133343408284635734E+01   -0.121699512284761937E+02    0.169803493011395235E+01   -0.416939473253255244E+01   -0.505149452226961060E+00    0.505361685021737395E+00    0.465104774428120443-309
    0.221198897394260393E+04   -0.167056087622373672E+01    0.597239483753380318E+00    0.118542509784623213E+02    0.993475540548269476E+00    0.112710249229215465E+01   -0.878178329949722425E+01    0.169835966121022341E+01   -0.141244211860611220E+02   -0.613918775649138659E+01    0.344489259437153472E+00    0.465104771342384045-309
    0.291948970366681715E+04    0.410207653117633075E+00    0.922114434828668506E+00    0.531402285940066577E+02    0.126102629495180696E+01    0.127778536739891591E+01   -0.684936834596480537E+01    0.172658443549746554E+01   -0.195162467148417740E+01   -0.535005065068237506E+01    0.397764064380784654E+00    0.465104763865234086-309
    0.359736614782157676E+04   -0.148390328250629366E+00    0.928270773714040542E+00    0.425093842848120929E+02    0.830533661200645090E+00    0.149634706624442915E+01   -0.970082385761880595E+01    0.199810573142850201E+01   -0.758384498246601879E+01   -0.688250384749152566E+01    0.280462402258518484E+00    0.465104758274782490-309
    0.393065260818167644E+04   -0.146243798886244569E+01    0.428660429697767409E+00    0.191238791322222781E+02    0.101361414413058548E+01    0.140229768529092880E+01   -0.110231868856625113E+02    0.139524524568827135E+01   -0.253119864101151748E+01   -0.139523023726451534E+01    0.329403059037505941E+00    0.465104796760282887-309
    0.393313571294489236E+03   -0.967708854811208052E+00    0.130734984180333957E+01    0.145756263394674921E+02    0.153996428280037589E+01    0.101564046834422039E+01   -0.106653769444816895E+02    0.153823833915191921E+01   -0.131805948561122861E+02   -0.985551236996079894E+01    0.305249099773395927E+00    0.465104783353475623-309
    0.130829054117202759E+04   -0.104713773727416992E+01    0.151530674622580341E+01    0.676462179422378540E+01    0.954012181865261044E+00    0.126493971372499692E+01    0.728695929050445557E+01    0.158549565076828003E+01   -0.604271650314331055E+01   -0.664067745208740234E+01    0.430941266012191793E+00    0.465104730776669653-309
    0.142343795299530029E+04   -0.573960125446319580E+00    0.107182581491535478E+01    0.901462554931640625E+00    0.112833836878210358E+01    0.129657619493999676E+01    0.791816711425781250E+01    0.171746140718460083E+01   -0.464671522378921509E+01   -0.124572864174842834E+02    0.423697327995300299E+00    0.465104764797476672-309
    0.278924942016601562E+04   -0.858328998088836670E+00    0.142742564108097381E+01    0.489408758282661438E+02    0.110902082812899661E+01    0.133794293051057545E+01    0.445236682891845703E+01    0.109038776159286499E+01   -0.101804709434509277E+02   -0.404938459396362305E+01    0.302994471287727385E+00    0.465104764795737561-309
    0.118475008010864258E+04   -0.175875103473663330E+01    0.119480193951584979E+01    0.416443859338760376E+02    0.939563700713740624E+00    0.772670729294445469E+00   -0.979310274124145508E+00    0.169560462236404419E+01   -0.145321977138519287E+02   -0.105222487449645996E+02    0.356838102149963365E+00    0.465104764798781005-309
    0.988175594030548154E+03    0.360276048416673600E+00    0.138373985920188525E+01    0.460756525423668322E+02    0.106116598217723301E+01    0.121027888731479605E+01    0.656773710499012253E+01    0.166225257761147382E+01   -0.107534739823845911E+02   -0.140325121213214068E+02    0.477782920685661916E+00    0.465104790008026044-309
    0.860643906515443149E+02    0.191118450618850133E+00    0.151988175565480033E+01    0.372821901015761483E+02    0.860445224130921504E+00    0.154869252441318639E+01    0.276610895174258786E+01    0.112743895298425456E+01   -0.110163767754129136E+02   -0.766548795311692022E+01    0.306874744199165828E+00    0.465104772007910233-309
    0.732109723040868289E+03   -0.289584556327948661E-01    0.126102300345219653E+01    0.407233713007957476E+02    0.149226500857550137E+01    0.124287821442890634E+01    0.119872610354625913E+02    0.161365069279855522E+01   -0.108416917716466017E+02   -0.123689557369110528E+02    0.242128387761099573E+00    0.465104758274782490-309
    0.734979384037821660E+03   -0.793426633369033407E+00    0.845361590246162198E+00    0.428970783322542886E+02    0.134286933293988997E+01    0.691654775881392347E+00   -0.917412336030130504E+00    0.164905675095821991E+01   -0.142092525879913101E+02   -0.558269848187488549E+01    0.308537997537517372E+00    0.465104796760282887-309
    0.105591820354037804E+04    0.753236440090085502E+00    0.155322480524398676E+01    0.365636360893055254E+02    0.132900023794813205E+01    0.700431043297052192E+00    0.568871382059079522E+01    0.154503765510037150E+01   -0.351809158397796473E+01   -0.137364857069871942E+02    0.240028571569084581E+00    0.465104796760282887-309
    0.992290779909223943E+03   -0.155638181036461987E+00    0.116527882460778720E+01    0.532598394186565471E+02    0.484545997179757604E+00    0.128329387456453126E+01   -0.128314943242124784E+02    0.195582319099263757E+01   -0.140682985445504638E+02   -0.140248761735967395E+02    0.197796353851984547E+00    0.465104790067630123-309
    0.312083991626690295E+04    0.884640138622153405E+00    0.113646914498951057E+01    0.560961199239233466E+02    0.155600448797846913E+01    0.125243710858640123E+01    0.974311080486388903E+01    0.112753160827778687E+01   -0.143249957614784336E+02   -0.475311941354889278E+01    0.283044520219526974E+00    0.465104763865234086-309
    0.170035855085579647E+04    0.742198136133083164E+00    0.131111937615842922E+01    0.311529780602692519E+02    0.117580259236718909E+01    0.284440560511704355E+00    0.428843517736467916E+01    0.167784082506697474E+01   -0.824267026962289862E+01   -0.128288503054555925E+01    0.406038358932548804E+00    0.465104801200391559-309
    0.431757628917694092E+04    0.905070722103118896E+00    0.124312106997645344E+01    0.349034678936004639E+02    0.148650013145143212E+01    0.584211396143904604E+00    0.639542698860168457E+01    0.183900785446166992E+01   -0.106528964638710022E+02   -0.611488401889801025E+01    0.286014809131622305E+00    0.465104730776669653-309
    0.249825674762006793E+04    0.180629476140576450E+00    0.139745532990908372E+01    0.327314367076409880E+02    0.145070016897623710E+01    0.108767199744089993E+01    0.127801556726580152E+02    0.159715913489526318E+01   -0.763755450835812155E+01   -0.806712670331385517E+01    0.186401162184853808E+00    0.465104773013116433-309
    0.331040100228213032E+04    0.271902384713257117E+00    0.128113650153973468E+01    0.514575394164372639E+02    0.145313498381849926E+01    0.119367107757434909E+01    0.109727387468986137E+00    0.106047875497943034E+01   -0.920284415331983752E+01   -0.290915240578556222E+00    0.350663037939490885E+00    0.465104790953707215-309
    0.133508849077749051E+04    0.166503365019826433E+00    0.139667206837767388E+01    0.536830029169192144E+02    0.148184425136534803E+01    0.650638925837766835E+00    0.884661889745907004E+01    0.150270649403487999E+01   -0.485658269785537833E+01   -0.513463265608585395E+01    0.198090309872249459E+00    0.465104790953707215-309
    0.692655622959136963E+03    0.600364089012145996E+00    0.142454658268054368E+01    0.354910991191864014E+02    0.959511536695463629E+00    0.101084877288027078E+00   -0.135991573333740234E+01    0.161606961488723755E+01   -0.796591043472290039E+00   -0.482761502265930176E+01    0.536304430103301977E+00    0.465104764798346228-309
    0.118674111366271973E+04   -0.380892038345336914E+00    0.118222914561197623E+01    0.863565344810485840E+02    0.129134723418422137E+01    0.291482658817009355E+00   -0.134474533796310425E+02    0.161109572649002075E+01   -0.126154053211212158E+02   -0.788085937500000000E+01    0.345738147711753874E+00    0.465104764797911450-309
    0.283780712142633831E+03    0.272976721697651747E+00    0.151136788409831646E+01    0.721463189108062863E+02    0.109654026409592831E+01    0.128053056816237065E+01    0.145805528430416977E+02    0.165710535307063322E+01   -0.880222391265160908E+01   -0.787387369310333973E+01    0.116820794250001289E+00    0.465104775063370288-309
    0.181955514968519651E+03    0.516879200051753696E+00    0.141315286632381976E+01    0.658726255802696841E+02    0.123137261057103742E+01    0.971005877743015389E+00    0.613049981283249679E+01    0.172624026691535137E+01   -0.111412956921844710E+02   -0.134817266687682427E+02    0.436169640892664745E+00    0.465104775063370288-309
    0.138887909552789620E+04    0.710503833933064932E+00    0.140840337365498924E+01    0.449882236441230603E+02    0.950597590671675929E+00    0.901604066745629651E+00    0.141165290932555614E+02    0.134531897440847703E+01   -0.530701013181649195E+01   -0.146012155807420729E+02    0.325816215822766930E+00    0.465104775063370288-309
    0.143956202545625001E+04    0.940168728443064872E+00    0.968002992819512187E+00    0.680776178530299063E+02    0.147907516274408879E+01    0.120693517576441756E+01   -0.758589961736796425E+01    0.177660646188730764E+01   -0.107760353265433970E+02   -0.788315396681564717E+01    0.120731670242859468E+00    0.465104775063370288-309
    0.235512141798611268E+02   -0.194096532124458854E+01    0.744399260495413495E+00    0.483570642873979821E+02    0.130581271827956225E+01    0.458364679420704912E+00   -0.130119137684392072E+02    0.195459011688478634E+01   -0.834744428713165121E+01   -0.624666904326624106E+01    0.365276947773044591E+00    0.465104775063370288-309
    0.159217694344355778E+04    0.722450215566583509E+00    0.115151862630798751E+01    0.586209514828277349E+02    0.132913004216869735E+01    0.329375691001188020E+00   -0.605825369109622613E+01    0.175369999300390100E+01   -0.449678367280961133E+01   -0.707883167333623753E+01    0.296885197959036395E+00    0.465104765736438551-309
    0.374741660196676094E+03    0.889469789189088367E+00    0.155356699634159967E+01    0.559720241251584127E+02    0.100149238572435961E+01    0.440310097758419394E+00    0.729767901059426194E+01    0.171553392069068322E+01   -0.174034471021611736E+00   -0.999075471690403916E+01    0.548990235837894636E+00    0.465104765736438551-309
    0.117166674079336690E+04   -0.818384293043309619E+00    0.135784823365862728E+01    0.177666573314519134E+02    0.352062705170998136E+00    0.359431702593543290E+00   -0.639383095397582402E+01    0.192005165157392699E+01   -0.633730166217489987E+01   -0.139647311411678867E+02    0.370913176600687455E+00    0.465104765736438551-309
    0.364521106723640401E+03   -0.112247964547032120E+01    0.116304020647631878E+01    0.275972813525153811E+02    0.576811119783018134E+00    0.484549923603557309E+00    0.384729291333599122E+01    0.166947695410770147E+01   -0.668117142486123150E+01   -0.124722635267947535E+02    0.390042794645189428E+00    0.465104788036032188-309
    0.403351591283111247E+03   -0.956399711289634524E+00    0.130332652933705972E+01    0.269367944847533813E+02    0.108757982017739696E+01    0.436917172772632145E+00   -0.107209004143991180E+02    0.147459926054733614E+01   -0.120120974851606785E+02   -0.559417387002357280E+01    0.481016297410090332E+00    0.465104788036032188-309
    0.632902784950067962E+04   -0.107929523621471124E+01    0.151300888826250168E+01    0.331639144227534466E+01    0.830675927517707802E+00    0.238785869781119764E+00    0.121026448520804699E+02    0.142983477235794121E+01   -0.732547176447570880E+01   -0.553104630012724918E+01    0.318207904572862799E-01    0.465104790953707215-309
    0.402478581950723628E+04   -0.192558301822123701E+01    0.819152139207049546E+00    0.195181811979923481E+02    0.106696635449628241E+01    0.335319808494250304E+00   -0.723708160666108924E+01    0.113510016151932014E+01   -0.378886988115615608E+01   -0.584316465546831232E+01    0.208568500291560988E+00    0.465104783353475623-309
    0.432180842911596937E+04   -0.114263305398792170E+01    0.142859924400909266E+01    0.345200396711143798E+01    0.675155417265765889E+00    0.652693793266078015E+00   -0.814501225375050453E+01    0.146216420403646730E+01   -0.646599960569217203E+01   -0.144844028961250437E+01    0.383950655681476669E-01    0.465104781808512586-309
    0.576608365774154663E+04   -0.122112494707107544E+01    0.132029269503712632E+01    0.464161634445190430E-01    0.106021254427949096E+01    0.249889814628099123E-01   -0.110176849365234375E+02    0.188625925779342651E+01   -0.928415715694427490E+01   -0.596602499485015869E+01    0.161270779252052326E+00    0.465104764796607116-309
    0.395034856864194944E+04   -0.129393479624215191E+01    0.153149333561557910E+01    0.264119273551733755E+02    0.979860810796266857E+00    0.177476726285323072E+00    0.645704864132983403E+01    0.103652974880753446E+01   -0.119696483528522464E+02   -0.108798881383741310E+02    0.120807652975121957E+00    0.465104763865234086-309
    0.229696069809415576E+04   -0.157374258391525879E+01    0.124192119032723736E+01    0.740820338066609008E+01    0.100545965475781540E+01    0.309591518373963925E+00   -0.123236068131449414E+02    0.156756690678836952E+01   -0.852100202759143599E+01   -0.599779410640348765E+01    0.187251051138680652E+00    0.465104758274782490-309
    0.483006450554774437E+04   -0.114730190930894493E+01    0.805218614941368371E+00    0.139892664813688974E+02    0.921777745495259260E+00    0.248203853395522644E+00   -0.143020907836057454E+01    0.182329942676013568E+01   -0.840150877790445705E+01   -0.448070600038884059E+01    0.330226134413995898E+00    0.465104796760282887-309
    0.549509143584153480E+04   -0.898037686085125353E+00    0.143821602831053408E+01    0.553090617637445447E+01    0.720179680825740132E+00    0.179772648683402092E+00   -0.658013400597113574E+01    0.122939441049335429E+01   -0.149627109548724402E+02   -0.109363786188073568E+02    0.327941878369334000E-01    0.465104790953707215-309
    0.553230684746657516E+04    0.500150408874627139E+00    0.124889147616751250E+01    0.447331852298518058E+02    0.247644656146813469E+00    0.158820430413061570E+00   -0.723380278646965102E+01    0.188005894253043682E+01   -0.143745646298947509E+02   -0.149362860853331476E+02    0.979578167246549503E-01    0.465104758274782490-309
    0.652944850921630859E+04    0.838290870189666748E+00    0.153693948706003725E+01    0.176140252947807312E+02    0.828044683110459201E+00    0.581264774845300036E+00   -0.479014277458190918E+01    0.139748728275299072E+01   -0.541007101535797119E+01   -0.868159890174865723E+01    0.267839014577865631E+00    0.465104730776669653-309
    0.677831434014210208E+04   -0.140562150398540942E+01    0.142526050330288245E+01    0.592950947213117843E+02    0.106139379990381255E+01    0.342555999758548529E-01    0.714806823617776743E+01    0.148679862129148455E+01   -0.104550162522518626E+02   -0.530474090000770993E+01    0.318723566748077725E+00    0.465104736967667923-309
    0.684452414512634277E+04   -0.182856124639511108E+01    0.143811101611267067E+01    0.174363681077957153E+02    0.145545022186949513E+01    0.249995519236834662E+00    0.562466025352478027E+01    0.113983803987503052E+01   -0.315152138471603394E+01   -0.620166778564453125E+01    0.529474408006668118E+00    0.465104730776669653-309
    0.570600050687789917E+04    0.431781709194183350E+00    0.139791492532600614E+01    0.211758728027343750E+02    0.120040110479288287E+01    0.780703530544288982E+00   -0.595357418060302734E+00    0.101643174886703491E+01   -0.622418135404586792E+01   -0.305508971214294434E+01    0.281408612751960774E+00    0.465104764794868005-309
    0.327777320146560669E+04   -0.160225307941436768E+01    0.136031495597931906E+01    0.346533363461494446E+02    0.119265199261697097E+01    0.236634138361689894E+00    0.193040370941162109E+01    0.104974639415740967E+01   -0.715048760175704956E+01   -0.132188549637794495E+02    0.409164962482452432E+00    0.465104764796172339-309
    0.309778618812561035E+04   -0.199087190628051758E+01    0.922053435446031688E+00    0.166960403323173523E+02    0.134287443905912962E+01    0.472210294368453770E-01   -0.133178150653839111E+02    0.107869386672973633E+01   -0.167858541011810303E+01   -0.223181605339050293E+01    0.449101537013053886E+00    0.465104764797911450-309
    0.474015160472711977E+04   -0.801911575304128377E+00    0.898254305973880118E+00    0.944568572478920210E+01    0.937276623846345358E+00    0.191557882595668000E+00   -0.538960727838845344E+01    0.117931937637710260E+01   -0.432517213786048771E+01   -0.101685857012332992E+02    0.473206920360543737E+00    0.465104801200391559-309
    0.260579343718984637E+04    0.184431330705965291E+00    0.107527814957383216E+01    0.829357463345892576E+01    0.698490115007905366E+00    0.555310388487327278E+00   -0.148889336319916179E+02    0.144053291584000820E+01   -0.357255031321298944E+01   -0.490098676948932166E+01    0.118511019363295667E+00    0.465104775063370288-309
    0.289552269986649344E+04   -0.193433617343486675E+01    0.141155262837388595E+01    0.298832590459598286E+02    0.896593244545992651E+00    0.918770754163886066E-01    0.992878075582819264E-01    0.131089463583887911E+01   -0.131418720013646588E+02   -0.989258405307738720E+01    0.284505581787479256E+00    0.465104765736438551-309
    0.297920799089034654E+04   -0.405263104805234420E+00    0.856959666454116364E+00    0.531962377210235715E+02    0.710499607866899252E+00    0.141864907592832629E+00   -0.108612243246026843E+02    0.181742024919138601E+01   -0.128519134352262299E+02   -0.991187310050494119E+01    0.309675019373180371E+00    0.465104765736438551-309
    0.596186818624606440E+04   -0.186383436394981139E+01    0.145479771957053816E+01    0.410482267092196462E+01    0.129898177023812789E+01    0.509760263076870834E+00    0.427939580157514143E+01    0.123415040495197892E+01   -0.466363276233724733E+01   -0.412319098572239717E+01    0.429841114553824843E+00    0.465104788036032188-309
    0.339810305833816528E+04   -0.347769618034362793E+00    0.107386538902914208E+01    0.650874989032745361E+02    0.150538146504333548E+01    0.657273410532925095E+00   -0.114751535654067993E+02    0.156733816862106323E+01   -0.168166905641555786E+01   -0.542179048061370850E+00    0.882624864578247141E-03    0.465104764795302783-309
    0.345905381736476738E+04   -0.452939454109991146E+00    0.137959466433163902E+01    0.364900587978936883E+02    0.118573709553728968E+01    0.342221158796072955E+00    0.970198115719269794E+01    0.171620073592709854E+01   -0.752787274784642690E+00   -0.686552144400135056E+01    0.115139821455682939E+00    0.465104736967667923-309
    0.196888604675819602E+04   -0.114886617388094692E-01    0.133250364443984282E+01    0.237023744664448230E+02    0.147045673874714766E+01    0.113900832159849719E+01    0.778442140916165926E+01    0.157335940588484791E+01   -0.320682749923570043E+01   -0.101634359170588358E+02    0.940860202696247455E-01    0.465104763865234086-309
    0.103278565406799316E+04   -0.176142841577529907E+01    0.155456878649799179E+01    0.384935510158538818E+02    0.144614493936427113E+01    0.147841321393600023E+01   -0.308678627014160156E+01    0.125549381971359253E+01   -0.307245165109634399E+01   -0.114673259854316711E+02    0.165535900998115548E+00    0.465104730776669653-309
    0.456071699472496402E+04    0.181188377773452203E+00    0.154350404372907168E+01    0.110944258147704904E+02    0.132894532731578852E+01    0.778107211948365740E+00   -0.146074984460263479E+01    0.120809160716172870E+01   -0.128529249651702528E+02   -0.108344468210440699E+02    0.118857620335911268E+00    0.465104736967667923-309
    0.251093113422393799E+04   -0.676266372203826904E+00    0.126698741709145701E+01    0.122239851951599121E+01    0.149808606813219969E+01    0.114562102549698386E+01   -0.129572600126266479E+02    0.190638440847396851E+01   -0.134358295798301697E+02   -0.139801704883575439E+02    0.330428888082504313E-01    0.465104730776669653-309
    0.356054419279098511E+04    0.420823454856872559E+00    0.106568544195132264E+01    0.180927620530128479E+02    0.125269249125902205E+01    0.730858049479927607E+00   -0.115877383947372437E+02    0.165085142850875854E+01   -0.990661919116973877E+01   -0.106110611557960510E+02    0.835651617050170957E-02    0.465104764797041894-309
    0.400823048921598456E+04    0.215069876496398305E+00    0.112096389912946837E+01    0.200283742272459122E+02    0.125620823712158769E+01    0.383955922007318762E+00   -0.340526312064738157E+01    0.174937190855783786E+01   -0.128455993890242031E+02   -0.133972444045104577E+02    0.692328309962469968E-01    0.465104775026453703-309
    0.281937693656005422E+04    0.378796272205977669E+00    0.114840111646693743E+01    0.128233785549389498E+02    0.154838816396050571E+01    0.475342722820015662E+00   -0.129366754877652266E+02    0.186915997059005234E+01   -0.132724190497301144E+02   -0.125976766258846364E+02    0.100795395391040946E+00    0.465104772007910233-309
    0.545586762495677431E+04    0.272807447737299924E-01    0.107120524694484542E+01    0.226476709406555343E+00    0.156368939384857519E+01    0.125986167722629849E+01   -0.609792245873798322E+01    0.144254677329895564E+01   -0.192545636473345283E+01   -0.130147333050635972E+02    0.108515110963107328E+00    0.465104790953707215-309
    0.596582663059234619E+04   -0.167407709360122681E+01    0.136475147465573854E+01    0.287821165323257446E+02    0.134638263364665867E+01    0.738872593512141851E+00    0.524683892726898193E+01    0.140953147411346436E+01   -0.427910327911376953E+01   -0.112678241729736328E+02    0.102702597713470456E+00    0.465104764796172339-309
    0.338996585828685193E+04   -0.118416676966300827E+01    0.142533463172920571E+01    0.789830195925014955E+01    0.838999525557353465E+00    0.165507555744610679E+00   -0.164786319718226260E+01    0.165307055573798700E+01   -0.451279153967894331E+01   -0.124286242917523246E+02    0.811339737645577416E-02    0.465104783353475623-309
    0.604782909154891968E+04    0.659933447837829590E+00    0.156312096132651468E+01    0.189138785004615784E+02    0.124733994318391006E+01    0.482391829693124941E+00    0.596469998359680176E+01    0.102952843904495239E+01   -0.245883196592330933E+01   -0.110532510280609131E+02    0.666193101882934652E-01    0.465104730776669653-309
    0.257575947046279907E+04   -0.118007463216781616E+01    0.810919740734292294E+00    0.100447622537612915E+02    0.103393722480125394E+01    0.487710578508933457E+00   -0.247727394104003906E+01    0.129017370939254761E+01   -0.132887515425682068E+02   -0.103159984946250916E+02    0.235792191982269299E-01    0.465104730776669653-309
    0.371372278990243376E+04   -0.187220588054155712E+01    0.109738211499606453E+01    0.164344796623459644E+02    0.890960334936814036E+00    0.134460633830751930E+01    0.101935870409024076E+00    0.146236349639505958E+01   -0.543566762873805942E+01   -0.704803952739408146E+01    0.462932952665490727E-01    0.465104813230929560-309
    0.296162591954079198E+04   -0.524043052345682714E+00    0.962168951143349660E+00    0.302305106498721550E+02    0.130896496282398145E+01    0.826830632233561569E+00   -0.135823973022750160E+02    0.180494669716784051E+01   -0.163387686082193540E+01   -0.895881689370131973E+01    0.206249149520731541E-01    0.465104783353475623-309
    0.333237012042793822E+04   -0.117958308639442722E+01    0.106607695949357772E+01    0.231218771640468868E+01    0.121963703607103735E+01    0.833810925605238618E+00   -0.693095930346276390E+01    0.145905616817821637E+01   -0.889684698864778056E+01   -0.761697620156321875E+01    0.105962193353404982E+00    0.465104758274782490-309
    0.936069303967759083E+03   -0.162197406604503458E+01    0.149629922079287137E+01    0.419884660824208567E+01    0.102605812294208842E+01    0.129876406978988146E+01   -0.103969252929608977E+02    0.168075734659668941E+01   -0.122881255361121688E+01   -0.631252944252205417E+01    0.110423145623413429E-01    0.465104771342384045-309
    0.280987143578871564E+04   -0.176015798761145814E+01    0.109132701101256568E+01    0.299256985439660639E+02    0.141355895542429710E+01    0.731100202881959649E+00    0.313930053599785808E+01    0.178733966886678286E+01   -0.560921697788365492E+01   -0.125092489461097554E+02    0.358793250363069638E+00    0.465104763865234086-309
    0.583777842697589858E+04   -0.813515893189316275E+00    0.111818512026712047E+01    0.147155584363541010E+02    0.124605962361390787E+01    0.681217864095442271E+00    0.107188297617680561E+01    0.114324437101993093E+01   -0.121595826591430978E+00   -0.115239167070242967E+02    0.140278505011793675E+00    0.465104796760282887-309
    0.251538151272935329E+04   -0.194257894909825213E+01    0.116031640004039760E+01    0.147169364352956897E+02    0.123684715528667577E+01    0.882459689532850033E+00   -0.612449152082067805E+01    0.163328357646679079E+01   -0.984335976596590712E+01   -0.897707083869998534E+01    0.274162991813976742E+00    0.465104756730530908-309
    0.204632654920216191E+04   -0.186593631565077112E+01    0.914774308782326018E+00    0.308657875718131152E+02    0.136617773273619902E+01    0.102222864914234002E+01    0.135640068256693169E+01    0.184038149262356399E+01   -0.694677145908945803E+01   -0.670159609598199424E+01    0.474351248128304023E-01    0.465104756730530908-309
    0.311234802336126950E+04   -0.333582086441327696E+00    0.105019848349714362E+01    0.313249763347440009E+02    0.504474526420634395E+00    0.688427897961907398E+00   -0.497291594696203099E+01    0.143059427634223102E+01   -0.100455056953051773E+02   -0.137164738794073688E+02    0.192208066547539441E+00    0.465104785342544388-309
    0.544532155990600586E+04    0.260125696659088135E+00    0.104294116286028937E+01    0.403295445442199707E+02    0.155989845315185915E+01    0.117259966917435432E+01   -0.837986111640930176E+01    0.182410871982574463E+01   -0.100422245264053345E+02   -0.138629928231239319E+02    0.863465729713440017E-01    0.465104764795302783-309
    0.676118737459182739E+04    0.528331577777862549E+00    0.281342859818422275E+00    0.100392272472381592E+02    0.684021826014652667E+00    0.128583243093910160E+01   -0.730775356292724609E+01    0.155063337087631226E+01   -0.402006804943084717E+00   -0.111668497323989868E+02    0.149227743387222288E-01    0.465104730776669653-309
    0.416496904963984980E+04   -0.128852476417642281E+01    0.126221352501549955E+01    0.694756781752457719E+01    0.145478500078621531E+01    0.109740838786797545E+01    0.970358239649653598E+01    0.146251685518111607E+01   -0.117573883906641576E+02   -0.498176112827907147E+01    0.151010120451129409E+00    0.465104796760282887-309
    0.527269524725355768E+04    0.185235460968926624E+00    0.144671682478922237E+01    0.340018869187907669E+02    0.136618082093823978E+01    0.318289187301221077E+00   -0.447024076460666464E+01    0.175920083494734225E+01   -0.104824897457351653E+02   -0.148095232968149837E+02    0.116260461874975532E+00    0.465104780308529285-309
    0.534049294889485554E+04    0.153930982715623443E+00    0.460844722529397399E+00    0.172697934825045145E+02    0.122187557435059158E+01    0.129443185622953338E+01    0.626083833949143909E+00    0.145864582639295381E+01   -0.545647443288596001E+01   -0.107223287895875270E+02    0.185675069282136757E+00    0.465104775063370288-309
    0.429097392971499630E+04    0.455867198690622200E+00    0.146572025737914391E+01    0.243324330637825739E+02    0.862262051266211804E+00    0.770093570200200556E-01   -0.114867858997013581E+02    0.144841819000260119E+01   -0.106900891881185309E+02   -0.127656713848562777E+02    0.713887589117233046E-01    0.465104765736438551-309
    0.556662317465720207E+04   -0.534245036160854614E+00    0.399285467669707128E+00    0.188812054691093429E+02    0.142769821883000247E+01    0.727339037503219377E+00   -0.869202925233456369E+01    0.144751021799574664E+01   -0.104460597033975127E+02   -0.799973010118235450E+01    0.107981425327110664E+00    0.465104765736438551-309
    0.246367618216487790E+04   -0.107366736157390785E+01    0.135641198168658184E+01    0.498699215861480454E+02    0.107437926399728756E+01    0.537133581689368644E+00   -0.652176133943207681E+01    0.124367303004275742E+01   -0.254819411926490247E+01   -0.123292688234927201E+02    0.751825497504971518E-01    0.465104765736438551-309
    0.215817575181960410E+04   -0.185500508926218766E+01    0.111754510633530812E+01    0.498669319535704005E+02    0.110086291174560391E+01    0.114688424529618094E+01    0.631708134475901417E+01    0.174303120848148518E+01   -0.513800496941172469E+00   -0.170484832887804316E+01    0.209888140845315638E-01    0.465104788036032188-309
    0.142635435496391710E+04   -0.151331983597967756E+01    0.125813635539981394E+01    0.118760285267932257E+02    0.896174942537236507E+00    0.456150165283871478E+00    0.509102181997365477E+01    0.151607764953475721E+01   -0.703247642591880595E+01   -0.135233869435135965E+02    0.132837447750394383E+00    0.465104788036032188-309
    0.268958087283890154E+04    0.730691455842400472E+00    0.149965004914631694E+01    0.530132342956399949E+01    0.117609951192796025E+01    0.314882472257065393E+00   -0.538545748721931439E+01    0.193597110225182556E+01   -0.147817997954953686E+02   -0.980425117120337930E+01    0.422571359611690830E-01    0.465104788036032188-309
    0.412769585847854614E+04   -0.176590216159820557E+01    0.129626146330307473E+00    0.349994217753410339E+02    0.130330533722435438E+01    0.102092207567376539E+00    0.301421284675598145E+00    0.156881445646286011E+01   -0.239966243505477905E+01   -0.405794888734817505E+01    0.202584412336349495E+00    0.465104764796607116-309
    0.350912404060363770E+04   -0.182303321361541748E+01    0.694633185529080488E+00    0.493858478665351868E+02    0.750048257743415214E+00    0.494979666301331778E+00    0.952427387237548828E+01    0.133928871154785156E+01   -0.238444358110427856E+01   -0.849244505167007446E+01    0.121715572357177740E+00    0.465104764797476672-309
    0.278398467790550103E+04   -0.954151488021915961E+00    0.109871065795709733E+01    0.728213857780942533E+02    0.804107652697829467E+00    0.647158598174671584E+00   -0.106598616976714915E+02    0.116831672923780050E+01   -0.878473585841213911E+01   -0.661375589303039746E+00    0.101129575117018575E+00    0.465104790067630123-309
    0.866848274323359192E+03   -0.113594988604779190E+01    0.933386623251540648E+00    0.442510804807222584E+02    0.801619432877470728E+00    0.815396125002700090E+00   -0.121206370498431149E+01    0.173186840737319847E+01   -0.366230659394599378E+01   -0.797920769457139212E+01    0.103139655076607120E+00    0.465104758274782490-309
    0.298758715391159058E+04   -0.225897192955017090E+00    0.442734416796305708E+00    0.297971470355987549E+02    0.725223778492782745E+00    0.105214004528464855E+00    0.120750099420547485E+02    0.102228915691375732E+01   -0.110214722156524658E+02   -0.429559350013732910E+00    0.317555836844444273E+00    0.465104764795737561-309
    0.340555926665971811E+04   -0.630324445040477244E+00    0.866339089413888042E+00    0.503889648870763409E+02    0.945721308820983375E+00    0.381886333369234776E+00    0.699053319496672643E+01    0.115630617075178632E+01   -0.404897328619024677E+01   -0.567697298159476560E+01    0.231113225905016761E+00    0.465104783353475623-309
    0.273508095741271973E+04   -0.421880841255187988E+00    0.132877060301266603E+01    0.719548900723457336E+02    0.916151393840041628E+00    0.137947791336361456E-01    0.137256324291229248E+01    0.158954685926437378E+01   -0.424735218286514282E+01   -0.441645026206970215E+01    0.231117828440666195E+00    0.465104764797476672-309
    0.974802017211914062E+03    0.772443711757659912E+00    0.114218091153780277E+01    0.256388760209083557E+02    0.104967635079902699E+01    0.601009628017688646E+00    0.317807078361511230E+01    0.180563098192214966E+01   -0.133934766054153442E+01   -0.130252629518508911E+01    0.148686943745613115E+00    0.465104764797476672-309
    0.161119824980696558E+04    0.230037031993746588E+00    0.974381798968730672E+00    0.440182887466269435E+02    0.843168417423417527E+00    0.343583726609813123E+00    0.168683254125206616E+01    0.167168311347601017E+01   -0.248704029271232940E+01   -0.275992848619965869E+00    0.100416979983025859E+00    0.465104758274782490-309
    0.348507976531982422E+04   -0.382203280925750732E+00    0.104725577660400315E+01    0.441826879978179932E+02    0.711644528153928868E+00    0.691403078662024440E+00   -0.221931338310241699E+00    0.161942237615585327E+01   -0.219798266887664795E+01   -0.403978765010833740E+01    0.235367870163917553E+00    0.465104764797476672-309
    0.397664433717727661E+04   -0.165195637941360474E+01    0.143940142401538052E+01    0.207779129147529602E+02    0.726688569107191262E+00    0.472413745311573596E+00    0.124470126628875732E+02    0.137170964479446411E+01   -0.804008245468139648E+01   -0.597894519567489624E+01    0.151043487310409553E-01    0.465104730776669653-309
    0.620666251100135105E+04   -0.824551194445249269E+00    0.833557623160094407E+00    0.527741222480355674E+02    0.385841860366567035E+00    0.258951165820595297E+00    0.143966153788531983E+02    0.199831832878262405E+01   -0.788206348353014974E+01   -0.504225165814659704E+01    0.927680317517406428E-01    0.465104765736438551-309
    0.542480165996763299E+04   -0.184658494410105090E+01    0.327933316849961409E+00    0.635387776934120083E+02    0.120580191491558808E+01    0.910302243903787500E-01    0.408762129817912268E+01    0.161247213558389513E+01   -0.219190295809826452E+01   -0.103177740102064952E+01    0.317120621154193205E+00    0.465104765736438551-309
    0.404462827551139799E+04   -0.178272150390619788E+01    0.582038463470405887E+00    0.944486323495944333E+02    0.424328140156650047E+00    0.697912246656895330E+00    0.508907566496606378E+01    0.118301178147896269E+01   -0.542794037418976671E+01   -0.666442242534256479E+01    0.210730084004553786E+00    0.465104773013116433-309
    0.454986506700515747E+04   -0.128602385520935059E+01    0.724050638689678783E+00    0.797823688387870789E+02    0.284919423146185180E+00    0.633884042214709065E+00    0.986481428146362305E+01    0.191392678022384644E+01   -0.737579315900802612E+01   -0.634431660175323486E+01    0.159033749985694889E+00    0.465104730776669653-309
    0.598147442075640356E+04   -0.132794464776683574E+01    0.129936308389401556E+01    0.623923856319786339E+02    0.225347237948108153E+00    0.970308470850231197E+00    0.834233763011799212E+01    0.128285686588464820E+01   -0.834443453633769039E+01   -0.590853572201332078E+01    0.255847974855053471E-01    0.465104756730530908-309
    0.318224266388192336E+04   -0.149425534812920491E+01    0.979846568288011088E+00    0.584334807462403489E+02    0.567700656802171300E+00    0.909293230108038752E+00    0.279575479062609489E+00    0.157164041265051502E+01   -0.664540547707094120E+01   -0.607749083911192223E+01    0.401355994950573003E+00    0.465104783353475623-309
    0.635186772524974276E+04    0.147445781675024534E+00    0.716916912325805677E+00    0.563780717337576576E+02    0.499137950681281251E+00    0.121246975777708177E+01    0.432372376901820843E+01    0.181957648116598292E+01   -0.568033988959804681E+01   -0.120249069541595333E+01    0.191843147912723389E+00    0.465104785342544388-309
    0.608960742979856877E+04   -0.155064601056913487E+01    0.691920411962246629E+00    0.961235907072656914E+02    0.697451127272852855E+00    0.680225572841451243E+00    0.850536770090638328E+00    0.142650790481590728E+01   -0.447414996007885435E+01   -0.118667126348580663E+02    0.459982941139710499E+00    0.465104790067630123-309
    0.651944953203201294E+04   -0.119087553024291992E+01    0.970607443899359046E+00    0.367502422928810120E+02    0.286598806287805319E+00    0.101746874636588114E+01   -0.105594474077224731E+02    0.114748716354370117E+01   -0.261026233434677124E+01   -0.672488898038864136E+01    0.378172240304946894E+00    0.465104764798346228-309
    0.455170631408691406E+03    0.998325943946838379E-01    0.114246582868235391E+01    0.655894024372100830E+02    0.273385636569107304E+00    0.122006684335554483E+01    0.134624326229095459E+02    0.141970670223236084E+01   -0.917786657810211182E+01   -0.121613529324531555E+02    0.290384194564819342E+00    0.465104764795737561-309
    0.516696917404599958E+03   -0.418211287267805432E+00    0.120639825761784869E+01    0.858729317923805695E+02    0.426092733944458846E+00    0.110620273937551450E+01    0.976122978437932787E+01    0.107899353117392360E+01   -0.103110444829301979E+02   -0.818516061886048973E+01    0.191105327946806347E+00    0.465104783353475623-309
    0.453711843445338400E+04    0.517321186312473369E+00    0.151182202505463548E+01    0.841524928441097728E+02    0.534660690112910397E+00    0.147474129420551558E+01    0.741743437443102138E+01    0.164869933894337084E+01   -0.786116600855165792E+01   -0.920631682776138582E+01    0.158098285252280368E+00    0.465104736967667923-309
    0.182302524304332314E+04    0.534655402911576871E+00    0.119753875592040337E+01    0.830131984613995542E+02    0.757420716295734930E+00    0.155762249065738545E+01    0.136576279911296261E+02    0.121827616370406866E+01   -0.493054303411169492E+01   -0.739853941098478884E+01    0.217724973569273728E+00    0.465104736967667923-309
    0.355804371833801270E+04    0.665247082710266113E+00    0.148829960085256929E+01    0.836566727757453918E+02    0.501863948122159620E+00    0.129653939962446696E+01    0.192516982555389404E+01    0.145234489440917969E+01   -0.108556607365608215E+02   -0.105590254068374634E+01    0.471717033576965372E+00    0.465104730776669653-309
    0.356542757010776768E+04   -0.486697119971553072E-01    0.904014157297463705E+00    0.794343718460239785E+02    0.720733892350568284E+00    0.155021270069112349E+01    0.427089197723100256E+01    0.127790892059987371E+01   -0.548695561106609020E+01   -0.193641462905293693E+01    0.350012746934772079E+00    0.465104775063370288-309
    0.142198955110715588E+04   -0.132119519446421130E+01    0.129981588590794073E+01    0.917893482995537795E+02    0.569941075166163769E+00    0.771965732235445512E+00    0.190625539256577881E+01    0.162465094737603577E+01   -0.880898658331415874E+01   -0.963514916155519430E+01    0.311503876963576676E+00    0.465104765736438551-309
    0.431242435281364214E+04   -0.137333769575860520E+01    0.117205652832492957E+01    0.904490798548313961E+02    0.486805659736016971E+00    0.550809450264330702E+00    0.125903207304963551E+02    0.194883414891301410E+01   -0.372899411866349340E+01   -0.513960437809519632E+01    0.291767429856595983E+00    0.465104788036032188-309
    0.379131447656202408E+04   -0.153619763839897816E+01    0.402527083877207592E+00    0.335641771127227813E+02    0.269811999010923786E+00    0.880929951357842689E+00    0.690755186251013598E+01    0.169751925693993266E+01   -0.675212319284175777E+01   -0.227297437249895751E+01    0.115159309259295198E+00    0.465104781812069858-309
    0.269857601867994754E+04   -0.107634222239976762E+01    0.310241872056755741E+00    0.465334531490184347E+02    0.296991426062710229E+00    0.413325681283915392E+00   -0.945106938735128033E+01    0.136004164296241159E+01   -0.860323080658145045E+01   -0.257175999779362741E+01    0.328932795507933140E+00    0.465104773013116433-309
    0.453974676132202148E+04   -0.888645291328430176E+00    0.957367407879284760E+00    0.811307684183120728E+02    0.447851701861017026E+00    0.110023264620308736E+01   -0.593327343463897705E+01    0.181497633457183838E+01   -0.105297160148620605E+02   -0.238794833421707153E+01    0.723194223403930692E-01    0.465104764798346228-309
    0.453974676132202148E+04   -0.888645291328430176E+00    0.957367407879284760E+00    0.811307684183120728E+02    0.447851701861017026E+00    0.110023264620308736E+01   -0.593327343463897705E+01    0.181497633457183838E+01   -0.105297160148620605E+02   -0.238794833421707153E+01    0.723194223403930692E-01    0.465104764798346228-309
    0.435938497859970448E+04   -0.106018356607507047E+01    0.971849534998221687E+00    0.764720273509766173E+02    0.453124663187118415E+00    0.124467330040817714E+01   -0.671419393991491020E+01    0.161802052945581609E+01   -0.624228366096823173E+01   -0.202926328295363056E+01    0.327437166538784158E-01    0.465104763865234086-309
    0.395847995230762081E+04   -0.162134476712766640E+01    0.117260873232722007E+01    0.494868722984793976E+02    0.381828708257055227E+00    0.805959448860822603E+00    0.130331783087954634E+01    0.110578687796764386E+01   -0.851694967452982610E+01   -0.864394064053163547E+00    0.254266132387458821E+00    0.465104790953707215-309
    0.151427197456359863E+04   -0.158897042274475098E+00    0.486257145152651837E+00    0.408960211873054504E+02    0.310661631869648180E+00    0.937380324738795956E+00   -0.554630041122436523E+01    0.110417860746383667E+01   -0.382110804319381714E+01   -0.479572892189025879E+01    0.291593496394157436E+00    0.465104730776669653-309
    0.598826956748962402E+04   -0.174825268983840942E+01    0.615513105616477318E+00    0.347963967919349670E+02    0.321141555669111289E+00    0.790590890598236506E+00   -0.112440168857574463E+01    0.167806082963943481E+01   -0.926930308341979980E+01   -0.756576061248779297E+00    0.459835715603828465E+00    0.465104730776669653-309
    0.645657217502593994E+04    0.315234720706939697E+00    0.485554539434164822E+00    0.141346777081489563E+02    0.338344348760208191E+00    0.119687427848069650E+01    0.587862432003021240E+01    0.120423787832260132E+01   -0.128429344296455383E+02   -0.109127461910247803E+01    0.325300179147720359E+00    0.465104730776669653-309
    0.235232144594192505E+04    0.285166442394256592E+00    0.636125436595986637E+00    0.295439175367355347E+02    0.361841855982843630E+00    0.361917131895530431E+00    0.898696839809417725E+01    0.103010511398315430E+01   -0.117919027805328369E+02   -0.310689210891723633E-01    0.458692806816101084E+00    0.465104764795302783-309
    0.543234604597091675E+04   -0.129442185163497925E+01    0.110566163147839602E+01    0.413893625736236572E+02    0.342347548012382652E+00    0.582171175480524702E-01   -0.283307611942291260E+01    0.101792895793914795E+01   -0.125192686915397644E+02   -0.188594430685043335E+01    0.561747362709045461E+00    0.465104730776669653-309
    0.278743849056345016E+04   -0.169056258313761520E+01    0.390624224494905248E+00    0.210764678506942893E+02    0.878619584873827408E+00    0.119668349598454848E+01   -0.667876991326377301E+01    0.102694760123090356E+01   -0.143694180664763067E+02   -0.397978635984879681E+01    0.250170408846790038E+00    0.465104796760282887-309
    0.144354628719860307E+04   -0.975978084841504501E+00    0.828024434840251011E+00    0.679906055630547446E+01    0.271695580246429536E+00    0.100135018590377944E+01    0.111847946710011570E+01    0.123435705330698364E+01   -0.106303588396965587E+02   -0.617816044162945843E+01    0.382431052118992199E+00    0.465104790953707215-309
    0.207733478160777941E+04   -0.485359202120429600E+00    0.541381152043225455E+00    0.462108514091053593E+02    0.219047196869297106E+00    0.929563680247551316E+00   -0.144757983102877823E+02    0.109322651179437957E+01   -0.490480019010583135E+00   -0.488030057028743514E+01    0.368659705305502794E+00    0.465104780308529285-309
    0.251748313068390735E+04   -0.176892304474904649E+01    0.772587676697861214E+00    0.560687028535019536E+02    0.754272315806763904E+00    0.121814164036619954E+01   -0.103232377067719572E+02    0.113025308437600613E+01   -0.139588099867077293E+02   -0.524601909842414393E+01    0.150787254216723232E+00    0.465104775063370288-309
    0.293205657716058340E+04   -0.101063001904396588E+01    0.638275621524254100E+00    0.188263267868976385E+02    0.389868243158396133E+00    0.153866083315788615E+01    0.844588717616028362E+01    0.127497050078861540E+01   -0.920559567266643697E+01   -0.287227038370462573E+01    0.208784854501242789E+00    0.465104775063370288-309
    0.519101207417204114E+04   -0.141927278554129277E+01    0.151552624709041805E+01    0.728078026241792884E+02    0.515567607945215278E+00    0.978946027497668680E+00    0.533782719356381108E+00    0.143222603466500398E+01   -0.148720101514776051E+02   -0.127954739464379230E+01    0.280070694774292972E+00    0.465104775063370288-309
    0.371810191922311105E+04   -0.185928983033469364E+01    0.125834230599430552E+00    0.565248106728638007E+02    0.112984889646145525E+01    0.106267773735248783E+01    0.652452896709441887E+01    0.182838007695723270E+01   -0.651066640898067028E+01   -0.385384718264919179E+01    0.130682131367215765E+00    0.465104772007910233-309
    0.563135719299316406E+04   -0.176721411943435669E+01    0.119686739611483173E+01    0.829799680709838867E+02    0.938278954353183536E+00    0.127363342625301934E+01    0.974722802639007568E+01    0.160690236091613770E+01   -0.894469499588012695E+01   -0.349523752927780151E+01    0.125412634420394908E+00    0.465104764797911450-309
    0.310693249131742368E+04   -0.180662935547441728E+01    0.139179353612220025E+01    0.845034137590750163E+02    0.665810056985798759E+00    0.157031136063217858E+01    0.765842875806354684E+01    0.173390524582955297E+01   -0.129339798602575549E+02   -0.418670671640849079E+01    0.167669218801102110E+00    0.465104813230929560-309
    0.186246752738952637E+04   -0.166201967000961304E+01    0.125036058817697326E+01    0.722203107476234436E+02    0.801281006467328694E+00    0.147035513346174707E+01    0.393563568592071533E+01    0.154377710819244385E+01   -0.114892762899398804E+02   -0.474543035030364990E+01    0.742953488588333211E-01    0.465104730776669653-309
    0.953808128833770752E+03   -0.175381076335906982E+01    0.142154358451810126E+01    0.911605955958366394E+02    0.644688195473916315E+00    0.125138667887812338E+01   -0.766284763813018799E+01    0.157922840118408203E+01   -0.763856470584869385E+01   -0.237847477197647095E+01    0.351620414257049554E-02    0.465104730776669653-309
    0.917504310607910156E+03   -0.147559666633605957E+01    0.937258372949388519E+00    0.824367939233779907E+02    0.127147448686167075E+01    0.141313036591191232E+01    0.382894814014434814E+01    0.150272804498672485E+01   -0.120712816715240479E+01   -0.537809461355209351E+01    0.601234368324279830E-01    0.465104764795302783-309
    0.679739276539219077E+03   -0.809912002157624933E+00    0.118152374446915753E+01    0.789313008260873374E+02    0.119924715384593794E+01    0.134409814597699540E+01   -0.147027307798225060E+01    0.171895436965512216E+01   -0.553223319034847982E+01   -0.277744239529531356E+01    0.369310129411625707E-01    0.465104678350296791-309
    0.291850637564445333E+04   -0.188609810536445099E+01    0.117296015510034968E+01    0.841641774262760123E+02    0.692846234422819562E+00    0.132698075881706767E+01    0.721610557431686672E+01    0.124287305941267312E+01   -0.102014720115278870E+02   -0.588221795799180924E+01    0.142143235941319723E+00    0.465104763865234086-309
    0.589333128600519740E+04   -0.117777722306491528E+01    0.339053288012512055E+00    0.552642660952410409E+02    0.847275914570083666E+00    0.144563864006229759E+01    0.101321232841563464E+02    0.171861235638673371E+01   -0.136819752769945122E+02   -0.475659465802251624E+01    0.304762465922672199E+00    0.465104760988902472-309
    0.511379569768905640E+04    0.678498089313507080E+00    0.108783589824027205E+01    0.905397720336914062E+02    0.861443781654117169E+00    0.129421483449985608E+01    0.142520928382873535E+02    0.188971608877182007E+01   -0.443480551242828369E+01   -0.563802123069763184E+01    0.410419538497924841E+00    0.465104730776669653-309
    0.628018629550933838E+04    0.485299110412597656E+00    0.106199138254393866E+01    0.700685858130455017E+02    0.105758490934223448E+01    0.156820698520128299E+01    0.826290249824523926E+01    0.121506381034851074E+01   -0.449592053890228271E+01   -0.417551100254058838E+01    0.138878173613548289E+00    0.465104764798346228-309
    0.592529795170703437E+04   -0.190657504007601308E+01    0.130247412001447338E+01    0.744743718221324258E+02    0.115157307497845607E+01    0.905096977506831490E+00    0.900480680625563679E+01    0.139451272681528238E+01   -0.107307960676686811E+02   -0.692969305983911177E+01    0.216500313201467176E+00    0.465104756730530908-309
    0.314458833997459442E+04   -0.191085516987027626E+01    0.138095375003741627E+01    0.952782272468666918E+02    0.120866572847444109E+01    0.857499655695902141E+00   -0.339635436912486455E+01    0.137859355015720464E+01   -0.375723955013757305E+01   -0.305508500145181117E+01    0.139150062284948989E-01    0.465104765736438551-309
    0.462574453161103463E+03   -0.155275327815728970E+01    0.975079655631002074E+00    0.696808772902200388E+02    0.108140106859553264E+01    0.126626155398244333E+01   -0.386401120287036548E+01    0.138526074012977363E+01   -0.729381315015261134E+01   -0.514804594313565289E+01    0.968118163217864675E-01    0.465104765736438551-309
    0.272846481012067534E+04   -0.101822664940322571E+01    0.671369877478489863E+00    0.673995726912636428E+02    0.123358885615364966E+01    0.601583234142562318E+00    0.256554933065626756E+01    0.197152623017551454E+01   -0.724549110031156207E+01   -0.101973959934561424E+02    0.149260541438820588E+00    0.465104678350296791-309
    0.389304637908935547E+03   -0.171770733594894409E+01    0.511565662657379683E+00    0.777485017776489258E+02    0.108085443541139692E+01    0.747346844921585096E+00   -0.108321422338485718E+02    0.115788823366165161E+01   -0.917701810598373413E+01   -0.376457244157791138E+01    0.154481561923027033E+00    0.465104764796607116-309
    0.590620994567871094E+03   -0.265254855155944824E+00    0.347717284889457301E+00    0.954727846384048462E+02    0.147691331328768927E+01    0.444140430837396516E+00   -0.135922497510910034E+02    0.377269065380096436E+01   -0.316242277622222900E+00   -0.503335118293762207E+01    0.798371548891067540E-01    0.465104730776669653-309
    0.572998929023742676E+04   -0.112767124176025391E+01    0.572026451018031956E+00    0.959223888516426086E+02    0.417009830933296521E+00    0.120059491218002434E+01    0.113705295324325562E+02    0.160972189903259277E+01   -0.109741964936256409E+02   -0.833508878946304321E+01    0.374972853112220783E+00    0.465104764795302783-309
    0.485878278734074775E+04   -0.420558882211158336E+00    0.681220838354518521E+00    0.965911259922840770E+02    0.137580459392083321E+01    0.826792222965309520E+00   -0.261183795399620244E+01    0.398580322684286070E+01   -0.747316976891290885E+01   -0.599587556409447231E+01    0.441590597771488458E+00    0.465104790067630123-309
    0.294252543190843244E+04   -0.183952751550446059E+01    0.132799092910377547E+01    0.728999964572733319E+02    0.970631504979083126E+00    0.783158473624178786E+00    0.100567440010141453E+02    0.161110708180161355E+01   -0.782762864414309778E+01   -0.437061521976339762E+01    0.419335488914987009E+00    0.465104790953707215-309
    0.509841727667293071E+04   -0.121535241454693543E+01    0.129554120932255823E+01    0.940492272151711290E+02    0.119541365230720698E+01    0.510786700168924468E+00    0.103435847643532846E+02    0.141704417701436780E+01   -0.135712897987024679E+02   -0.462711961587129395E+01    0.408748879419507827E+00    0.465104790067630123-309
    0.296026020287587107E+04   -0.182794094296826137E+01    0.867843697588139840E+00    0.657414769246871060E+02    0.739576851872983831E+00    0.725691378501739148E+00   -0.423650382515477375E+01    0.141305748946835164E+01   -0.813518275191428941E+01   -0.130091017604193659E+02    0.624660953628393481E-01    0.465104736967667923-309
    0.423655426685800740E+04   -0.197229344961899566E+01    0.927467307413991859E+00    0.693527242099207939E+02    0.531554588000768713E+00    0.108815658825918193E+01   -0.400295959097537057E+01    0.177049482450194540E+01   -0.136999393388781243E+02   -0.102310133796067610E+02    0.605120774773265022E-01    0.465104813230929560-309
    0.669636296022534793E+03   -0.120276650337535806E+01    0.951120614215370752E+00    0.516857454721667011E+02    0.644461542453271030E+00    0.930123516594675515E+00    0.366338299344524643E+01    0.199967430146732172E+01   -0.102720801521118652E+02   -0.983597335897132119E+01    0.823539442858605419E-01    0.465104790953707215-309
    0.936494231224060059E+03    0.159794092178344727E+00    0.113251557653985002E+01    0.288617486357688904E+02    0.290473456002518449E+00    0.952520333118058393E+00   -0.146199327707290649E+02    0.115163493156433105E+01   -0.131305360794067383E+02   -0.427665084600448608E+01    0.240593916893005397E-01    0.465104764798346228-309
    0.522481779044011637E+04   -0.106373727503129478E+01    0.104296642002088946E+01    0.626566808159983992E+02    0.527010276281565604E+00    0.554070101804999715E+00   -0.564299840106326478E+01    0.167320811323739349E+01   -0.792260026393370698E+01   -0.119286438511403663E+02    0.120904167513275224E-01    0.465104678350296791-309
    0.829723179340362549E+03    0.902022123336791992E+00    0.125695566093330369E+01    0.611218614578247070E+02    0.290499671494498901E+00    0.671033922273472472E+00   -0.646505892276763916E+01    0.154756438732147217E+01   -0.102355340123176575E+02   -0.123723694682121277E+02    0.594029051542282124E-01    0.465104730776669653-309
    0.151355021095170650E+04    0.719860065294753326E+00    0.717224057094296263E+00    0.590615308499307687E+02    0.525445033884502477E+00    0.551327261887465614E+00   -0.113251940841146421E+02    0.111979696657919892E+01   -0.120119734507704905E+02   -0.796629071255999133E+01    0.181588004142733295E+00    0.465104758274782490-309
    0.532639557793830591E+03   -0.702718461441342424E+00    0.715097181111868263E+00    0.865472809412829065E+02    0.104919957035644229E+01    0.783945729353981324E+00   -0.881118547847611744E+01    0.197783654580814550E+01   -0.115122388848719801E+02   -0.798411754407261576E+01    0.147907818094122817E+00    0.465104801200391559-309
    0.365389454364776611E+04   -0.169789922237396240E+01    0.118095570145614981E+01    0.852390355467796326E+02    0.334147623001163629E+00    0.145401801336654790E+01   -0.100887787342071533E+02    0.143741679191589355E+01   -0.248096466064453125E+01   -0.117780321836471558E+02    0.416856183528900165E-01    0.465104730776669653-309
    0.357040824472185250E+04   -0.401532518125792048E+00    0.967801534605301494E+00    0.792936563316270195E+02    0.284211880604277933E+00    0.113405883556479248E+01   -0.857505868718901354E+01    0.105065006744919276E+01   -0.964796384107839700E+01   -0.748917647908787742E+01    0.697155819284339812E-01    0.465104781812069858-309
    0.188420806001200930E+03    0.848708442590906387E-01    0.337530682390673298E+00    0.519751036942760436E+02    0.331833988324708618E+00    0.998340127771527031E+00   -0.115221085751683283E+02    0.141549770347349413E+01   -0.713394565163947192E+01   -0.410869238358848321E+01    0.263366241312345761E+00    0.465104807407041828-309
    0.494166433811187744E+04    0.386831283569335938E+00    0.117728844544291422E+01    0.582293838858604431E+02    0.431324706702473748E+00    0.146444016945689692E+01   -0.145452421903610229E+02    0.163320893049240112E+01   -0.103860667347908020E+02   -0.684945970773696899E+01    0.232101373457908627E+00    0.465104730776669653-309
    0.359590506553649902E+04   -0.156249862909317017E+01    0.152878832825953292E+01    0.958803157210350037E+02    0.556899909345139443E+00    0.110361313389396853E+01   -0.117260259389877319E+02    0.100802463293075562E+01   -0.957304000854492188E+01   -0.109758889675140381E+02    0.107311455273628245E+00    0.465104730776669653-309
    0.173450148105621338E+04    0.388370156288146973E-01    0.134747669857529440E+01    0.236170467138290405E+02    0.299330828101904756E+00    0.140449404658597565E+01    0.396506488323211670E+01    0.101243901252746582E+01   -0.909977674484252930E+01   -0.148127970099449158E+02    0.862700469732284592E-01    0.465104730776669653-309
    0.114348049624219720E+04   -0.992515386876874128E+00    0.120553321242120348E+01    0.722759217873841493E+02    0.596922253419707172E+00    0.117030542096873047E+01   -0.530277471432285452E+01    0.109671657906166442E+01   -0.592053494503173994E+01   -0.982324473979972623E+01    0.546452005258063200E-01    0.465104796760282887-309
    0.515957766912522402E+03   -0.185939553511022893E+01    0.107759448253129730E+01    0.897704767610256056E+02    0.252967983702691246E+00    0.123817841380248650E+01   -0.790429667574175454E+01    0.113504364754778697E+01   -0.130414684888686967E+02   -0.994723314944950410E+01    0.137110995524269363E+00    0.465104790953707215-309
    0.200589059800294831E+04    0.382327029991638589E+00    0.740374822649998321E+00    0.708282958178301243E+02    0.659127888485905422E+00    0.535590298187432423E+00   -0.127136878658498613E+02    0.116616323934525035E+01   -0.122377798658235477E+02   -0.959626972476062257E+01    0.117013478958569020E+00    0.465104780308529285-309
    0.186942573575914707E+04    0.569470486312818380E+00    0.103141459862332407E+01    0.448296054164731004E+02    0.537435684518777768E+00    0.125911375457650854E+01   -0.685079429654199856E+01    0.107341854602613229E+01   -0.133437385808875799E+02   -0.954070960794833312E+01    0.276363213341078218E+00    0.465104775063370288-309
    0.341023706145982487E+04    0.635176390992079121E+00    0.953378759120264929E+00    0.603688855108002898E+02    0.612770985320546080E+00    0.744573499331531385E+00   -0.256491722034158265E+01    0.177672025163704395E+01   -0.143276962558166137E+02   -0.112317247586410431E+02    0.835816429350247081E-01    0.465104775063370288-309
    0.488053101301193237E+04    0.329772293567657471E+00    0.793749114155491209E+00    0.616346107721328735E+02    0.273194263477649857E+00    0.315152532899416415E+00   -0.130601298809051514E+02    0.127742141485214233E+01   -0.697155296802520752E+01   -0.139006528258323669E+02    0.351458014011383074E-01    0.465104764798781005-309
    0.936184149546004392E+03    0.802954236037631830E+00    0.649310380561740175E+00    0.562865279857359369E+02    0.389700925814880583E+00    0.102072888966718156E+01   -0.626969438417422964E+01    0.112364493811119148E+01   -0.659217082236751928E+01   -0.126022692279637383E+02    0.297900426699143683E+00    0.465104785342544388-309
    0.277981328964233398E+04    0.194543004035949707E-01    0.743158649626373125E+00    0.783700157403945923E+02    0.154203924286692273E+00    0.332100193077489114E+00   -0.177170991897583008E+01    0.144592475891113281E+01   -0.233298450708389282E+01   -0.139472025632858276E+02    0.231998918008804317E+00    0.465104730776669653-309
    0.258127236366271973E+04   -0.264220237731933594E+00    0.474838376300392773E+00    0.229487153291702271E+02    0.262065599878427258E+00    0.860227289199466449E+00   -0.353790521621704102E+01    0.196272957324981689E+01   -0.555682986974716187E+01   -0.138918006420135498E+02    0.782494536638259908E-01    0.465104764796172339-309
    0.271007547421143727E+04    0.140992951106773123E+00    0.103285046477675135E+01    0.902959799243431576E+02    0.497459802222909087E+00    0.450807458938756234E+00   -0.103458119956800374E+02    0.109629184550126935E+01   -0.376380350520973117E+01   -0.394857952027792258E+01    0.171483078927965937E+00    0.465104771342384045-309
    0.191673233484592333E+04    0.646991668467926218E+00    0.114552341462407603E+01    0.755735065327435791E+02    0.368927506059500421E+00    0.812759391334016534E+00    0.204200010438843549E+01    0.124192476444015276E+01   -0.688879115838932776E+01   -0.126217446132141582E+02    0.463717620991020915E-01    0.465104772007910233-309
    0.333120097844384009E+04    0.203990840121950789E+00    0.548645928004277694E+00    0.414017976686989755E+02    0.493963848503519654E+00    0.779615062561479721E+00    0.231296881403926591E+01    0.139350655588582439E+01   -0.226669403457436047E+01   -0.129132941101965102E+02    0.529709708723249184E+00    0.465104813230929560-309
    0.119841486215591431E+04    0.351837217807769775E+00    0.386714794070894263E+00    0.859186316728591919E+02    0.685571910604754864E+00    0.718795552605657861E+00   -0.142537236213684082E+01    0.109492713212966919E+01   -0.122364065051078796E+02   -0.134941703081130981E+02    0.477577260088920597E+00    0.465104764796607116-309
    0.550487983226776123E+04   -0.341630220413208008E+00    0.115623317043304619E+01    0.877525658011436462E+02    0.564691528068762660E+00    0.997751325833315050E+00   -0.881885468959808350E+01    0.184762257337570190E+01   -0.215065509080886841E+01   -0.148758056759834290E+02    0.330138614702224720E+00    0.465104730776669653-309
    0.626139405972783061E+04    0.868543565792565531E+00    0.101723447361931574E+01    0.693770682493635746E+02    0.223108196308809459E+00    0.943888911569378153E+00   -0.137088239620819508E+01    0.105698338303077088E+01   -0.127520107489513776E+02   -0.122423212385835818E+02    0.217671518964452915E+00    0.465104774428120443-309
    0.476745478427154103E+04   -0.200014633662133123E+00    0.990956213880611836E+00    0.895147317296237333E+02    0.117349167870533222E+01    0.125987344582290861E+01   -0.139091202322683518E+02    0.247827159755959325E+01   -0.909187516436059084E+01   -0.117781639667618272E+02    0.446458962031997308E+00    0.465104765736438551-309
    0.454318239201489541E+04   -0.169389085221818414E+01    0.854324985399922521E+00    0.776309136245158840E+02    0.357107890851662335E+00    0.650326808158639968E+00    0.119880507034841237E+02    0.136399552639636479E+01   -0.823679361866453874E+01   -0.133683171744337166E+02    0.858209476115875530E-01    0.465104813230929560-309
    0.150253397226333618E+04   -0.206315636634826660E+00    0.438302594515398714E+00    0.555952636599540710E+02    0.391447760090442187E+00    0.461779243736182843E+00    0.566403865814208984E+01    0.152423560619354248E+01   -0.134683236479759216E+02   -0.606552779674530029E+01    0.643971903562545744E-01    0.465104730776669653-309
    0.204297441244125366E+04    0.854871392250061035E+00    0.118627860723017742E+01    0.284692116379737854E+02    0.230781529777050520E+00    0.591039127403460318E+00    0.339417099952697754E+01    0.167072337865829468E+01   -0.148470559716224670E+02   -0.827071577310562134E+01    0.169439750432968141E-01    0.465104764797476672-309
    0.105747538805007935E+04    0.303537249565124512E+00    0.136456124219843522E+01    0.844537727236747742E+02    0.755513438807286053E+00    0.682360887344175882E+00    0.488140940666198730E+01    0.149659973382949829E+01   -0.113624936342239380E+02   -0.142382383346557617E+00    0.133187000298500058E+00    0.465104764797911450-309
    0.168242335319519043E+04   -0.529136657714843750E-01    0.132493828599720831E+01    0.925974431633949280E+02    0.109559175510848794E+01    0.204569876493623015E+00    0.907602131366729736E+01    0.142230308055877686E+01   -0.127155688405036926E+02   -0.955138206481933594E+01    0.941229517936706533E-01    0.465104730776669653-309
    0.194218425548185678E+04    0.396391945796953138E+00    0.834719171477383948E+00    0.750745785364726430E+02    0.726219774106890426E+00    0.253747476271539762E+00    0.123235290234124619E+02    0.145887984732611020E+01   -0.113861138789941716E+02   -0.722631852138326636E+01    0.302035763555319747E+00    0.465104785342544388-309
    0.695688529952539398E+03    0.769019058769726982E+00    0.116604544392998988E+01    0.700288386138060162E+02    0.318308952158361413E+00    0.273196078248717444E+00    0.104193782806043913E+02    0.169567541337195005E+01   -0.991402247475033960E+01   -0.933626583964175794E+01    0.389130487146389439E-01    0.465104790067630123-309
    0.266311752796173096E+04   -0.449279785156250000E+00    0.112334019117374950E+01    0.577369571328163147E+02    0.233965120397807091E+00    0.949935204728512977E-01    0.114678579568862915E+02    0.170819330215454102E+01   -0.214469164609909058E+01   -0.507866710424423218E+01    0.716582213401794482E-01    0.465104764795302783-309
    0.368099890040677838E+04    0.851979494847832086E-03    0.147291392226152529E+01    0.834131451454455544E+02    0.583244334873277981E+00    0.118452454497407045E+00    0.104174225448600133E+02    0.189065105762896080E+01   -0.656368534745710086E+01   -0.195533819747472215E+01    0.175807215575489562E+00    0.465104775026453703-309
    0.391943341493606567E+04    0.613673746585845947E+00    0.120197674854375425E+01    0.915140157938003540E+02    0.116316021952624449E+01    0.230255066522028484E+00   -0.285529553890228271E+01    0.139745509624481201E+01   -0.586012512445449829E+01   -0.509315907955169678E+01    0.209692357206344604E+00    0.465104764795302783-309
    0.462384411413949408E+03    0.228984782400751374E+00    0.985490935704849025E+00    0.331405154705813985E+02    0.105629624274845546E+01    0.781678503686833448E+00    0.850129200178048805E+01    0.160499748230459960E+01   -0.141363044194132428E+02   -0.213165243691233108E+01    0.179635735578145994E+00    0.465104756730530908-309
    0.407812314742580156E+04    0.336756323462327867E+00    0.130388367465038257E+01    0.380590459453490695E+02    0.525324770880564285E+00    0.104852023858880172E+01   -0.260379462477750678E+01    0.151688939702437531E+01   -0.695322612951495067E+01   -0.502531355280137504E+01    0.961779571719142828E-01    0.465104774428120443-309
    0.186028928400289351E+04   -0.112312366748142400E+01    0.125073484447540872E+01    0.445077740526878074E+02    0.335961250211838813E+00    0.471390512609627998E+00    0.240650268225887487E+01    0.109311184652120486E+01   -0.667277834884155219E+01   -0.684645483703353008E+01    0.196050910064331757E+00    0.465104736967667923-309
    0.280162693698248040E+04   -0.294475758374173946E+00    0.118022522751483172E+01    0.608580763906649764E+02    0.207447146646384140E+00    0.339846453915400082E+00    0.499499467517957640E+01    0.150090789394393087E+01   -0.104023043118917080E+02   -0.960953797399677256E+01    0.218078568493822844E+00    0.465104758274782490-309
    0.375330811738967896E+04   -0.121433627605438232E+01    0.153010516688021680E+01    0.184841778874397278E+02    0.151385384391763717E+00    0.684285385335813401E+00    0.145803755521774292E+02    0.186647742986679077E+01   -0.814426392316818237E+01   -0.607788383960723877E+01    0.292128018379211422E-01    0.465104730776669653-309
    0.404755759239196777E+04   -0.635019540786743164E+00    0.777337729283698931E+00    0.825421832799911499E+02    0.333554497495105573E+00    0.481339933077408633E+00    0.752613186836242676E+01    0.180922138690948486E+01   -0.137225818634033203E+02   -0.807066857814788818E+01    0.518241940426826475E+00    0.465104730776669653-309
    0.436584107725037120E+04   -0.153720087786124782E+01    0.149567145064184515E+01    0.663237893829767842E+02    0.669207584426123159E+00    0.112816437218167032E+00    0.303992986939526588E+00    0.138468100299924712E+01   -0.129822886638307970E+02   -0.839854828680955556E+01    0.922384881617679675E-01    0.465104796769373695-309
    0.446862057643873322E+04   -0.911036755796553965E+00    0.147538060279099925E+01    0.661331293690083299E+02    0.505258027477666793E+00    0.364805576749945737E+00   -0.229210172448066096E+01    0.100208960307683870E+01   -0.116165959927450722E+02   -0.861222350831046057E+01    0.232863676417884247E+00    0.465104763865234086-309
    0.362539764265066833E+04   -0.927224760152993266E+00    0.128807316056330801E+01    0.671680399508583434E+02    0.675683114129426166E+00    0.242945094670076522E+00   -0.433267380198472907E+01    0.153048232906908122E+01   -0.127663208858046922E+02   -0.106973495540645658E+02    0.172779764061859742E+00    0.465104796760282887-309
    0.353777189803168494E+04    0.632529313928176684E+00    0.128187836869323046E+01    0.864852456672869891E+02    0.284538458244971648E+00    0.487000291022572029E+00    0.142894350867359421E+01    0.197578445762857657E+01   -0.106911223850941006E+02   -0.107923927715784274E+01    0.256433372230351231E+00    0.465104780308529285-309
    0.555263238798585371E+04   -0.983354286214114914E+00    0.114382398717843858E+01    0.698097433903781734E+02    0.243964809683579531E+00    0.559158811303225312E+00   -0.123494179213603417E+01    0.168480220683331150E+01   -0.126975860752235210E+02   -0.966115974916164788E+01    0.217667572206647841E+00    0.465104775063370288-309
    0.134909341785701395E+04   -0.994200871314008694E+00    0.146104555292194238E+01    0.411735008414040990E+02    0.139117370450319439E+00    0.617498182731192391E+00    0.724507810384997342E+01    0.129015524287119443E+01   -0.607660677055695686E+01   -0.454854795133150525E+01    0.135145007858351331E-02    0.465104775063370288-309
    0.646348029678687340E+03    0.972414518623725410E+00    0.119921188000066947E+01    0.688834096248581886E+02    0.763952938721849772E+00    0.137176800131119492E+00    0.840475373590580688E+01    0.142594298385899343E+01   -0.255310344715660520E+01   -0.117429194009821991E+01    0.101292949511116087E+00    0.465104788036032188-309
