    0.188079955101013198E-01   -0.595470761577272079E+01
    0.215787620544433609E-01   -0.592328568630472052E+01
    0.353769829273223868E-01   -0.576827075822621804E+01
    0.371672068119049057E-01   -0.574833734144425179E+01
    0.439664206266403221E-01   -0.567300479741643038E+01
    0.481771587610244773E-01   -0.562664834861583252E+01
    0.536453387975692753E-01   -0.556678744254273372E+01
    0.593010979413986228E-01   -0.550527585646058437E+01
    0.598057328224182172E-01   -0.549980738877033115E+01
    0.696598453760147174E-01   -0.539367686804929303E+01
    0.705131290197372473E-01   -0.538454533469612784E+01
    0.766914348363876425E-01   -0.531870538968696671E+01
    0.835977441072464078E-01   -0.524568571307400955E+01
    0.100167720937728882E+00   -0.507298225475252718E+01
    0.103057046484947207E+00   -0.504322746871508887E+01
    0.105458727765083318E+00   -0.501857581649067352E+01
    0.108277736735343938E+00   -0.498973471276553937E+01
    0.109700376534461977E+00   -0.497521837099865483E+01
    0.112004412961006175E+00   -0.495176334564504916E+01
    0.112265822768211371E+00   -0.494910649037711625E+01
    0.113936293530464181E+00   -0.493214919320199918E+01
    0.115636958456039426E+00   -0.491492205395751292E+01
    0.117413808202743539E+00   -0.489696270406960998E+01
    0.117521858954429625E+00   -0.489587189316168825E+01
    0.118803592658042911E+00   -0.488294372490766104E+01
    0.121001761865615842E+00   -0.486082087153679243E+01
    0.121441368412971498E+00   -0.485640399022310998E+01
    0.122358179211616513E+00   -0.484720042177151900E+01
    0.124182486677169801E+00   -0.482891875993875619E+01
    0.130005763721466078E+00   -0.477084754068805950E+01
    0.130504905652999881E+00   -0.476589014339304473E+01
    0.131710829830169684E+00   -0.475392624270219777E+01
    0.140819914197921753E+00   -0.466415614320993299E+01
    0.141113019347190866E+00   -0.466128520242639333E+01
    0.145159241938591005E+00   -0.462176498417215775E+01
    0.145970151400566100E+00   -0.461386984638381215E+01
    0.148686943745613115E+00   -0.458747997856548650E+01
    0.151404111385345458E+00   -0.456118079672558618E+01
    0.151884590935707109E+00   -0.455654010053651604E+01
    0.152150128984451294E+00   -0.455397667535584638E+01
    0.154497870182991021E+00   -0.453135147344090061E+01
    0.154781012964248649E+00   -0.452862758235146323E+01
    0.156429921340942385E+00   -0.451278509745154910E+01
    0.157448709940910342E+00   -0.450301407579626645E+01
    0.163112554979324337E+00   -0.444893486164811147E+01
    0.163855809044837958E+00   -0.444186857409308811E+01
    0.166440327072143568E+00   -0.441735188224028974E+01
    0.166453871798515313E+00   -0.441722362188936923E+01
    0.168132530808448810E+00   -0.440134587411412159E+01
    0.171950608348846429E+00   -0.436536622246842221E+01
    0.174002992630004877E+00   -0.434610248847291825E+01
    0.174252870655059816E+00   -0.434376079847341678E+01
    0.174795717358589175E+00   -0.433867634817175052E+01
    0.176256159567832943E+00   -0.432501612036134109E+01
    0.180371163439750681E+00   -0.428667289632050519E+01
    0.181072759795188915E+00   -0.428015704990648604E+01
    0.181180810546875015E+00   -0.427915412211481705E+01
    0.181939519929885857E+00   -0.427211597242542318E+01
    0.182015295338630673E+00   -0.427141344707764148E+01
    0.183090685200691217E+00   -0.426145124215404625E+01
    0.183305114936828606E+00   -0.425946657082730784E+01
    0.184011487770080584E+00   -0.425293283091940477E+01
    0.184059934902191163E+00   -0.425248494256203102E+01
    0.184423868393898016E+00   -0.424912137526208333E+01
    0.185468449974060062E+00   -0.423947646851550619E+01
    0.186201809906959531E+00   -0.423271347365654105E+01
    0.186956698107719421E+00   -0.422575911293868955E+01
    0.187615033221244815E+00   -0.421970017601704495E+01
    0.189613204479217534E+00   -0.420134401603521468E+01
    0.190065843987464900E+00   -0.419719292750500284E+01
    0.192019150471687328E+00   -0.417930941973795633E+01
    0.193385291361808792E+00   -0.416683062809048366E+01
    0.198669474649429328E+00   -0.411878717709594433E+01
    0.198959986853599557E+00   -0.411615618369005620E+01
    0.199752268052101140E+00   -0.410898644028803339E+01
    0.201088828897476202E+00   -0.409690937825869561E+01
    0.201140824270248431E+00   -0.409644001221042409E+01
    0.202616073560714732E+00   -0.408313718839900908E+01
    0.205653333449363707E+00   -0.405583652948445650E+01
    0.208542147231102010E+00   -0.402997927418145085E+01
    0.208776024055480958E+00   -0.402789053758746718E+01
    0.209886213970184338E+00   -0.401798501971026312E+01
    0.214321787738800063E+00   -0.397856590751944728E+01
    0.214844061470031739E+00   -0.397394093263815096E+01
    0.215190629053115839E+00   -0.397087383433253827E+01
    0.215957219624519359E+00   -0.396409499670680221E+01
    0.217766924715042109E+00   -0.394812175239016927E+01
    0.217830827164649965E+00   -0.394755848390961583E+01
    0.218384728002548212E+00   -0.394267830079647918E+01
    0.218479814028739949E+00   -0.394184093142461389E+01
    0.218684997868537900E+00   -0.394003438453033983E+01
    0.219562709784507759E+00   -0.393231259640388320E+01
    0.221299095940589913E+00   -0.391706540274720227E+01
    0.224382210016250611E+00   -0.389008718261189790E+01
    0.224641948056221008E+00   -0.388781991891031442E+01
    0.224815470671653750E+00   -0.388630571152731541E+01
    0.227138783597946176E+00   -0.386606874044178506E+01
    0.227355021572113042E+00   -0.386418871673595721E+01
    0.227618921971321109E+00   -0.386189511091811832E+01
    0.228080909729003911E+00   -0.385788202591605422E+01
    0.228240034675598141E+00   -0.385650040612233802E+01
    0.228524030399322509E+00   -0.385403538276193247E+01
    0.228665107083320635E+00   -0.385281124823327481E+01
    0.228670156502723709E+00   -0.385276743868077132E+01
    0.230106306910514841E+00   -0.384032034058433958E+01
    0.230437248587608334E+00   -0.383745579332359732E+01
    0.230796132659912112E+00   -0.383435095858526775E+01
    0.231080026030540481E+00   -0.383189605603860661E+01
    0.231101997828483591E+00   -0.383170610272329792E+01
    0.231324922871589678E+00   -0.382977919072378103E+01
    0.231332292294502279E+00   -0.382971550194860244E+01
    0.231426730084419247E+00   -0.382889940324356770E+01
    0.233090206718444826E+00   -0.381454281314188481E+01
    0.233386860108375560E+00   -0.381198625232813049E+01
    0.233545950937271124E+00   -0.381061566765533044E+01
    0.234729800963401791E+00   -0.380042678231656206E+01
    0.235929447484016425E+00   -0.379012012603578796E+01
    0.236787337017059341E+00   -0.378276086805169598E+01
    0.238853061318397536E+00   -0.376507880388137828E+01
    0.239853733420372028E+00   -0.375653281666281913E+01
    0.240370548319816607E+00   -0.375212407471502329E+01
    0.242613309359550472E+00   -0.373303131038791092E+01
    0.242659027075767531E+00   -0.373264277753816165E+01
    0.243451547098159804E+00   -0.372591175315799639E+01
    0.243606304979324340E+00   -0.372459829639146722E+01
    0.244627822995185873E+00   -0.371593613231164754E+01
    0.245234879207611084E+00   -0.371079476071940473E+01
    0.248328296828269957E+00   -0.368466824702546702E+01
    0.248549277162551902E+00   -0.368280653471592823E+01
    0.250136398386955283E+00   -0.366945360218604177E+01
    0.252818083620071410E+00   -0.364696446763461823E+01
    0.253172907686233517E+00   -0.364399568507330418E+01
    0.253594602441787720E+00   -0.364046948013710736E+01
    0.253775085067749040E+00   -0.363896097723567014E+01
    0.254055498433113092E+00   -0.363661805758058110E+01
    0.254333011794090291E+00   -0.363430035106994964E+01
    0.254347341227531443E+00   -0.363418070258285653E+01
    0.254545872116088867E+00   -0.363252326954900129E+01
    0.257061301803588882E+00   -0.361156656468414550E+01
    0.257268839764595025E+00   -0.360984109826015320E+01
    0.259003895330429112E+00   -0.359543727068697327E+01
    0.259028835368156463E+00   -0.359523050570999203E+01
    0.259255786299705526E+00   -0.359334933544178492E+01
    0.259457319545745857E+00   -0.359167939738314734E+01
    0.260252807807922371E+00   -0.358509288133218496E+01
    0.260381840944290177E+00   -0.358402526440132352E+01
    0.260502208185195927E+00   -0.358302953932915580E+01
    0.261364260077476485E+00   -0.357590368050699148E+01
    0.261929931521415693E+00   -0.357123287331460881E+01
    0.264295482158660888E+00   -0.355174426117857944E+01
    0.264398074078559864E+00   -0.355090066260433668E+01
    0.264510067644968316E+00   -0.354997990805347685E+01
    0.264885445404052733E+00   -0.354689490187084244E+01
    0.265784446763992321E+00   -0.353951381037271728E+01
    0.266973550915718061E+00   -0.352976662541709496E+01
    0.268274595236778268E+00   -0.351912239821675099E+01
    0.268815463113784792E+00   -0.351470371415337857E+01
    0.268829451370239281E+00   -0.351458948463838849E+01
    0.268898524183456500E+00   -0.351402546543709970E+01
    0.269666358518600491E+00   -0.350775973023419274E+01
    0.269807298731803924E+00   -0.350661043193700772E+01
    0.271353035187721248E+00   -0.349402223323884975E+01
    0.271560095500946064E+00   -0.349233827149209075E+01
    0.272798329138755791E+00   -0.348227941509037864E+01
    0.275311336469650281E+00   -0.346192459411729780E+01
    0.275710138249397274E+00   -0.345870174134697006E+01
    0.276374819254875170E+00   -0.345333470548282628E+01
    0.277293779468536394E+00   -0.344592368284888595E+01
    0.278913517212867723E+00   -0.343288722816183745E+01
    0.278939310193061840E+00   -0.343267990218583652E+01
    0.279285160735688154E+00   -0.342990074250715127E+01
    0.280300231075286899E+00   -0.342175266305911441E+01
    0.281052560448646571E+00   -0.341572205149565633E+01
    0.281172074747085554E+00   -0.341476469411655215E+01
    0.281522190570831332E+00   -0.341196116699263907E+01
    0.281999155998230000E+00   -0.340814439783590384E+01
    0.282967245697975156E+00   -0.340040641194104198E+01
    0.283207980179786711E+00   -0.339848405177094026E+01
    0.283441447591781637E+00   -0.339662042265524589E+01
    0.283495012378692623E+00   -0.339619294466120758E+01
    0.284859140324592586E+00   -0.338531865186281467E+01
    0.285539993119239832E+00   -0.337989997022260003E+01
    0.286138724613189732E+00   -0.337513971178999661E+01
    0.286340462565422060E+00   -0.337353680107335041E+01
    0.286724320793151854E+00   -0.337048827404726881E+01
    0.286913059902191181E+00   -0.336899002855989238E+01
    0.286946085834503206E+00   -0.336872790901128827E+01
    0.287078940153121964E+00   -0.336767361295455192E+01
    0.287222302722930922E+00   -0.336653617672941463E+01
    0.287232538032531737E+00   -0.336645497989882081E+01
    0.287582063683500588E+00   -0.336368298419199752E+01
    0.287627450394630446E+00   -0.336332314753161654E+01
    0.287971561503410356E+00   -0.336059580039447425E+01
    0.288283124327659623E+00   -0.335812771565953350E+01
    0.288733273243904132E+00   -0.335456397201509704E+01
    0.288980012440681444E+00   -0.335261167199412791E+01
    0.289124759665198072E+00   -0.335146673193893374E+01
    0.289445719027519255E+00   -0.334892891186746500E+01
    0.290545230102539076E+00   -0.334024497285152178E+01
    0.290628545522689852E+00   -0.333958757072653389E+01
    0.290680063247680698E+00   -0.333918111292129405E+01
    0.291051912045478811E+00   -0.333624834426002970E+01
    0.294348807621002184E+00   -0.331032221375719926E+01
    0.294918727240389200E+00   -0.330585440761718097E+01
    0.295643062520027144E+00   -0.330018200505753168E+01
    0.295877416992187503E+00   -0.329834815175336882E+01
    0.297030043104534069E+00   -0.328933880724934236E+01
    0.297075357627868686E+00   -0.328898495540815317E+01
    0.297231650805473313E+00   -0.328776469301311458E+01
    0.297701417398452794E+00   -0.328409883789641599E+01
    0.298840392266767008E+00   -0.327522234472411089E+01
    0.298936102795600900E+00   -0.327447718011152622E+01
    0.298941322803497334E+00   -0.327443654250620142E+01
    0.299550289607048048E+00   -0.326969811620899087E+01
    0.299947760796546947E+00   -0.326660788279362535E+01
    0.300168058776855484E+00   -0.326489598362221578E+01
    0.300380489534209705E+00   -0.326324579979156626E+01
    0.301323147583007822E+00   -0.325593001077853739E+01
    0.301451361894607528E+00   -0.325493583087192340E+01
    0.301596942114830013E+00   -0.325380724652009512E+01
    0.301701205801963801E+00   -0.325299912558096604E+01
    0.302532347059249862E+00   -0.324656207206663128E+01
    0.302994471287727385E+00   -0.324298676788215490E+01
    0.303443733143806460E+00   -0.323951356008262481E+01
    0.304008688116073622E+00   -0.323514955434941198E+01
    0.304736915509217388E+00   -0.322953029079664500E+01
    0.305591612863540640E+00   -0.322294367699424900E+01
    0.306271020486478196E+00   -0.321771448702700624E+01
    0.307823162520273585E+00   -0.320578998176203189E+01
    0.307839048027992279E+00   -0.320566809669074937E+01
    0.307949590714824029E+00   -0.320482002162825630E+01
    0.309979865384101883E+00   -0.318927132104044819E+01
    0.310022467938361357E+00   -0.318894560957817319E+01
    0.310351202416420002E+00   -0.318643308894296462E+01
    0.310476857900619518E+00   -0.318547306292345356E+01
    0.311518198299407967E+00   -0.317752473375136857E+01
    0.312164489865303041E+00   -0.317259860390928061E+01
    0.314041421658611652E+00   -0.315832220236342431E+01
    0.314433453297615073E+00   -0.315534591960405386E+01
    0.314441061544418365E+00   -0.315528817736965816E+01
    0.315225700378417961E+00   -0.314933713490699274E+01
    0.317887222051620510E+00   -0.312920877670986730E+01
    0.317947508025169356E+00   -0.312875388393133713E+01
    0.318027104616165179E+00   -0.312815335141643347E+01
    0.318495438265800512E+00   -0.312462152984139374E+01
    0.320107112087215873E+00   -0.311248860119372805E+01
    0.320996402049064655E+00   -0.310580789135975932E+01
    0.321878344559669516E+00   -0.309919221126000499E+01
    0.322404371237754839E+00   -0.309525100961004984E+01
    0.322996825075149541E+00   -0.309081627918636359E+01
    0.323112000316852221E+00   -0.308995466385321960E+01
    0.323134933519363399E+00   -0.308978312261501964E+01
    0.323134933519363399E+00   -0.308978312261501964E+01
    0.324737680649757388E+00   -0.307781090550029424E+01
    0.326533806896209755E+00   -0.306443258475391955E+01
    0.326603304648399373E+00   -0.306391575103845826E+01
    0.327476001262664795E+00   -0.305743094131748228E+01
    0.327476001262664795E+00   -0.305743094131748228E+01
    0.327826731204986566E+00   -0.305482744502585479E+01
    0.328282679911958364E+00   -0.305144521388372514E+01
    0.328282679911958364E+00   -0.305144521388372514E+01
    0.329275835913839299E+00   -0.304408702210063487E+01
    0.329467212510108964E+00   -0.304267055731428915E+01
    0.329661615157127386E+00   -0.304123216673429297E+01
    0.330646354293823275E+00   -0.303395335212976969E+01
    0.330757305049896255E+00   -0.303313401059989562E+01
    0.331121369683569422E+00   -0.303044657777148219E+01
    0.331153548002243059E+00   -0.303020912569950474E+01
    0.332514706844650343E+00   -0.302017670120032156E+01
    0.332586081933975208E+00   -0.301965127329127236E+01
    0.332966698980331433E+00   -0.301685044057617890E+01
    0.333824588513374321E+00   -0.301054419409684382E+01
    0.333930899262428305E+00   -0.300976335991022337E+01
    0.334132296037673970E+00   -0.300828452439350169E+01
    0.334132296037673970E+00   -0.300828452439350169E+01
    0.334503769540786755E+00   -0.300555816962307532E+01
    0.335126993229817705E+00   -0.300098803799823655E+01
    0.335503231278255376E+00   -0.299823142601239567E+01
    0.335609574044712811E+00   -0.299745259857056023E+01
    0.335898262238502499E+00   -0.299533903546138758E+01
    0.335971376466751126E+00   -0.299480391280905245E+01
    0.336139372014999382E+00   -0.299357460856284208E+01
    0.336275808691978484E+00   -0.299257649651106217E+01
    0.336542779684066762E+00   -0.299062412762680596E+01
    0.337497306944429198E+00   -0.298365095263917146E+01
    0.337898855853080771E+00   -0.298072090688957658E+01
    0.338001618361473077E+00   -0.297997138859869759E+01
    0.339265133213996872E+00   -0.297076653067273133E+01
    0.339292658020292959E+00   -0.297056623211256632E+01
    0.339292658020292959E+00   -0.297056623211256632E+01
    0.339561820721626273E+00   -0.296860803082617641E+01
    0.339673031920292412E+00   -0.296779921713223738E+01
    0.340086143074723513E+00   -0.296479611273742361E+01
    0.340295453596115127E+00   -0.296327535078379256E+01
    0.340697223615646361E+00   -0.296035779934875576E+01
    0.341530173110961899E+00   -0.295431558317084741E+01
    0.341530173110961899E+00   -0.295431558317084741E+01
    0.341748526382446294E+00   -0.295273308807319834E+01
    0.342067356276512136E+00   -0.295042347200473731E+01
    0.342099802207946779E+00   -0.295018850389529863E+01
    0.342153025817871104E+00   -0.294980309584074396E+01
    0.342896669820670297E+00   -0.294442186321662458E+01
    0.343109583735466017E+00   -0.294288243077044687E+01
    0.343158064985275291E+00   -0.294253197602107397E+01
    0.343438942425436711E+00   -0.294050218685801745E+01
    0.344222673654556277E+00   -0.293484370452507859E+01
    0.344586334204673772E+00   -0.293222071734702672E+01
    0.344713081455230719E+00   -0.293130691260236764E+01
    0.344864154624938968E+00   -0.293021798927143973E+01
    0.344981860685348529E+00   -0.292936977167383894E+01
    0.345152005648612981E+00   -0.292814397392865633E+01
    0.345261605015986073E+00   -0.292735456492820356E+01
    0.345351150655746453E+00   -0.292670970823159715E+01
    0.345935518598556535E+00   -0.292250389093982399E+01
    0.346529030084610001E+00   -0.291823664606751176E+01
    0.346543332656129577E+00   -0.291813386752051818E+01
    0.346729232740402238E+00   -0.291679821920230564E+01
    0.346729232740402238E+00   -0.291679821920230564E+01
    0.346837590551376362E+00   -0.291601989361178981E+01
    0.347459720404439842E+00   -0.291155403103520483E+01
    0.348498406004905725E+00   -0.290410879316710435E+01
    0.349316036653518680E+00   -0.289825756981240934E+01
    0.349558327968450211E+00   -0.289652526468945926E+01
    0.349558327968450211E+00   -0.289652526468945926E+01
    0.349647114801406866E+00   -0.289589065139109891E+01
    0.350438884234428427E+00   -0.289023576053485964E+01
    0.350499660830860371E+00   -0.288980201282247906E+01
    0.351046145153045663E+00   -0.288590396519563663E+01
    0.351485171699523924E+00   -0.288277511719909230E+01
    0.352305899479176843E+00   -0.287693243732836956E+01
    0.352506723833084123E+00   -0.287550407246751893E+01
    0.352573312720602328E+00   -0.287503056988646977E+01
    0.353187133097648653E+00   -0.287066840786064681E+01
    0.354575689315795917E+00   -0.286081792054476614E+01
    0.354700704388959120E+00   -0.285993224098198784E+01
    0.354956442832946806E+00   -0.285812104997576011E+01
    0.354956442832946806E+00   -0.285812104997576011E+01
    0.355156884312629706E+00   -0.285670205504628605E+01
    0.355156884312629706E+00   -0.285670205504628605E+01
    0.356153018760681173E+00   -0.284965752692442775E+01
    0.357534034967422476E+00   -0.283991169314077663E+01
    0.359031563115119967E+00   -0.282937057932389502E+01
    0.359031563115119967E+00   -0.282937057932389502E+01
    0.359473830842971798E+00   -0.282626281413723124E+01
    0.359809890174865754E+00   -0.282390299760182950E+01
    0.359856017303466835E+00   -0.282357920196258183E+01
    0.359955402159690852E+00   -0.282288164682673237E+01
    0.360760682201385519E+00   -0.281723415744021510E+01
    0.361125843930244439E+00   -0.281467592059180172E+01
    0.361139939361270090E+00   -0.281457720472003547E+01
    0.362197583198547390E+00   -0.280717718628752966E+01
    0.362448996520042421E+00   -0.280542017749222783E+01
    0.362460528302192719E+00   -0.280533960625430101E+01
    0.362655033302307139E+00   -0.280398087237334925E+01
    0.362655033302307139E+00   -0.280398087237334925E+01
    0.363701661944389354E+00   -0.279667765471041330E+01
    0.364316326403617885E+00   -0.279239499266271718E+01
    0.364316326403617885E+00   -0.279239499266271718E+01
    0.364733983355826963E+00   -0.278948766741301979E+01
    0.365027612185478245E+00   -0.278744500985142540E+01
    0.365535998103929394E+00   -0.278391091801173340E+01
    0.365771992135047908E+00   -0.278227147975079481E+01
    0.365771992135047908E+00   -0.278227147975079481E+01
    0.366451197280734220E+00   -0.277755695514898537E+01
    0.367104430187035757E+00   -0.277302813977778317E+01
    0.367173410725593563E+00   -0.277255021355970088E+01
    0.367266893219947821E+00   -0.277190262220133832E+01
    0.367375012207031282E+00   -0.277115377383822192E+01
    0.367635739660263083E+00   -0.276934853607599285E+01
    0.367819156408309922E+00   -0.276807909408770980E+01
    0.368082306218147304E+00   -0.276625854604193355E+01
    0.368735353088378903E+00   -0.276174430599527376E+01
    0.368735353088378903E+00   -0.276174430599527376E+01
    0.368887552142143249E+00   -0.276069298172110678E+01
    0.368900628129014196E+00   -0.276060267201606768E+01
    0.369247493863105791E+00   -0.275820781155475148E+01
    0.370047690367698690E+00   -0.275268874747831260E+01
    0.370177235269546545E+00   -0.275179600943902569E+01
    0.370177235269546545E+00   -0.275179600943902569E+01
    0.370469931006431608E+00   -0.274977971371694663E+01
    0.370896265769004807E+00   -0.274684472814390945E+01
    0.370896265769004807E+00   -0.274684472814390945E+01
    0.371151159095764183E+00   -0.274509106654140700E+01
    0.371151159095764183E+00   -0.274509106654140700E+01
    0.371524884366989161E+00   -0.274252130716959597E+01
    0.372890414898814693E+00   -0.273314662700630207E+01
    0.373433449633373826E+00   -0.272942502503649642E+01
    0.374098587718686648E+00   -0.272487161191836602E+01
    0.374098587718686648E+00   -0.272487161191836602E+01
    0.374918776559829747E+00   -0.271926433560956315E+01
    0.374972853112220783E+00   -0.271889493196247711E+01
    0.374972853112220783E+00   -0.271889493196247711E+01
    0.377308744526200390E+00   -0.270297291638108073E+01
    0.378598063302040100E+00   -0.269421368379034876E+01
    0.378679604601860065E+00   -0.269366041278776081E+01
    0.378966773271560697E+00   -0.269171258513487555E+01
    0.380275594769554359E+00   -0.268284800975654969E+01
    0.380360174202919010E+00   -0.268227589074734452E+01
    0.380837020034684115E+00   -0.267905203615253606E+01
    0.380837020034684115E+00   -0.267905203615253606E+01
    0.381759409260749805E+00   -0.267282397895436930E+01
    0.381992465947285642E+00   -0.267125203236605469E+01
    0.381992465947285642E+00   -0.267125203236605469E+01
    0.382296012425422660E+00   -0.266920565065212401E+01
    0.382296012425422660E+00   -0.266920565065212401E+01
    0.382441080880165096E+00   -0.266822806502325394E+01
    0.382503277444839473E+00   -0.266780901563456219E+01
    0.383451358414843346E+00   -0.266142727075007768E+01
    0.383601795689399006E+00   -0.266041567051613326E+01
    0.383601795689399006E+00   -0.266041567051613326E+01
    0.383657752132415764E+00   -0.266003946881816633E+01
    0.384081476967103874E+00   -0.265719197982504829E+01
    0.384702300478296066E+00   -0.265302398842455078E+01
    0.385018289392824176E+00   -0.265090438801717321E+01
    0.385707880352919696E+00   -0.264628303385992369E+01
    0.385711978769302355E+00   -0.264625558561583984E+01
    0.385711978769302355E+00   -0.264625558561583984E+01
    0.386246978402137786E+00   -0.264267433355429482E+01
    0.386246978402137786E+00   -0.264267433355429482E+01
    0.386936531209945700E+00   -0.263806375435314155E+01
    0.388178210735321050E+00   -0.262977635456476699E+01
    0.388213296040661349E+00   -0.262954246102737166E+01
    0.388213296040661349E+00   -0.262954246102737166E+01
    0.388976408937978579E+00   -0.262445900543603816E+01
    0.389390273223213512E+00   -0.262170508151511017E+01
    0.389530841016769436E+00   -0.262077020270467331E+01
    0.390069695949554485E+00   -0.261718869318772862E+01
    0.390551437854766870E+00   -0.261398983539967800E+01
    0.390551437854766870E+00   -0.261398983539967800E+01
    0.390963716125488303E+00   -0.261125451471518755E+01
    0.391542727589607231E+00   -0.260741653653893835E+01
    0.391542727589607231E+00   -0.260741653653893835E+01
    0.392694370508194002E+00   -0.259979522395571783E+01
    0.393019478058815042E+00   -0.259764671092475341E+01
    0.393019478058815042E+00   -0.259764671092475341E+01
    0.393682896709442176E+00   -0.259326649091814332E+01
    0.393945668989869269E+00   -0.259153304535472095E+01
    0.393945668989869269E+00   -0.259153304535472095E+01
    0.394795133686065669E+00   -0.258593518325462002E+01
    0.394798742583110096E+00   -0.258591142015918596E+01
    0.395673218511258362E+00   -0.258015811261451367E+01
    0.395673218511258362E+00   -0.258015811261451367E+01
    0.396522907071264974E+00   -0.257457695542950438E+01
    0.396522907071264974E+00   -0.257457695542950438E+01
    0.396612247746653435E+00   -0.257399064286663659E+01
    0.396612247746653435E+00   -0.257399064286663659E+01
    0.397271685484595682E+00   -0.256966603276929506E+01
    0.398420411800601115E+00   -0.256214550903356164E+01
    0.398420411800601115E+00   -0.256214550903356164E+01
    0.398729654932022115E+00   -0.256012373428101325E+01
    0.399112271510997541E+00   -0.255762389495783093E+01
    0.399112271510997541E+00   -0.255762389495783093E+01
    0.399177436350126147E+00   -0.255719831860548075E+01
    0.399230211964640203E+00   -0.255685369188637512E+01
    0.399230211964640203E+00   -0.255685369188637512E+01
    0.399590956234931960E+00   -0.255449894107201558E+01
    0.399658679866790767E+00   -0.255405705591963139E+01
    0.399658679866790767E+00   -0.255405705591963139E+01
    0.399893034338951125E+00   -0.255252837074777661E+01
    0.400144822955131541E+00   -0.255088672027623442E+01
    0.400144822955131541E+00   -0.255088672027623442E+01
    0.400833061240209287E+00   -0.254640343788801982E+01
    0.400833061240209287E+00   -0.254640343788801982E+01
    0.400959348893165590E+00   -0.254558141806805383E+01
    0.400988827204855180E+00   -0.254538956897554591E+01
    0.401086089953178349E+00   -0.254475664522541400E+01
    0.401756986570358299E+00   -0.254039406483671515E+01
    0.401768654823303262E+00   -0.254031823994256456E+01
    0.401831431388855020E+00   -0.253991032202762801E+01
    0.402008698491336192E+00   -0.253875871526427588E+01
    0.402008698491336192E+00   -0.253875871526427588E+01
    0.402207306075096138E+00   -0.253746893249802685E+01
    0.403450657367706300E+00   -0.252940553024687409E+01
    0.403507059122915512E+00   -0.252904020556928488E+01
    0.403507059122915512E+00   -0.252904020556928488E+01
    0.403759996054247006E+00   -0.252740236926281758E+01
    0.403759996054247006E+00   -0.252740236926281758E+01
    0.403773704531713962E+00   -0.252731362567390150E+01
    0.404128473687171974E+00   -0.252501778943666721E+01
    0.404382073490245575E+00   -0.252337760862231741E+01
    0.404382073490245575E+00   -0.252337760862231741E+01
    0.404563661574714628E+00   -0.252220365847838757E+01
    0.404719665169715914E+00   -0.252119543491991260E+01
    0.404719665169715914E+00   -0.252119543491991260E+01
    0.404883477622979326E+00   -0.252013706760833989E+01
    0.405038256239891092E+00   -0.251913737102386603E+01
    0.405239243602752708E+00   -0.251783965917601504E+01
    0.405769545258295672E+00   -0.251441806334549822E+01
    0.405769545258295672E+00   -0.251441806334549822E+01
    0.405909986432237246E+00   -0.251351249470800076E+01
    0.405909986432237246E+00   -0.251351249470800076E+01
    0.405961818285420828E+00   -0.251317834298027210E+01
    0.406228793334960925E+00   -0.251145772260091649E+01
    0.406346704101562539E+00   -0.251069808276037287E+01
    0.406346704101562539E+00   -0.251069808276037287E+01
    0.406356479401707660E+00   -0.251063511311570364E+01
    0.406356479401707660E+00   -0.251063511311570364E+01
    0.406371887220805861E+00   -0.251053586281454866E+01
    0.406451479554176320E+00   -0.251002321115667515E+01
    0.406536923510158688E+00   -0.250947295641737966E+01
    0.406886971512812445E+00   -0.250721960585646730E+01
    0.406886971512812445E+00   -0.250721960585646730E+01
    0.407170208156734215E+00   -0.250539744439156031E+01
    0.407725161480903653E+00   -0.250183010362880198E+01
    0.407725161480903653E+00   -0.250183010362880198E+01
    0.408460875535011314E+00   -0.249710665822958600E+01
    0.408565309810638433E+00   -0.249643670852336408E+01
    0.408565309810638433E+00   -0.249643670852336408E+01
    0.408675185000214880E+00   -0.249573200039081655E+01
    0.409045000288827842E+00   -0.249336120468155942E+01
    0.409447764086723343E+00   -0.249078110304601363E+01
    0.409447764086723343E+00   -0.249078110304601363E+01
    0.409759323241295770E+00   -0.248878662993461797E+01
    0.409759323241295770E+00   -0.248878662993461797E+01
    0.410073175621032737E+00   -0.248677868676103664E+01
    0.410073175621032737E+00   -0.248677868676103664E+01
    0.410275425338745114E+00   -0.248548539093947118E+01
    0.410275425338745114E+00   -0.248548539093947118E+01
    0.411408974387001636E+00   -0.247824618893396620E+01
    0.411408974387001636E+00   -0.247824618893396620E+01
    0.411605469900174659E+00   -0.247699291724772408E+01
    0.411605469900174659E+00   -0.247699291724772408E+01
    0.411734814114196213E+00   -0.247616820421315298E+01
    0.411832194992977074E+00   -0.247554742898787694E+01
    0.411832194992977074E+00   -0.247554742898787694E+01
    0.412056086571188585E+00   -0.247412062746519101E+01
    0.413431926584243770E+00   -0.246536632353164942E+01
    0.413541956162452706E+00   -0.246466722557929652E+01
    0.413833048367500345E+00   -0.246281842408185936E+01
    0.415084295149824145E+00   -0.245488331585680042E+01
    0.415096644848773511E+00   -0.245480509307999872E+01
    0.416146876573562641E+00   -0.244815981181953335E+01
    0.416146876573562641E+00   -0.244815981181953335E+01
    0.416775955456140657E+00   -0.244418585159116475E+01
    0.416831072902679456E+00   -0.244383790064711626E+01
    0.416831072902679456E+00   -0.244383790064711626E+01
    0.417434187676228641E+00   -0.244003293921977793E+01
    0.417875483894348143E+00   -0.243725170175519645E+01
    0.417887152147293106E+00   -0.243717819593959861E+01
    0.418909318399429353E+00   -0.243074541235218611E+01
    0.418910341930389396E+00   -0.243073897741885814E+01
    0.419236473011970534E+00   -0.242868924904280536E+01
    0.419236613061331365E+00   -0.242868836911580210E+01
    0.419236613061331365E+00   -0.242868836911580210E+01
    0.419653425407409686E+00   -0.242607061467737406E+01
    0.419718083838272360E+00   -0.242566472424716784E+01
    0.420376720619201671E+00   -0.242153308868741224E+01
    0.420554473829269415E+00   -0.242041895445463640E+01
    0.420742428231239307E+00   -0.241924130278684357E+01
    0.420778456521034239E+00   -0.241901561263772535E+01
    0.421160404157638557E+00   -0.241662397860891875E+01
    0.421160404157638557E+00   -0.241662397860891875E+01
    0.421819114565849307E+00   -0.241250355530330651E+01
    0.421962988901138314E+00   -0.241160428910847902E+01
    0.421962988901138314E+00   -0.241160428910847902E+01
    0.422139377403259297E+00   -0.241050214462876600E+01
    0.422283067882962826E+00   -0.240960459263762639E+01
    0.422429753136634833E+00   -0.240868859556008807E+01
    0.422429753136634833E+00   -0.240868859556008807E+01
    0.422555238032341018E+00   -0.240790519686352589E+01
    0.422555238032341018E+00   -0.240790519686352589E+01
    0.422572756770204339E+00   -0.240779584325498508E+01
    0.422704127669334406E+00   -0.240697593384736752E+01
    0.422704127669334406E+00   -0.240697593384736752E+01
    0.422712923950382902E+00   -0.240692104224538772E+01
    0.423246701431274408E+00   -0.240359187836996790E+01
    0.423317563891410842E+00   -0.240315017306534440E+01
    0.424386164331436166E+00   -0.239649676451921723E+01
    0.424595779238602977E+00   -0.239519328706005341E+01
    0.425058144582747821E+00   -0.239232000279842572E+01
    0.425058144582747821E+00   -0.239232000279842572E+01
    0.425425171013281089E+00   -0.239004105213499507E+01
    0.425707345997910769E+00   -0.238829008709394275E+01
    0.425799035553046490E+00   -0.238772134115099144E+01
    0.425799035553046490E+00   -0.238772134115099144E+01
    0.426331875427155504E+00   -0.238441820164306195E+01
    0.427325838742691644E+00   -0.237826580692769562E+01
    0.427420562429704498E+00   -0.237768012221431357E+01
    0.427711070537567128E+00   -0.237588457154455979E+01
    0.427916732025146518E+00   -0.237461405992074814E+01
    0.428104905213983145E+00   -0.237345203966376461E+01
    0.428729890666320890E+00   -0.236959569999996056E+01
    0.429416444594632962E+00   -0.236536498202743939E+01
    0.429686021019406228E+00   -0.236370536319995495E+01
    0.429723537881395390E+00   -0.236347446516290782E+01
    0.429928140950202931E+00   -0.236221553619880131E+01
    0.429928140950202931E+00   -0.236221553619880131E+01
    0.430127115368843072E+00   -0.236099173228226666E+01
    0.430127115368843072E+00   -0.236099173228226666E+01
    0.431009706115722646E+00   -0.235556915098408570E+01
    0.431124614524841299E+00   -0.235486386280788418E+01
    0.431142526316642793E+00   -0.235475393785504306E+01
    0.431240068817138666E+00   -0.235415538690837556E+01
    0.431579297139775886E+00   -0.235207468397414621E+01
    0.431718254347959907E+00   -0.235122277780042399E+01
    0.431718254347959907E+00   -0.235122277780042399E+01
    0.431923446321487436E+00   -0.234996523776752708E+01
    0.432008160567283639E+00   -0.234944620813525384E+01
    0.432205049856928869E+00   -0.234824024058075098E+01
    0.432205049856928869E+00   -0.234824024058075098E+01
    0.432601014053840327E+00   -0.234581635479968797E+01
    0.432615624780594121E+00   -0.234572695227474126E+01
    0.432615624780594121E+00   -0.234572695227474126E+01
    0.432797176901143665E+00   -0.234461625910693039E+01
    0.432906786632537843E+00   -0.234394588780587965E+01
    0.433254003289906320E+00   -0.234182328683960028E+01
    0.433300470757484457E+00   -0.234153933434443751E+01
    0.433300470757484457E+00   -0.234153933434443751E+01
    0.433596021020010713E+00   -0.233973390985811847E+01
    0.434207300039102795E+00   -0.233600318700560150E+01
    0.434207300039102795E+00   -0.233600318700560150E+01
    0.434209809780120859E+00   -0.233598787911932693E+01
    0.434250860056728638E+00   -0.233573750845593953E+01
    0.434368627667427065E+00   -0.233501934374562214E+01
    0.434482956075668336E+00   -0.233432231406196689E+01
    0.434560773751204887E+00   -0.233384797195966920E+01
    0.434659016091799189E+00   -0.233324923589289579E+01
    0.434659016091799189E+00   -0.233324923589289579E+01
    0.434829898953437821E+00   -0.233220807472649705E+01
    0.434829898953437821E+00   -0.233220807472649705E+01
    0.434978720355033877E+00   -0.233130162128024843E+01
    0.435521495013334037E+00   -0.232799794007935512E+01
    0.435757840977721744E+00   -0.232656050962545802E+01
    0.435757840977721744E+00   -0.232656050962545802E+01
    0.436328450632095355E+00   -0.232309293767891134E+01
    0.436329236091648309E+00   -0.232308816721522327E+01
    0.436634766460870738E+00   -0.232123311002249144E+01
    0.436828752565383949E+00   -0.232005589663029044E+01
    0.437498175930976896E+00   -0.231599700155943067E+01
    0.437498175930976896E+00   -0.231599700155943067E+01
    0.437507558298110999E+00   -0.231594015262826058E+01
    0.437507558298110999E+00   -0.231594015262826058E+01
    0.438435730290412939E+00   -0.231032155707727904E+01
    0.439972391499993065E+00   -0.230104265630494886E+01
    0.440076928067207329E+00   -0.230041247479702715E+01
    0.440081158661842387E+00   -0.230038697416052740E+01
    0.440125982667569082E+00   -0.230011680317584855E+01
    0.440627007722854624E+00   -0.229709860703308344E+01
    0.440808343291282656E+00   -0.229600698875136944E+01
    0.440808343291282656E+00   -0.229600698875136944E+01
    0.441077195427356850E+00   -0.229438926955752454E+01
    0.441828425722708473E+00   -0.228987369026239040E+01
    0.441828425722708473E+00   -0.228987369026239040E+01
    0.442101199364662190E+00   -0.228823577513831644E+01
    0.442456072933594846E+00   -0.228610623519713529E+01
    0.442468216411239068E+00   -0.228603339128636662E+01
    0.442468216411239068E+00   -0.228603339128636662E+01
    0.442737934919364973E+00   -0.228441592025187523E+01
    0.442803341603279110E+00   -0.228402381746269212E+01
    0.443060891676834434E+00   -0.228248035222896295E+01
    0.443299481177330035E+00   -0.228105123677382737E+01
    0.443388542898139337E+00   -0.228051794821059683E+01
    0.444909672597945394E+00   -0.227142456897890987E+01
    0.444935649093176511E+00   -0.227126952517119873E+01
    0.444935649093176511E+00   -0.227126952517119873E+01
    0.445779788038186631E+00   -0.226623565405238514E+01
    0.446248194166870116E+00   -0.226344614140119571E+01
    0.446430527790290577E+00   -0.226236100693849940E+01
    0.446430527790290577E+00   -0.226236100693849940E+01
    0.446671587765497646E+00   -0.226092699157415478E+01
    0.446773891139030488E+00   -0.226031862399742955E+01
    0.447408139157295215E+00   -0.225654978349464352E+01
    0.447408139157295215E+00   -0.225654978349464352E+01
    0.447448523963235256E+00   -0.225630997392098864E+01
    0.447448523963235256E+00   -0.225630997392098864E+01
    0.447994842757793610E+00   -0.225306782077451961E+01
    0.447994842757793610E+00   -0.225306782077451961E+01
    0.448096088433265705E+00   -0.225246737265526109E+01
    0.448210200250158786E+00   -0.225179077001231631E+01
    0.448475466010403112E+00   -0.225021854311993286E+01
    0.448584329482202449E+00   -0.224957355837272699E+01
    0.448626106882095366E+00   -0.224932607757240310E+01
    0.448730541157722485E+00   -0.224870752307232724E+01
    0.448796553928342945E+00   -0.224831660399576405E+01
    0.449219959545135494E+00   -0.224581051083401340E+01
    0.449271308024351279E+00   -0.224550673282824853E+01
    0.449271308024351279E+00   -0.224550673282824853E+01
    0.449274957275390630E+00   -0.224548514505071406E+01
    0.449274957275390630E+00   -0.224548514505071406E+01
    0.449405800379391540E+00   -0.224471122695946201E+01
    0.449405800379391540E+00   -0.224471122695946201E+01
    0.449676521843907218E+00   -0.224311060944033436E+01
    0.449770598362036478E+00   -0.224255459869212226E+01
    0.449876861715316767E+00   -0.224192669075425410E+01
    0.449876861715316767E+00   -0.224192669075425410E+01
    0.449958437132835398E+00   -0.224144475645282393E+01
    0.449970968545168104E+00   -0.224137073007452070E+01
    0.450028310179710400E+00   -0.224103202217429498E+01
    0.450442886200123405E+00   -0.223858437674151478E+01
    0.450442886200123405E+00   -0.223858437674151478E+01
    0.450445380587966293E+00   -0.223856965626666060E+01
    0.450475763797759998E+00   -0.223839035771255057E+01
    0.450475763797759998E+00   -0.223839035771255057E+01
    0.450548442289306517E+00   -0.223796151014976807E+01
    0.450725778293609658E+00   -0.223691538865193085E+01
    0.451076205679861120E+00   -0.223484930881359034E+01
    0.451245204523703647E+00   -0.223385344426392241E+01
    0.451512159557401815E+00   -0.223228105734010063E+01
    0.451529932451248173E+00   -0.223217640428553077E+01
    0.451785132837295544E+00   -0.223067411772857671E+01
    0.452016427939952670E+00   -0.222931323769450351E+01
    0.452091748595237763E+00   -0.222887021086996295E+01
    0.452283763003349326E+00   -0.222774111748447678E+01
    0.452363871359825143E+00   -0.222727019242222424E+01
    0.452363871359825143E+00   -0.222727019242222424E+01
    0.452398121012664522E+00   -0.222706887616321225E+01
    0.452509249470262387E+00   -0.222641577157234849E+01
    0.452509249470262387E+00   -0.222641577157234849E+01
    0.452556033339257702E+00   -0.222614086651852050E+01
    0.452556033339257702E+00   -0.222614086651852050E+01
    0.452895480033622455E+00   -0.222414705169483273E+01
    0.453016710532453182E+00   -0.222343531675469874E+01
    0.453323875164985679E+00   -0.222163277560927019E+01
    0.453390984468847846E+00   -0.222123910903045374E+01
    0.453390984468847846E+00   -0.222123910903045374E+01
    0.453885793662071269E+00   -0.221833822075468445E+01
    0.453908857226371754E+00   -0.221820307986159948E+01
    0.454190669417381288E+00   -0.221655232345134579E+01
    0.454190669417381288E+00   -0.221655232345134579E+01
    0.454491345834807547E+00   -0.221479212975768025E+01
    0.455009424259356143E+00   -0.221176181357440038E+01
    0.455033026494706949E+00   -0.221162383821537389E+01
    0.455744285194694398E+00   -0.220746908961858468E+01
    0.455750560071885635E+00   -0.220743246283772043E+01
    0.455822894239425680E+00   -0.220701027906112746E+01
    0.455918833208084129E+00   -0.220645042198869179E+01
    0.456177445363998402E+00   -0.220494183262655596E+01
    0.456177445363998402E+00   -0.220494183262655596E+01
    0.456354277396202102E+00   -0.220391076666012919E+01
    0.456375566840171831E+00   -0.220378665849298105E+01
    0.456553794708564553E+00   -0.220274788336858540E+01
    0.456747434578182232E+00   -0.220161971814260271E+01
    0.456747434578182232E+00   -0.220161971814260271E+01
    0.457372178936004681E+00   -0.219798299393797869E+01
    0.457372178936004681E+00   -0.219798299393797869E+01
    0.457598778885337953E+00   -0.219666509304125235E+01
    0.457598778885337953E+00   -0.219666509304125235E+01
    0.457758644425204309E+00   -0.219573569252392131E+01
    0.457758644425204309E+00   -0.219573569252392131E+01
    0.457934976132435279E+00   -0.219471092283018310E+01
    0.458112737703323392E+00   -0.219367822467158780E+01
    0.458236563987788725E+00   -0.219295908745535462E+01
    0.458504579472541807E+00   -0.219140318889197294E+01
    0.458591033463593256E+00   -0.219090148693969544E+01
    0.458591033463593256E+00   -0.219090148693969544E+01
    0.458752293400237821E+00   -0.218996591985190969E+01
    0.458964306129584054E+00   -0.218873638418430705E+01
    0.459115634321000554E+00   -0.218785911225565943E+01
    0.459170360887289020E+00   -0.218754192253321955E+01
    0.459170360887289020E+00   -0.218754192253321955E+01
    0.459548332878433385E+00   -0.218535222481149072E+01
    0.459632187957412508E+00   -0.218486666329377854E+01
    0.459635275284997202E+00   -0.218484878779690250E+01
    0.459635275284997202E+00   -0.218484878779690250E+01
    0.459830325007438701E+00   -0.218371969206475081E+01
    0.459920161545922801E+00   -0.218319980497102062E+01
    0.459922185148463891E+00   -0.218318809543974757E+01
    0.459922185148463891E+00   -0.218318809543974757E+01
    0.460111181902885469E+00   -0.218209468843546617E+01
    0.460142374067721294E+00   -0.218191427330269283E+01
    0.460205746007151195E+00   -0.218154776698483488E+01
    0.460381257605552707E+00   -0.218053296407373942E+01
    0.460775510654495735E+00   -0.217825476394564577E+01
    0.460818576938180846E+00   -0.217800601842329788E+01
    0.460876287756606495E+00   -0.217767272307293647E+01
    0.460877294826507578E+00   -0.217766690733378088E+01
    0.461119052839279175E+00   -0.217627113140839024E+01
    0.461329396569481964E+00   -0.217505729937749770E+01
    0.461509511854624743E+00   -0.217401833229859642E+01
    0.461509511854624743E+00   -0.217401833229859642E+01
    0.461532195390104927E+00   -0.217388751367099564E+01
    0.461836309218406682E+00   -0.217213425446390440E+01
    0.462086650994473214E+00   -0.217069183826233481E+01
    0.462301606392860442E+00   -0.216945391573371271E+01
    0.463106053941772899E+00   -0.216482608178524316E+01
    0.463176111245155342E+00   -0.216442342581072245E+01
    0.463176111245155342E+00   -0.216442342581072245E+01
    0.463216522655128637E+00   -0.216419118728058146E+01
    0.463246207190987414E+00   -0.216402060712251787E+01
    0.463369200945383197E+00   -0.216331394541872379E+01
    0.463858409559354201E+00   -0.216050500312321780E+01
    0.463858409559354201E+00   -0.216050500312321780E+01
    0.463868086409568781E+00   -0.216044946967534823E+01
    0.464179840689910250E+00   -0.215866098166985765E+01
    0.464354122660002366E+00   -0.215766166371311385E+01
    0.464732402029489955E+00   -0.215549390486663439E+01
    0.464732402029489955E+00   -0.215549390486663439E+01
    0.465061775951457979E+00   -0.215360781040808291E+01
    0.465128793640009586E+00   -0.215322420735694386E+01
    0.465128793640009586E+00   -0.215322420735694386E+01
    0.465157668753742037E+00   -0.215305894559971689E+01
    0.465392646839745683E+00   -0.215171446329509974E+01
    0.465392646839745683E+00   -0.215171446329509974E+01
    0.465436148320588494E+00   -0.215146563251505496E+01
    0.465466861552503608E+00   -0.215128996496253011E+01
    0.465515396404166115E+00   -0.215101238801255645E+01
    0.465515396404166115E+00   -0.215101238801255645E+01
    0.465693803751953628E+00   -0.214999229833194905E+01
    0.465836848211288457E+00   -0.214917468266383027E+01
    0.465841167924990696E+00   -0.214914999582292099E+01
    0.465915728330612178E+00   -0.214872392418777070E+01
    0.466132133565069551E+00   -0.214748766766651356E+01
    0.466233022928237928E+00   -0.214691151103218347E+01
    0.466526337903358512E+00   -0.214523715265555426E+01
    0.466640505491727753E+00   -0.214458571952144172E+01
    0.466640505491727753E+00   -0.214458571952144172E+01
    0.466681603481089002E+00   -0.214435125547321004E+01
    0.466704021163157123E+00   -0.214422337118048745E+01
    0.466769148445129400E+00   -0.214385187938448496E+01
    0.466772279483584573E+00   -0.214383402095314279E+01
    0.466772279483584573E+00   -0.214383402095314279E+01
    0.466983403466991465E+00   -0.214263011098259692E+01
    0.467192610709283807E+00   -0.214143766167321248E+01
    0.467218879567401491E+00   -0.214128797052261755E+01
    0.467344509315490764E+00   -0.214057219381464048E+01
    0.467558563756942769E+00   -0.213935305526986719E+01
    0.467686012804296836E+00   -0.213862743688894952E+01
    0.467702680017569206E+00   -0.213853255827133459E+01
    0.467799236286151332E+00   -0.213798297473263244E+01
    0.467857673406999797E+00   -0.213765041420168656E+01
    0.467923145484924308E+00   -0.213727786728470459E+01
    0.467923145484924308E+00   -0.213727786728470459E+01
    0.467981486749649067E+00   -0.213694593944333944E+01
    0.468421601672524890E+00   -0.213444326489572678E+01
    0.468549409961700469E+00   -0.213371693214295544E+01
    0.468549409961700469E+00   -0.213371693214295544E+01
    0.468552992320060757E+00   -0.213369657648810307E+01
    0.468755310273170467E+00   -0.213254721785315082E+01
    0.468755310273170467E+00   -0.213254721785315082E+01
    0.469306419519301021E+00   -0.212941889614902014E+01
    0.469323339499160663E+00   -0.212932290936049551E+01
    0.469843409229545761E+00   -0.212637424512032291E+01
    0.470004462000221335E+00   -0.212546177769388400E+01
    0.470170031941998467E+00   -0.212452404349937307E+01
    0.470278339545962931E+00   -0.212391080327932613E+01
    0.470467908504520804E+00   -0.212283779960562180E+01
    0.470662180665090302E+00   -0.212173862403549096E+01
    0.470662180665090302E+00   -0.212173862403549096E+01
    0.470821307516098020E+00   -0.212083863648097015E+01
    0.470864056992530866E+00   -0.212059690654492705E+01
    0.470927652382850670E+00   -0.212023734265724384E+01
    0.470927652382850670E+00   -0.212023734265724384E+01
    0.471190322323357169E+00   -0.211875274143471071E+01
    0.471543272137641911E+00   -0.211675919030062998E+01
    0.471564965881052012E+00   -0.211663670741886811E+01
    0.471611974712978499E+00   -0.211637131498947095E+01
    0.471679613506566620E+00   -0.211598950102539396E+01
    0.471945246863365198E+00   -0.211449056141660430E+01
    0.472826048663579801E+00   -0.210952637400230181E+01
    0.472876801672265257E+00   -0.210924061531118934E+01
    0.473200632173613744E+00   -0.210741805679515881E+01
    0.473203029942512510E+00   -0.210740456655972874E+01
    0.473203029942512510E+00   -0.210740456655972874E+01
    0.473817694401741041E+00   -0.210394864719908092E+01
    0.474127185710048804E+00   -0.210221026900057106E+01
    0.474424744170150847E+00   -0.210054000283076814E+01
    0.474473241101579901E+00   -0.210026787900029799E+01
    0.474521225061567020E+00   -0.209999866137570512E+01
    0.474660162734985347E+00   -0.209921929727338030E+01
    0.475184266424425295E+00   -0.209628145285914780E+01
    0.475574784400893791E+00   -0.209409456585402820E+01
    0.475768737064599490E+00   -0.209300911917130739E+01
    0.475775602138504838E+00   -0.209297070740461066E+01
    0.476013680076599111E+00   -0.209163895364275199E+01
    0.476230975699424741E+00   -0.209042404611195609E+01
    0.476258341832455634E+00   -0.209027108132854478E+01
    0.476360857038089336E+00   -0.208969814591965308E+01
    0.476360857038089336E+00   -0.208969814591965308E+01
    0.476375464153289796E+00   -0.208961652017870358E+01
    0.476378880410213756E+00   -0.208959743022874589E+01
    0.476425753641128547E+00   -0.208933551806484363E+01
    0.476459390989036946E+00   -0.208914757992522881E+01
    0.477573438906669645E+00   -0.208293086764008217E+01
    0.477577260088920597E+00   -0.208290956998650278E+01
    0.477577260088920597E+00   -0.208290956998650278E+01
    0.477577670046162750E+00   -0.208290728506865008E+01
    0.477999603080749513E+00   -0.208055668965086937E+01
    0.478113487958908123E+00   -0.207992260165949583E+01
    0.478165674465801771E+00   -0.207963208976909009E+01
    0.478172242511992862E+00   -0.207959552908098244E+01
    0.478499331763505287E+00   -0.207777545895099891E+01
    0.478499331763505287E+00   -0.207777545895099891E+01
    0.479258409717678469E+00   -0.207355656049288095E+01
    0.479267847784615342E+00   -0.207350414795406968E+01
    0.479496141815185573E+00   -0.207223668543863626E+01
    0.479512759510819619E+00   -0.207214445030139904E+01
    0.479742354571262297E+00   -0.207087044118649555E+01
    0.480150828763442228E+00   -0.206860540619581146E+01
    0.480527060707706455E+00   -0.206652092895377448E+01
    0.480527060707706455E+00   -0.206652092895377448E+01
    0.480761771965026896E+00   -0.206522139358164480E+01
    0.481243684458732612E+00   -0.206255523987508882E+01
    0.481385067331183636E+00   -0.206177357544193329E+01
    0.481409632945060728E+00   -0.206163778380677387E+01
    0.481461769072338452E+00   -0.206134961428981001E+01
    0.481553474776595047E+00   -0.206084281282056248E+01
    0.481917530954021178E+00   -0.205883189101015818E+01
    0.481917530954021178E+00   -0.205883189101015818E+01
    0.482620913600921631E+00   -0.205495114538404078E+01
    0.482648412466049226E+00   -0.205479954739444448E+01
    0.482924900929833756E+00   -0.205327580273297894E+01
    0.483081297826767009E+00   -0.205241429552705235E+01
    0.483151827339233508E+00   -0.205202588187633239E+01
    0.483151827339233508E+00   -0.205202588187633239E+01
    0.483293782854080201E+00   -0.205124429817314047E+01
    0.483583845076505092E+00   -0.204964801381263673E+01
    0.483583845076505092E+00   -0.204964801381263673E+01
    0.484271903157234229E+00   -0.204586548944540780E+01
    0.484509039626270899E+00   -0.204456317101748963E+01
    0.484532202448633986E+00   -0.204443600031201678E+01
    0.484576732512355057E+00   -0.204419153521146324E+01
    0.484840123869312967E+00   -0.204274603136273347E+01
    0.484912258243560823E+00   -0.204235029945963120E+01
    0.484965810880685855E+00   -0.204205654794945790E+01
    0.485197314633995180E+00   -0.204078707864471687E+01
    0.485343070112335850E+00   -0.203998814587897526E+01
    0.485404187580848356E+00   -0.203965321698099489E+01
    0.485489493994033183E+00   -0.203918580535299920E+01
    0.485700053307737190E+00   -0.203803247966582157E+01
    0.485849092182758791E+00   -0.203721644900880250E+01
    0.485956771588325509E+00   -0.203662703868451134E+01
    0.486074749068375556E+00   -0.203598141849735947E+01
    0.486191426867854992E+00   -0.203534307444054141E+01
    0.486284559176708264E+00   -0.203483366459005754E+01
    0.486457789993286149E+00   -0.203388641238717538E+01
    0.486457789993286149E+00   -0.203388641238717538E+01
    0.486659937357902528E+00   -0.203278149390853669E+01
    0.486667316969740027E+00   -0.203274116689015694E+01
    0.486771562457732954E+00   -0.203217157104224810E+01
    0.487547952818870589E+00   -0.202793347276409408E+01
    0.487580763613584323E+00   -0.202775452649799171E+01
    0.487611929371765118E+00   -0.202758456398682574E+01
    0.487648109988634726E+00   -0.202738726749849674E+01
    0.488054057227033988E+00   -0.202517466957214731E+01
    0.488572916722297690E+00   -0.202234951537095586E+01
    0.488755306713408610E+00   -0.202135717851485364E+01
    0.488773478090129998E+00   -0.202125833451466308E+01
    0.488984751462936407E+00   -0.202010939328032535E+01
    0.488984751462936407E+00   -0.202010939328032535E+01
    0.489015411025379210E+00   -0.201994270556579814E+01
    0.489096145749092104E+00   -0.201950382650980220E+01
    0.489294405723334658E+00   -0.201842640310162169E+01
    0.489369257926940915E+00   -0.201801974858943467E+01
    0.489445644245608547E+00   -0.201760482857243373E+01
    0.490120154356956494E+00   -0.201394400602013768E+01
    0.490287842845916755E+00   -0.201303473996125470E+01
    0.490339940571784982E+00   -0.201275231608210126E+01
    0.490371858298336016E+00   -0.201257930480016922E+01
    0.490378903694006829E+00   -0.201254111659644064E+01
    0.490554249787099939E+00   -0.201159087790256974E+01
    0.490558566784858707E+00   -0.201156748777958549E+01
    0.490615475106239318E+00   -0.201125917099353568E+01
    0.490615475106239318E+00   -0.201125917099353568E+01
    0.490647591282644180E+00   -0.201108518966567029E+01
    0.490880671977996841E+00   -0.200982290232564642E+01
    0.490982460053015324E+00   -0.200927185543049402E+01
    0.491248733711242669E+00   -0.200783092283906672E+01
    0.491329592657089254E+00   -0.200739352432630236E+01
    0.491498884677886994E+00   -0.200647800841573609E+01
    0.491498884677886994E+00   -0.200647800841573609E+01
    0.491609698963165309E+00   -0.200587891995056999E+01
    0.491674386119842544E+00   -0.200552927346193988E+01
    0.491778274512290947E+00   -0.200496784122816640E+01
    0.491821313420437611E+00   -0.200473528866204820E+01
    0.491881017267501663E+00   -0.200441272684672933E+01
    0.491886325263977076E+00   -0.200438405140631337E+01
    0.492027805109456651E+00   -0.200361985732441505E+01
    0.492252846284542911E+00   -0.200240480407191823E+01
    0.492343797813476369E+00   -0.200191390552388304E+01
    0.492481883300234125E+00   -0.200116879639422773E+01
    0.492524985397762183E+00   -0.200093626408536984E+01
    0.492609168749646276E+00   -0.200048216563369419E+01
    0.492627895957732154E+00   -0.200038115957014107E+01
    0.492921564826500236E+00   -0.199879778981721756E+01
    0.492947488045692439E+00   -0.199865806939449353E+01
    0.493062839984893808E+00   -0.199803644506595823E+01
    0.493119151766568786E+00   -0.199773304203953428E+01
    0.493195216655731239E+00   -0.199732327098410156E+01
    0.493456444788183679E+00   -0.199591652751306614E+01
    0.493597792953118619E+00   -0.199515569051339003E+01
    0.493710806197999341E+00   -0.199454754361980058E+01
    0.494110783075012050E+00   -0.199239641043166626E+01
    0.494348505895348733E+00   -0.199111880597016344E+01
    0.494373174006554617E+00   -0.199098626958283131E+01
    0.494384087287011831E+00   -0.199092763721730814E+01
    0.494541918001953795E+00   -0.199007983924319176E+01
    0.494581680748660768E+00   -0.198986629785028857E+01
    0.494627921175956720E+00   -0.198961799248060522E+01
    0.494740372610885770E+00   -0.198901424846953057E+01
    0.494916912598799941E+00   -0.198806672124108297E+01
    0.495232453655887639E+00   -0.198637407058542048E+01
    0.495645292104043622E+00   -0.198416127965088451E+01
    0.495809787502607013E+00   -0.198328015883354691E+01
    0.496149468183517461E+00   -0.198146167600382439E+01
    0.496347896718978887E+00   -0.198040002289389605E+01
    0.496362667537619651E+00   -0.198032101325263632E+01
    0.496533384961272750E+00   -0.197940802800767357E+01
    0.496765906763076803E+00   -0.197816507494942373E+01
    0.496828546857833897E+00   -0.197783034021943416E+01
    0.497012709666362962E+00   -0.197684648550974185E+01
    0.497047293017970793E+00   -0.197666177554138267E+01
    0.497283950200224034E+00   -0.197539816934855228E+01
    0.497530836113776354E+00   -0.197408065788205045E+01
    0.497565223107806043E+00   -0.197389720853725859E+01
    0.497767826994837070E+00   -0.197281663334182733E+01
    0.498620425243405996E+00   -0.196827470218470069E+01
    0.498714251583823764E+00   -0.196777540163091014E+01
    0.498732314517042252E+00   -0.196767929103322814E+01
    0.498917167326015210E+00   -0.196669593536404852E+01
    0.499072982305995450E+00   -0.196586736672949280E+01
    0.499629282065022662E+00   -0.196291151606582881E+01
    0.499734770150557395E+00   -0.196235142893756676E+01
    0.500026373307001726E+00   -0.196080385484741293E+01
    0.500160924839973431E+00   -0.196009011370903030E+01
    0.500504802147464067E+00   -0.195826696140637435E+01
    0.500649285578727787E+00   -0.195750136497352423E+01
    0.500663517618577303E+00   -0.195742596489949916E+01
    0.500734750413894703E+00   -0.195704861606235081E+01
    0.500851443273172880E+00   -0.195643057711629709E+01
    0.501334969303223965E+00   -0.195387140680321303E+01
    0.501523585724830689E+00   -0.195287386433290400E+01
    0.501708691012054731E+00   -0.195189530181158233E+01
    0.501730452586010678E+00   -0.195178028555923255E+01
    0.501734477411875490E+00   -0.195175901379883210E+01
    0.502021945097475442E+00   -0.195024020452730595E+01
    0.502051652968860340E+00   -0.195008330160039578E+01
    0.502479089826065040E+00   -0.194782694131994472E+01
    0.502514892414633207E+00   -0.194763804443179289E+01
    0.502887929899727637E+00   -0.194567077777206476E+01
    0.503139229345321626E+00   -0.194434644443776161E+01
    0.503146156195720562E+00   -0.194430995094752257E+01
    0.503149703478813159E+00   -0.194429126262489338E+01
    0.503284536270622973E+00   -0.194358102713763436E+01
    0.503661467211348635E+00   -0.194159667639521305E+01
    0.504037228805178317E+00   -0.193962015800923560E+01
    0.504042625336562189E+00   -0.193959178426569956E+01
    0.504114642490724685E+00   -0.193921316736602511E+01
    0.504162657952308635E+00   -0.193896076908763648E+01
    0.504178227550523772E+00   -0.193887893173790937E+01
    0.504287256427361719E+00   -0.193830593165389331E+01
    0.504416607746882684E+00   -0.193762630988551177E+01
    0.504769778109706690E+00   -0.193577173524249724E+01
    0.504770750985543248E+00   -0.193576662850013892E+01
    0.505006729817390476E+00   -0.193452827840521691E+01
    0.505145151724187835E+00   -0.193380218637757939E+01
    0.505243532655174077E+00   -0.193328626723327401E+01
    0.505298050740721538E+00   -0.193300041846836690E+01
    0.505340284518347671E+00   -0.193277900288002513E+01
    0.505408329248428378E+00   -0.193242231474639214E+01
    0.505551218153328152E+00   -0.193167347449041493E+01
    0.505571206423076291E+00   -0.193156874090990183E+01
    0.505765065328739771E+00   -0.193055321372691147E+01
    0.505799659252166744E+00   -0.193037204072874702E+01
    0.505911071346425767E+00   -0.192978865700747293E+01
    0.505914680916581760E+00   -0.192976975878410406E+01
    0.506163635602298823E+00   -0.192846670673330811E+01
    0.506228666515552872E+00   -0.192812644972658509E+01
    0.506265201512777208E+00   -0.192793531200562174E+01
    0.506516498189395592E+00   -0.192662104793375910E+01
    0.506620373976045313E+00   -0.192607800315617261E+01
    0.506645641444516515E+00   -0.192594592847876944E+01
    0.506879333125642040E+00   -0.192472476516294799E+01
    0.507061759022604086E+00   -0.192377194196649137E+01
    0.507142659116848304E+00   -0.192334952115641933E+01
    0.507169533320351640E+00   -0.192320921431534297E+01
    0.507378172521026571E+00   -0.192212022592088294E+01
    0.507635605053737615E+00   -0.192077727132279197E+01
    0.507746900749560304E+00   -0.192019691504839041E+01
    0.507761005356312967E+00   -0.192012337641939190E+01
    0.507767086011986168E+00   -0.192009167380961543E+01
    0.508072555701815642E+00   -0.191849961451405759E+01
    0.508108632270595328E+00   -0.191831166205063708E+01
    0.508163094592094411E+00   -0.191802795226207556E+01
    0.508265618276596109E+00   -0.191749397226324536E+01
    0.508461232439715416E+00   -0.191647548855679140E+01
    0.508564659932810192E+00   -0.191593716633428168E+01
    0.508745934833276015E+00   -0.191499396687415158E+01
    0.508855699296289932E+00   -0.191442303535322411E+01
    0.509212151532201340E+00   -0.191256995822614062E+01
    0.509719310108721291E+00   -0.190993599670006797E+01
    0.509839386806171357E+00   -0.190931281539346154E+01
    0.509924452372676362E+00   -0.190887144004992382E+01
    0.510258262467384371E+00   -0.190714024257210202E+01
    0.510307153129577640E+00   -0.190688679755516133E+01
    0.510446503155478570E+00   -0.190616457382428428E+01
    0.510523868751525889E+00   -0.190576370218531621E+01
    0.510624392310619846E+00   -0.190524294260659177E+01
    0.510718599106829041E+00   -0.190475501516014489E+01
    0.510992398833432726E+00   -0.190333751274096974E+01
    0.511043412703573341E+00   -0.190307350406966691E+01
    0.511054217864242988E+00   -0.190301758878702443E+01
    0.511114428514240604E+00   -0.190270603184706721E+01
    0.511302775812149113E+00   -0.190173171467828084E+01
    0.511521527036318480E+00   -0.190060064413718921E+01
    0.511523039674758984E+00   -0.190059282488651227E+01
    0.511557252859912270E+00   -0.190041597458755818E+01
    0.511628256806212156E+00   -0.190004899440884256E+01
    0.511782098554008247E+00   -0.189925407550357339E+01
    0.511855510111968282E+00   -0.189887484754848179E+01
    0.511931446408118496E+00   -0.189848264426457547E+01
    0.511932653854957120E+00   -0.189847640847343357E+01
    0.512012969827651987E+00   -0.189806165978877783E+01
    0.512054009212187022E+00   -0.189784976332154054E+01
    0.512158232184714013E+00   -0.189731172371669476E+01
    0.512299506633648649E+00   -0.189658261454557908E+01
    0.512363570738265439E+00   -0.189625206104441579E+01
    0.512600561852960324E+00   -0.189502967163714531E+01
    0.512650865926190358E+00   -0.189477029074861680E+01
    0.512707508125441080E+00   -0.189447826455848745E+01
    0.512717798576459161E+00   -0.189442521486814686E+01
    0.512849554110445860E+00   -0.189374609453223353E+01
    0.513092584017996622E+00   -0.189249395898950779E+01
    0.513191240930025994E+00   -0.189198585888367932E+01
    0.513653742078312270E+00   -0.188960542827200939E+01
    0.513656640882696136E+00   -0.188959051647193688E+01
    0.513823795212012269E+00   -0.188873082193737307E+01
    0.514013462471804794E+00   -0.188775573959132092E+01
    0.514104642628289810E+00   -0.188728713188937602E+01
    0.514226040876934021E+00   -0.188666337458364097E+01
    0.514673775029182434E+00   -0.188436436953896713E+01
    0.514746377491950957E+00   -0.188399179625489133E+01
    0.514826685124821548E+00   -0.188357975476535211E+01
    0.556452671170234670E+00   -0.168014632480085724E+01
    0.532640462207794263E+00   -0.179405210009241500E+01
    0.531750433802604672E+00   -0.179843704844408081E+01
    0.521349619245529139E+00   -0.185036534887862092E+01
    0.548011201930046155E+00   -0.171977636321524097E+01
    0.539426097178459241E+00   -0.176092411517581016E+01
    0.549278162670135517E+00   -0.171377605212536421E+01
    0.538938521146774319E+00   -0.176328665251674588E+01
    0.551662853336334247E+00   -0.170253237192839779E+01
    0.568897545289993256E+00   -0.162321113972717379E+01
    0.568897545289993256E+00   -0.162321113972717379E+01
    0.570904314208030672E+00   -0.161419548245174216E+01
    0.543541681051254333E+00   -0.174109199684123661E+01
    0.550118993353843733E+00   -0.170980410567871277E+01
    0.528403282856941270E+00   -0.181501036550032557E+01
    0.537166174936294594E+00   -0.177189776599397364E+01
    0.558678714537620524E+00   -0.166983216368897924E+01
    0.545993174171447770E+00   -0.172937197333591075E+01
    0.552901974034309407E+00   -0.169671583880242016E+01
    0.564625395298004151E+00   -0.164255688407579625E+01
    0.547130521774292000E+00   -0.172395816568064220E+01
    0.542012628149986297E+00   -0.174843726067653615E+01
    0.523907218408584563E+00   -0.183747858321286373E+01
    0.561634160184860232E+00   -0.165622607610708661E+01
    0.569282631754875257E+00   -0.162147754308245506E+01
    0.541640813469886795E+00   -0.175022747698256875E+01
    0.553575662112236078E+00   -0.169356090346473542E+01
    0.534591823983192493E+00   -0.178447053082322848E+01
    0.531102982234954890E+00   -0.180163268508556884E+01
    0.552076155138015778E+00   -0.170059033610264509E+01
    0.556218555521965086E+00   -0.168123437980679924E+01
    0.517233762431144717E+00   -0.187126480063351019E+01
    0.516452774190902741E+00   -0.187525297444563854E+01
    0.562617227554321309E+00   -0.165172243349576009E+01
    0.547711239123344407E+00   -0.172119969477107770E+01
    0.528911909508705147E+00   -0.181248348692766559E+01
    0.536824588537216152E+00   -0.177356159088175280E+01
    0.517282721328735318E+00   -0.187101502746625425E+01
    0.542002085781097431E+00   -0.174848799809461841E+01
    0.547659994339942946E+00   -0.172144295649611001E+01
    0.527243895220756542E+00   -0.182078155295930166E+01
    0.562044152569770805E+00   -0.165434647061786810E+01
    0.539788768315315304E+00   -0.175916859064088005E+01
    0.517327893161773744E+00   -0.187078459974210554E+01
    0.539040908360481241E+00   -0.176279030897722522E+01
    0.522195431113243069E+00   -0.184609513580970153E+01
    0.559729642009735073E+00   -0.166498252013722170E+01
    0.521290493273735112E+00   -0.185066416947572288E+01
    0.532506277298927300E+00   -0.179471260455231896E+01
    0.546206955671310390E+00   -0.172835322681610104E+01
    0.528982260203361476E+00   -0.181213421965891497E+01
    0.531801439762115469E+00   -0.179818550529872634E+01
    0.570538333654403651E+00   -0.161583628454597528E+01
    0.537043317103385931E+00   -0.177249603505664322E+01
    0.544026664137840288E+00   -0.173876788899989498E+01
    0.569764100718498256E+00   -0.161931241927134328E+01
    0.547712194418907172E+00   -0.172119516021977081E+01
    0.570711310386657789E+00   -0.161506058772496663E+01
    0.554415093970298756E+00   -0.168963707700058974E+01
    0.539412484216690080E+00   -0.176099003899633733E+01
    0.536304430103301977E+00   -0.177609782332420307E+01
    0.520064849066734336E+00   -0.185686777485512788E+01
    0.520220255184173586E+00   -0.185608020945335261E+01
    0.544768314671516429E+00   -0.173521905681458133E+01
    0.519052440476417520E+00   -0.186200539190313163E+01
    0.529146843981742832E+00   -0.181131734302335534E+01
    0.553774841237068216E+00   -0.169262913103418078E+01
    0.534060236120224019E+00   -0.178707633637666996E+01
    0.567428607773780791E+00   -0.162983954455247249E+01
    0.554605811905860890E+00   -0.168874671698420542E+01
    0.563329127454757717E+00   -0.164846795908414356E+01
    0.536696340107917780E+00   -0.177418662323856480E+01
    0.557337513685226438E+00   -0.167603968826072558E+01
    0.568380457448959375E+00   -0.162554163727211654E+01
    0.529999513506889341E+00   -0.180709036389882871E+01
    0.549840115284919717E+00   -0.171112057686896746E+01
    0.539809000110626269E+00   -0.175907070274795330E+01
    0.564169173431396498E+00   -0.164463510220355191E+01
    0.520732566547393860E+00   -0.185348593205915790E+01
    0.530038339447975182E+00   -0.180689809229442711E+01
    0.538763838529586758E+00   -0.176413374414830004E+01
    0.530043661808967559E+00   -0.180687173657434763E+01
    0.566051412749290495E+00   -0.163607627951599444E+01
    0.523895277214050270E+00   -0.183753857214200922E+01
    0.539078369593620321E+00   -0.176260873818195507E+01
    0.562630784939023521E+00   -0.165166040139193693E+01
    0.569189604793990167E+00   -0.162189618089999965E+01
    0.569189604793990167E+00   -0.162189618089999965E+01
    0.545450974575407144E+00   -0.173195811971748848E+01
    0.558308364563476434E+00   -0.167154420671196613E+01
    0.532768227561440932E+00   -0.179342338993912653E+01
    0.542323351209530236E+00   -0.174694241732674160E+01
    0.557640869026531538E+00   -0.167463385447105528E+01
    0.571229526349870453E+00   -0.161273873355261710E+01
    0.571229526349870453E+00   -0.161273873355261710E+01
    0.560488004262002959E+00   -0.166149081046615077E+01
    0.544035087978529286E+00   -0.173872754480597913E+01
    0.518898458221567882E+00   -0.186278785275015957E+01
    0.562119176792276187E+00   -0.165400273083218519E+01
    0.567378353833599358E+00   -0.163006674379109873E+01
    0.535328143604398510E+00   -0.178086657851948083E+01
    0.546671588374900819E+00   -0.172614090393890707E+01
    0.537553180308384171E+00   -0.177001434941353275E+01
    0.539802631011285672E+00   -0.175910151797429104E+01
    0.570416784636307850E+00   -0.161638156220587659E+01
    0.539772328909672860E+00   -0.175924813323752227E+01
    0.522581670789683317E+00   -0.184414793575084923E+01
    0.558386128966188000E+00   -0.167118458937528280E+01
    0.548076076970771209E+00   -0.171946866597661141E+01
    0.519661302891706089E+00   -0.185891418632879679E+01
    0.569363592147700492E+00   -0.162111328701768809E+01
    0.565264165598124313E+00   -0.163965109550222587E+01
    0.546246160849020779E+00   -0.172816645719703788E+01
    0.568338930655874264E+00   -0.162572892904807409E+01
    0.550172756923209882E+00   -0.170955041253533802E+01
    0.548001224262256059E+00   -0.171982369082138353E+01
    0.570055217643601342E+00   -0.161800456979879970E+01
    0.524138565823506597E+00   -0.183631669391820718E+01
    0.572366391587340262E+00   -0.160765571292446308E+01
    0.567860271618845336E+00   -0.162788916602444100E+01
    0.527321721567304391E+00   -0.182039365775149253E+01
    0.562417163909696871E+00   -0.165263807307717503E+01
    0.538887489015560162E+00   -0.176353408694249403E+01
    0.526193761514443303E+00   -0.182602246396743229E+01
    0.564374468465259072E+00   -0.164369963211044201E+01
    0.529711719370595358E+00   -0.180851611027615400E+01
    0.538295182179063136E+00   -0.176640815834583376E+01
    0.559902254968303370E+00   -0.166418718379613573E+01
    0.558411513488728306E+00   -0.167106721500289357E+01
    0.528547400668710088E+00   -0.181429407525677577E+01
    0.571267798828583362E+00   -0.161256737551639828E+01
    0.536554713681257511E+00   -0.177487707685640772E+01
    0.525206193155008383E+00   -0.183096290341135814E+01
    0.545678245053570321E+00   -0.173087368701026922E+01
    0.532211234182175086E+00   -0.179616564675807933E+01
    0.551174748495811384E+00   -0.170482842696418779E+01
    0.549950171965259305E+00   -0.171060093649181844E+01
    0.548313917215870639E+00   -0.171834102368377573E+01
    0.515937629194056724E+00   -0.187788752918308699E+01
    0.549208230826038424E+00   -0.171410676580129828E+01
    0.517458644539252388E+00   -0.187011775429797922E+01
    0.523169024788145642E+00   -0.184119018492964126E+01
    0.569537720627078747E+00   -0.162033010259918453E+01
    0.553330172334648651E+00   -0.169470994747316483E+01
    0.526787955512444062E+00   -0.182305543049544161E+01
    0.531770502761679031E+00   -0.179833807189727146E+01
    0.552110419088149063E+00   -0.170042942379229212E+01
    0.528717242532863119E+00   -0.181345024359637264E+01
    0.568988097389573344E+00   -0.162280333729401982E+01
    0.544245523573196222E+00   -0.173771997468785999E+01
    0.550249310923979884E+00   -0.170918923608732554E+01
    0.566832874192875313E+00   -0.163253471970915376E+01
    0.542252531770001767E+00   -0.174728302092294463E+01
    0.526222289251450537E+00   -0.182587991987425813E+01
    0.544204645504097195E+00   -0.173791565966166983E+01
    0.554808207279801291E+00   -0.168780229824356409E+01
    0.547377757412644383E+00   -0.172278329347107428E+01
    0.559996099773657274E+00   -0.166375492491412036E+01
    0.546120254075744049E+00   -0.172876632776880079E+01
    0.552922988687759243E+00   -0.169661734663509023E+01
    0.529931712336441318E+00   -0.180742616717633453E+01
    0.524634703770335498E+00   -0.183382706920893490E+01
    0.529148562630889274E+00   -0.181130881454254999E+01
    0.547212640589398336E+00   -0.172356785599030427E+01
    0.542831353108262693E+00   -0.174450090290096860E+01
    0.553558567718147154E+00   -0.169364089336070878E+01
    0.519171532200485952E+00   -0.186140041837910930E+01
    0.553790177814142415E+00   -0.169255740447328606E+01
    0.534907931874306741E+00   -0.178292255236081143E+01
    0.538253069987201349E+00   -0.176661265594108130E+01
    0.558197918349844002E+00   -0.167205507842751544E+01
    0.519170983938243458E+00   -0.186140320311219565E+01
    0.540162701872618500E+00   -0.175736014775345284E+01
    0.528174877182261082E+00   -0.181614607804157968E+01
    0.553473805579238753E+00   -0.169403757094685692E+01
    0.533155055272921063E+00   -0.179152104074417307E+01
    0.520896623226286382E+00   -0.185265582199684364E+01
    0.540350396983160453E+00   -0.175645301529980946E+01
    0.534423834841193379E+00   -0.178529364597291273E+01
    0.525752379223791810E+00   -0.182822912550808270E+01
    0.529564878486267654E+00   -0.180924393987251575E+01
    0.557545280873681048E+00   -0.167507672296053012E+01
    0.567067612927528164E+00   -0.163147224917278200E+01
    0.568962171785755921E+00   -0.162292008402741339E+01
    0.539281594900106520E+00   -0.176162400961847943E+01
    0.561088506741073578E+00   -0.165873059850359406E+01
    0.569565470841953081E+00   -0.162020532121548322E+01
    0.549380249791081798E+00   -0.171329337462585896E+01
    0.538613787571767033E+00   -0.176486167187402465E+01
    0.550668901561572222E+00   -0.170721083585604316E+01
    0.530742923982519543E+00   -0.180341194606157762E+01
    0.562482735721817395E+00   -0.165233791747438263E+01
    0.548854459585578769E+00   -0.171578064446534051E+01
    0.569854365135916807E+00   -0.161890680131030740E+01
    0.552370841170899740E+00   -0.169920685632518031E+01
    0.531083166553188657E+00   -0.180173056676863053E+01
    0.518217195506900263E+00   -0.186625303340552584E+01
    0.554764547934577190E+00   -0.168800598199035679E+01
    0.562593620420768215E+00   -0.165183045345122093E+01
    0.543439317115309684E+00   -0.174158288725817112E+01
    0.564116818114773877E+00   -0.164487374718991952E+01
    0.544487308025165540E+00   -0.173656293800795547E+01
    0.565860568930178554E+00   -0.163694223494147084E+01
    0.517698540889208858E+00   -0.186889478122428887E+01
    0.558656917695019573E+00   -0.166993288197898737E+01
    0.555029658472935616E+00   -0.168676950013192561E+01
    0.551676571090681800E+00   -0.170246788295798757E+01
    0.562991022191196788E+00   -0.165001289710146448E+01
    0.568215013039440220E+00   -0.162628793182282383E+01
    0.531376454245315766E+00   -0.180028230862315475E+01
    0.534401422224113021E+00   -0.178540348841448293E+01
    0.548863128904699127E+00   -0.171573960808552939E+01
    0.543306152856351532E+00   -0.174222166338888584E+01
    0.541537943898472207E+00   -0.175072305713325993E+01
    0.525682552631728695E+00   -0.182857842782265667E+01
    0.533977908287491587E+00   -0.178748019575361483E+01
    0.529390976176966510E+00   -0.181010622744721261E+01
    0.559099557842883788E+00   -0.166788860854901611E+01
    0.539238434543713341E+00   -0.176183310310585961E+01
    0.568400953013299404E+00   -0.162544920657518310E+01
    0.554773420159219044E+00   -0.168796458866816290E+01
    0.555859035464975393E+00   -0.168290647764871659E+01
    0.534045309454841632E+00   -0.178714955331090142E+01
    0.515811864380004925E+00   -0.187853119007576042E+01
    0.545842654079894407E+00   -0.173008957306108924E+01
    0.539493326854213029E+00   -0.176059857192860059E+01
    0.519402115750596804E+00   -0.186022955173625970E+01
    0.545169013286721182E+00   -0.173330434228183461E+01
    0.519456219888839388E+00   -0.185995491000373692E+01
    0.559409732523113656E+00   -0.166645744588145073E+01
    0.533878514494736112E+00   -0.178796787740738594E+01
    0.544505721085963290E+00   -0.173647485175206984E+01
    0.546671274728998458E+00   -0.172614239650540391E+01
    0.559166572883059376E+00   -0.166757930425531931E+01
    0.556971997986873690E+00   -0.167773499215602850E+01
    0.553379200973227792E+00   -0.169448040774830888E+01
    0.545173205296750396E+00   -0.173328432082326001E+01
    0.517054719261069606E+00   -0.187217846368579521E+01
    0.549742938949103088E+00   -0.171157951783687801E+01
    0.542813929799924821E+00   -0.174458459179400105E+01
    0.542069100371839085E+00   -0.174816549788294706E+01
    0.545540461459219750E+00   -0.173153105722001577E+01
    0.569547055391060653E+00   -0.162028812700087088E+01
    0.571660731574588632E+00   -0.161080905233797145E+01
    0.516472669898844106E+00   -0.187515128645696483E+01
    0.560373174717732847E+00   -0.166201909469552556E+01
    0.533593126122691941E+00   -0.178936879217859723E+01
    0.547006321981496568E+00   -0.172454863366053424E+01
    0.552886977608859298E+00   -0.169678612764673931E+01
    0.519362674626169918E+00   -0.186042978321151531E+01
    0.546585173477969533E+00   -0.172655217491728230E+01
    0.565530004898258443E+00   -0.163844315409109087E+01
    0.564576935878437047E+00   -0.164277751757518997E+01
    0.517601178487416269E+00   -0.186939104562231728E+01
    0.553862273899517588E+00   -0.169222025957720246E+01
    0.564361145787554142E+00   -0.164376032511046155E+01
    0.560614637295634766E+00   -0.166090839806031165E+01
    0.558203720038203510E+00   -0.167202823909511977E+01
    0.528204503583907803E+00   -0.181599873084458618E+01
    0.543985993090196684E+00   -0.173896268588643332E+01
    0.559569931514460328E+00   -0.166571871047450126E+01
    0.570131419623206348E+00   -0.161766238965315723E+01
    0.564799576632995737E+00   -0.164176406565167321E+01
    0.571451306495576516E+00   -0.161174598439421723E+01
    0.517290378673975537E+00   -0.187097596460692994E+01
    0.568888150543864990E+00   -0.162325345441356972E+01
    0.515044713325467418E+00   -0.188246148127335977E+01
    0.525172848310719753E+00   -0.183112991459630647E+01
    0.569870048739127499E+00   -0.161883633390748871E+01
    0.562095334921021372E+00   -0.165411196057664500E+01
    0.552394428761763367E+00   -0.169909616146963982E+01
    0.569933792770313974E+00   -0.161854995678068536E+01
    0.549805985595264279E+00   -0.171128175096239610E+01
    0.565852630597594497E+00   -0.163697826418261139E+01
    0.515731542307701019E+00   -0.187894237370005190E+01
    0.563635739966968918E+00   -0.164706805243465282E+01
    0.541018435018717381E+00   -0.175322769512308052E+01
    0.568124205193902054E+00   -0.162669768454641939E+01
    0.568124205193902054E+00   -0.162669768454641939E+01
    0.566146804441047036E+00   -0.163564359447279761E+01
    0.566204874850702811E+00   -0.163538024496509071E+01
    0.518282388867879362E+00   -0.186592119724819239E+01
    0.552903427707675865E+00   -0.169670902551487401E+01
    0.569079749815875391E+00   -0.162239067445728691E+01
    0.544247254397859148E+00   -0.173771168958661604E+01
    0.521667924524608639E+00   -0.184875735002677732E+01
    0.549851820047050022E+00   -0.171106530537565193E+01
    0.525393853917567988E+00   -0.183002322739690593E+01
    0.520260781592650212E+00   -0.185587487679436647E+01
    0.555947319037230270E+00   -0.168249574070543373E+01
    0.522670011887275687E+00   -0.184370281618762655E+01
    0.560343680265437460E+00   -0.166215481107559082E+01
    0.540244467376135851E+00   -0.175696492398009818E+01
    0.554336054718271409E+00   -0.169000619146201281E+01
    0.569429478121420085E+00   -0.162081690858981808E+01
    0.570438292811855208E+00   -0.161628506276124417E+01
    0.546412876763090471E+00   -0.172737243724648581E+01
    0.560144796059746208E+00   -0.166307022079516043E+01
    0.516765701310912262E+00   -0.187365412738259995E+01
    0.531945837133936950E+00   -0.179747355363056194E+01
    0.536771946392826771E+00   -0.177381812483606316E+01
    0.537921135715809351E+00   -0.176822525601905101E+01
    0.533934890859552036E+00   -0.178769124924333034E+01
    0.570814134990253685E+00   -0.161459964210262941E+01
    0.515671492962013311E+00   -0.187924982709062194E+01
    0.559474098575867163E+00   -0.166616059545778672E+01
    0.563064250583618198E+00   -0.164967817658672278E+01
    0.560338916997053627E+00   -0.166217672981026166E+01
    0.524326137403822390E+00   -0.183537511902125594E+01
    0.539619655093751316E+00   -0.175998700022612020E+01
    0.537459795235053606E+00   -0.177046866181889673E+01
    0.558262681225977997E+00   -0.167175549917918431E+01
    0.514877888913234050E+00   -0.188331707861403919E+01
    0.570922147136113889E+00   -0.161411557086979762E+01
    0.549152190259648454E+00   -0.171437182713411951E+01
    0.523452015147202299E+00   -0.183976656822034679E+01
    0.557003267680535430E+00   -0.167758989978974382E+01
    0.545454837085757815E+00   -0.173193968456485226E+01
    0.541558466037438069E+00   -0.175062418074161941E+01
    0.532515652191542510E+00   -0.179466645127429381E+01
    0.526173535403591131E+00   -0.182612353322571774E+01
    0.543152724482100058E+00   -0.174295789902742349E+01
    0.539126261933652762E+00   -0.176237663259464306E+01
    0.555665058505681708E+00   -0.168380926443984080E+01
    0.518327590936381366E+00   -0.186569114670155223E+01
    0.542632345882647527E+00   -0.174545699800563914E+01
    0.535453109071067357E+00   -0.178025555519424561E+01
    0.547320454507444265E+00   -0.172305553601042316E+01
    0.562794095911152148E+00   -0.165091333350141833E+01
    0.537356809754731879E+00   -0.177096979708377367E+01
    0.565868666540301102E+00   -0.163690548353664833E+01
    0.541752130208210669E+00   -0.174969134025908302E+01
    0.560791211782166621E+00   -0.166009660043626628E+01
    0.542089286502226209E+00   -0.174806836458778947E+01
    0.563819652352660183E+00   -0.164622887497722981E+01
    0.568226700524018802E+00   -0.162623520113784226E+01
    0.570764980302255087E+00   -0.161481997942903233E+01
    0.530681323720739062E+00   -0.180371650095897573E+01
    0.566701115404588451E+00   -0.163313135907116425E+01
    0.549209063562953625E+00   -0.171410282738543551E+01
    0.544822857629284507E+00   -0.173495831737212747E+01
    0.547589499241449951E+00   -0.172177765002285166E+01
    0.565598120919774794E+00   -0.163813377283141559E+01
    0.520268502519484977E+00   -0.185583575983695526E+01
    0.569656130674553229E+00   -0.161979772196956895E+01
    0.526355734628253691E+00   -0.182521326192421607E+01
    0.541428067041031968E+00   -0.175125253074411846E+01
    0.570874722171566873E+00   -0.161432809603609795E+01
    0.549086395252500914E+00   -0.171468307135092246E+01
    0.517408466193268413E+00   -0.187037364523346383E+01
    0.560966414382977008E+00   -0.165929146248358972E+01
    0.542157778683181601E+00   -0.174773882341635822E+01
    0.522000324570309981E+00   -0.184707941686647481E+01
    0.521539707972338284E+00   -0.184940492505904563E+01
    0.542838735616858803E+00   -0.174446544376270962E+01
    0.534471506595255552E+00   -0.178506002997197744E+01
    0.571272814635574777E+00   -0.161254491938850486E+01
    0.545910133222404226E+00   -0.172976783603026751E+01
    0.525651880662785675E+00   -0.182873188009826126E+01
    0.532666152669025617E+00   -0.179392566670650422E+01
    0.516972812017017169E+00   -0.187259656471632407E+01
    0.540495808962140445E+00   -0.175575051856014230E+01
    0.569353984080357534E+00   -0.162115651162720753E+01
    0.552150899539546880E+00   -0.170023933460378451E+01
    0.549404112199854966E+00   -0.171318056823984644E+01
    0.555269772557297148E+00   -0.168565029889984697E+01
    0.558195293669136006E+00   -0.167206722065383184E+01
    0.535817567885096713E+00   -0.177847455778635943E+01
    0.541566047289792518E+00   -0.175058765523409754E+01
    0.528774957706759863E+00   -0.181316357187288091E+01
    0.548211293797257193E+00   -0.171882749924851375E+01
    0.534168359187572772E+00   -0.178654605831045110E+01
    0.541070061382648904E+00   -0.175297865591161228E+01
    0.529522943294662540E+00   -0.180945184151240035E+01
    0.523719035706714520E+00   -0.183842415018809024E+01
    0.543546524461573477E+00   -0.174106877307501007E+01
    0.545322247351662237E+00   -0.173257261309870314E+01
    0.560070263393998902E+00   -0.166341339090237850E+01
    0.531903644706786083E+00   -0.179768155837516685E+01
    0.527650345807048393E+00   -0.181875653873170529E+01
    0.571767586881768208E+00   -0.161033119167501693E+01
    0.559474081664541045E+00   -0.166616067344506136E+01
    0.540049579062575114E+00   -0.175790706884683612E+01
    0.532747648846134569E+00   -0.179352464121448962E+01
    0.565178084670704184E+00   -0.164004240942825441E+01
    0.515681400061259509E+00   -0.187919909969571819E+01
    0.562595922652004865E+00   -0.165181991877414136E+01
    0.520889083788866558E+00   -0.185269396385476748E+01
    0.538107924154763495E+00   -0.176731764466376617E+01
    0.537779603041297904E+00   -0.176891323796990951E+01
    0.570782731156122991E+00   -0.161474040754283510E+01
    0.536782246858629408E+00   -0.177376792641233649E+01
    0.563531155644467874E+00   -0.164754543449460211E+01
    0.553660321491399543E+00   -0.169316480586070073E+01
    0.535940409227396164E+00   -0.177787461833313576E+01
    0.533729109046336747E+00   -0.178870116073008933E+01
    0.570518664365282535E+00   -0.161592451101655832E+01
    0.548519213401630679E+00   -0.171736820326597117E+01
    0.549864429676745092E+00   -0.171100576274024041E+01
    0.543034179350798896E+00   -0.174352693186711072E+01
    0.545255641196428664E+00   -0.173289064001320270E+01
    0.566458789147511799E+00   -0.163422919398038791E+01
    0.533111450407076415E+00   -0.179173539444471275E+01
    0.563025787111511744E+00   -0.164985398208629008E+01
    0.554748568057074287E+00   -0.168808053831417260E+01
    0.569469828869527017E+00   -0.162063542100478197E+01
    0.543450989457693545E+00   -0.174152690593953219E+01
    0.564676940998980914E+00   -0.164232222827706131E+01
    0.567517049303763121E+00   -0.162943976813750657E+01
    0.542724178413107050E+00   -0.174501574782948610E+01
    0.529446092818544933E+00   -0.180983289557780846E+01
    0.522502977730082696E+00   -0.184454451933374841E+01
    0.566495155581055121E+00   -0.163406439683005544E+01
    0.540320051679890834E+00   -0.175659964678090641E+01
    0.521780424990363589E+00   -0.184818931009014831E+01
    0.569774565405269828E+00   -0.161926538974108336E+01
    0.521168185295655784E+00   -0.185128243994474806E+01
    0.553466978934657128E+00   -0.169406952249455034E+01
    0.533093769517286042E+00   -0.179182231684088222E+01
    0.528136600324772720E+00   -0.181633646355353662E+01
    0.535178309195270208E+00   -0.178159943901220097E+01
    0.555943178115223091E+00   -0.168251500423417300E+01
    0.540877178200106501E+00   -0.175390925852566681E+01
    0.528828207682534024E+00   -0.181289911334097997E+01
    0.568046183206713406E+00   -0.162704981850176744E+01
    0.523424033773579822E+00   -0.183990729003323605E+01
    0.549253727952810800E+00   -0.171389159958606152E+01
    0.550154894907706193E+00   -0.170963469399730705E+01
    0.515096291334327550E+00   -0.188219701794504179E+01
    0.539109191216401107E+00   -0.176245936111882129E+01
    0.523565049961649320E+00   -0.183919819547358765E+01
    0.544167935004356784E+00   -0.173809141078760532E+01
    0.514869879559428312E+00   -0.188335816467345252E+01
    0.526745118888064523E+00   -0.182326919167201651E+01
    0.540335032243420943E+00   -0.175652725789413333E+01
    0.545806250875444210E+00   -0.173026316349097309E+01
    0.520573484946995180E+00   -0.185429117047938496E+01
    0.522888327437568856E+00   -0.184260319382217008E+01
    0.564643035459100884E+00   -0.164247657588660911E+01
    0.517295561360443634E+00   -0.187094952625931166E+01
    0.554927804018890081E+00   -0.168724445624140418E+01
    0.518277256301512446E+00   -0.186594732035237776E+01
    0.572086964992689961E+00   -0.160890369382147513E+01
    0.541416647144450591E+00   -0.175130756886579952E+01
    0.560593939463467472E+00   -0.166100357927634490E+01
    0.551619965764113540E+00   -0.170273400602767389E+01
    0.571846161771428108E+00   -0.160997988468141573E+01
    0.562690731373581721E+00   -0.165138614036237907E+01
    0.528809217305034163E+00   -0.181299342258535479E+01
    0.569201284233885829E+00   -0.162184361594972803E+01
    0.546068789887728556E+00   -0.172901157661835936E+01
    0.561327595648067001E+00   -0.165763277322293745E+01
    0.523997096150969011E+00   -0.183702711838888244E+01
    0.543727334549973573E+00   -0.174020199736594261E+01
    0.522156148960402633E+00   -0.184629327203696514E+01
    0.526390482662791759E+00   -0.182503970408876892E+01
    0.550759570753086791E+00   -0.170678359052497730E+01
    0.521496324607522821E+00   -0.184962408228639830E+01
    0.521450934739385197E+00   -0.184985339929200032E+01
    0.552732704069750280E+00   -0.169750936405120778E+01
    0.525047363304311787E+00   -0.183175853622922302E+01
    0.524487688550796305E+00   -0.183456449228917284E+01
    0.537417782687259149E+00   -0.177067308322339079E+01
    0.515791291655189110E+00   -0.187863649844336900E+01
    0.542887310239571819E+00   -0.174423214933900539E+01
    0.544417738658849126E+00   -0.173689578635258202E+01
    0.523022127244833435E+00   -0.184192954065794856E+01
    0.553336261883957015E+00   -0.169468143623542167E+01
    0.517413940553656637E+00   -0.187034572658856502E+01
    0.522745968960898422E+00   -0.184332016851449776E+01
    0.567778749616070333E+00   -0.162825734291674595E+01
    0.555993997759445358E+00   -0.168227860535772811E+01
    0.518545516054644606E+00   -0.186458237981503805E+01
    0.555252695477210345E+00   -0.168572987539937169E+01
    0.527573172282894798E+00   -0.181914088336608004E+01
    0.562073620326273171E+00   -0.165421145001523562E+01
    0.536909232357294042E+00   -0.177314917496089564E+01
    0.556750600960522202E+00   -0.167876260213298201E+01
    0.551512331402526756E+00   -0.170324013765542670E+01
    0.537571747180728754E+00   -0.176992403484354233E+01
    0.525228086585113996E+00   -0.183085325492738149E+01
    0.546762019227768681E+00   -0.172571061233422229E+01
    0.524822011328743065E+00   -0.183288790792570744E+01
    0.527743677648202625E+00   -0.181829181441412868E+01
